%YAML:1.0
my_nb: !!opencv-ml-bayesian
   var_count: 107
   var_all: 107
   cls_labels: !!opencv-matrix
      rows: 1
      cols: 4
      dt: i
      data: [ 0, 1, 2, 3 ]
   count:
      - !!opencv-matrix
         rows: 1
         cols: 107
         dt: i
         data: [ 5, 5, 5, 5, 5, 5, 5, 5, 5, 5, 5, 5, 5, 5, 5, 5, 5, 5, 5,
             5, 5, 5, 5, 5, 5, 5, 5, 5, 5, 5, 5, 5, 5, 5, 5, 5, 5, 5, 5,
             5, 5, 5, 5, 5, 5, 5, 5, 5, 5, 5, 5, 5, 5, 5, 5, 5, 5, 5, 5,
             5, 5, 5, 5, 5, 5, 5, 5, 5, 5, 5, 5, 5, 5, 5, 5, 5, 5, 5, 5,
             5, 5, 5, 5, 5, 5, 5, 5, 5, 5, 5, 5, 5, 5, 5, 5, 5, 5, 5, 5,
             5, 5, 5, 5, 5, 5, 5, 5 ]
      - !!opencv-matrix
         rows: 1
         cols: 107
         dt: i
         data: [ 1, 1, 1, 1, 1, 1, 1, 1, 1, 1, 1, 1, 1, 1, 1, 1, 1, 1, 1,
             1, 1, 1, 1, 1, 1, 1, 1, 1, 1, 1, 1, 1, 1, 1, 1, 1, 1, 1, 1,
             1, 1, 1, 1, 1, 1, 1, 1, 1, 1, 1, 1, 1, 1, 1, 1, 1, 1, 1, 1,
             1, 1, 1, 1, 1, 1, 1, 1, 1, 1, 1, 1, 1, 1, 1, 1, 1, 1, 1, 1,
             1, 1, 1, 1, 1, 1, 1, 1, 1, 1, 1, 1, 1, 1, 1, 1, 1, 1, 1, 1,
             1, 1, 1, 1, 1, 1, 1, 1 ]
      - !!opencv-matrix
         rows: 1
         cols: 107
         dt: i
         data: [ 3, 3, 3, 3, 3, 3, 3, 3, 3, 3, 3, 3, 3, 3, 3, 3, 3, 3, 3,
             3, 3, 3, 3, 3, 3, 3, 3, 3, 3, 3, 3, 3, 3, 3, 3, 3, 3, 3, 3,
             3, 3, 3, 3, 3, 3, 3, 3, 3, 3, 3, 3, 3, 3, 3, 3, 3, 3, 3, 3,
             3, 3, 3, 3, 3, 3, 3, 3, 3, 3, 3, 3, 3, 3, 3, 3, 3, 3, 3, 3,
             3, 3, 3, 3, 3, 3, 3, 3, 3, 3, 3, 3, 3, 3, 3, 3, 3, 3, 3, 3,
             3, 3, 3, 3, 3, 3, 3, 3 ]
      - !!opencv-matrix
         rows: 1
         cols: 107
         dt: i
         data: [ 3, 3, 3, 3, 3, 3, 3, 3, 3, 3, 3, 3, 3, 3, 3, 3, 3, 3, 3,
             3, 3, 3, 3, 3, 3, 3, 3, 3, 3, 3, 3, 3, 3, 3, 3, 3, 3, 3, 3,
             3, 3, 3, 3, 3, 3, 3, 3, 3, 3, 3, 3, 3, 3, 3, 3, 3, 3, 3, 3,
             3, 3, 3, 3, 3, 3, 3, 3, 3, 3, 3, 3, 3, 3, 3, 3, 3, 3, 3, 3,
             3, 3, 3, 3, 3, 3, 3, 3, 3, 3, 3, 3, 3, 3, 3, 3, 3, 3, 3, 3,
             3, 3, 3, 3, 3, 3, 3, 3 ]
   sum:
      - !!opencv-matrix
         rows: 1
         cols: 107
         dt: d
         data: [ 6.1111111193895340e-001, 2.8055555820465088e+000,
             1.5833333302289248e+000, 0., 0., 6.6666667163372040e-001,
             2.7500000596046448e+000, 1.7222222425043583e+000,
             5.5555555969476700e-002, 5.5555555969476700e-002,
             6.1111111193895340e-001, 3.1388888657093048e+000,
             2.6944443881511688e+000, 3.2222222387790680e+000,
             1.0277777798473835e+000, 5.0000000000000000e-001,
             2.9444444477558136e+000, 2.7500000223517418e+000,
             1.2222222685813904e+000, 3.3333334699273109e-001,
             5.0000000000000000e-001, 2.8333333730697632e+000,
             1.5555555559694767e+000, 0., 0., 5.0000000000000000e-001,
             2.6666666269302368e+000, 1.6666666716337204e+000,
             5.5555555969476700e-002, 2.5000000372529030e-001,
             2.7777777612209320e+000, 4.1111111640930176e+000,
             3.5555555820465088e+000, 2.9722222089767456e+000,
             4.5277777314186096e+000, 7.6666668057441711e-001,
             9.6666668355464935e-001, 1.0666666775941849e+000,
             1.0666666775941849e+000, 1.0666666775941849e+000,
             1.0666666775941849e+000, 1.0333333462476730e+000,
             1.0333333462476730e+000, 1.0333333462476730e+000,
             1.0333333462476730e+000, 1.0000000149011612e+000,
             1.1666667014360428e+000, 1.5333333611488342e+000,
             1.6666666865348816e+000, 1.9666666835546494e+000,
             2.4333333969116211e+000, 2.4666666686534882e+000,
             2.7666667103767395e+000, 2.3000000268220901e+000,
             2.2000000327825546e+000, 1.4000000506639481e+000,
             1.2000000178813934e+000, 1.2000000327825546e+000,
             1.0000000149011612e+000, 9.6666668355464935e-001,
             9.6666668355464935e-001, 9.6666668355464935e-001,
             9.6666668355464935e-001, 1.0000000149011612e+000,
             1.0000000149011612e+000, 9.6666668355464935e-001,
             9.0000001341104507e-001, 9.3333335220813751e-001,
             9.6666668355464935e-001, 1.0666666775941849e+000,
             1.3333333581686020e+000, 1.8666667044162750e+000,
             2.3666667044162750e+000, 3.5000000000000000e+000, 5., 5.,
             3.7999999821186066e+000, 3.0952382087707520e-001,
             3.5714286938309669e-001, 3.5714286938309669e-001,
             1.2857142947614193e+000, 1.3095238208770752e+000,
             1.6666666790843010e+000, 2.0476190671324730e+000,
             2.2619047686457634e+000, 2.3095238134264946e+000,
             3.3333333432674408e+000, 4.1428571045398712e+000,
             4.1190475970506668e+000, 3.6904761940240860e+000,
             3.3333333209156990e+000, 3.1190475709736347e+000,
             1.3095238469541073e+000, 9.7619051486253738e-001,
             8.8095240294933319e-001, 9.0476192533969879e-001,
             1.0000000149011612e+000, 1.0476190596818924e+000,
             1.1666666865348816e+000, 1.1666667163372040e+000,
             1.1666667014360428e+000, 1.2142857462167740e+000,
             1.1190476566553116e+000, 9.7619049251079559e-001,
             7.6190479099750519e-001, 7.1428573876619339e-001,
             5.2380953729152679e-001 ]
      - !!opencv-matrix
         rows: 1
         cols: 107
         dt: d
         data: [ 0., 0., 6.1111110448837280e-001, 0., 0.,
             6.9444441795349121e-001, 4.7222220897674561e-001,
             8.3333331346511841e-001, 3.3333334326744080e-001,
             6.1111110448837280e-001, 9.7222220897674561e-001,
             3.6111110448837280e-001, 9.4444441795349121e-001,
             1.9444444775581360e-001, 8.6111110448837280e-001, 1.,
             3.3333334326744080e-001, 9.4444441795349121e-001,
             2.5000000000000000e-001, 7.7777779102325439e-001,
             5.0000000000000000e-001, 3.3333334326744080e-001,
             9.4444441795349121e-001, 4.7222220897674561e-001,
             4.1666665673255920e-001, 0., 0., 8.3333331346511841e-001,
             1.6666667163372040e-001, 0., 0., 0.,
             7.7777779102325439e-001, 1.3888889551162720e-001, 0.,
             6.6666670143604279e-002, 1.3333334028720856e-001,
             1.3333334028720856e-001, 1.3333334028720856e-001,
             1.3333334028720856e-001, 1.3333334028720856e-001,
             1.6666667163372040e-001, 2.6666668057441711e-001,
             4.0000000596046448e-001, 8.3333331346511841e-001,
             8.9999997615814209e-001, 9.6666663885116577e-001,
             9.6666663885116577e-001, 8.0000001192092896e-001,
             6.3333332538604736e-001, 5.6666666269302368e-001,
             5.3333336114883423e-001, 5.0000000000000000e-001,
             5.0000000000000000e-001, 5.0000000000000000e-001,
             5.3333336114883423e-001, 6.0000002384185791e-001,
             8.3333331346511841e-001, 1., 1., 9.6666663885116577e-001,
             5.0000000000000000e-001, 3.3333334326744080e-001,
             2.0000000298023224e-001, 2.0000000298023224e-001,
             2.0000000298023224e-001, 2.0000000298023224e-001,
             2.0000000298023224e-001, 2.0000000298023224e-001,
             2.0000000298023224e-001, 2.0000000298023224e-001,
             2.0000000298023224e-001, 2.0000000298023224e-001,
             2.0000000298023224e-001, 2.0000000298023224e-001,
             2.0000000298023224e-001, 1.0000000149011612e-001,
             4.2857143282890320e-001, 4.5238095521926880e-001,
             4.7619047760963440e-001, 4.7619047760963440e-001,
             4.5238095521926880e-001, 4.2857143282890320e-001,
             2.3809523880481720e-001, 1.9047619402408600e-001,
             2.1428571641445160e-001, 2.1428571641445160e-001,
             2.1428571641445160e-001, 2.1428571641445160e-001,
             3.8095238804817200e-001, 9.2857140302658081e-001,
             9.7619044780731201e-001, 1., 9.7619044780731201e-001,
             7.8571426868438721e-001, 5.7142859697341919e-001,
             1.9047619402408600e-001, 7.1428574621677399e-002,
             1.1904761940240860e-001, 1.9047619402408600e-001,
             1.9047619402408600e-001, 2.3809523880481720e-001,
             2.8571429848670959e-001, 4.5238095521926880e-001,
             4.5238095521926880e-001, 4.5238095521926880e-001,
             4.0476191043853760e-001 ]
      - !!opencv-matrix
         rows: 1
         cols: 107
         dt: d
         data: [ 1.9166666269302368e+000, 2., 1.1388888955116272e+000,
             2.1388888359069824e+000, 2.7777777910232544e+000,
             1.8055555820465088e+000, 2.6111111044883728e+000,
             4.1666667535901070e-001, 3.6111112125217915e-001,
             3.0555556714534760e-001, 1.6111111342906952e+000,
             2.8888888359069824e+000, 2.1388888955116272e+000,
             1.2222222089767456e+000, 1.3888889178633690e-001,
             1.6666667163372040e+000, 2.3888888955116272e+000,
             2.1111111044883728e+000, 2.9722222089767456e+000,
             1.0277777612209320e+000, 1.6666667163372040e+000,
             2.2500000000000000e+000, 2.5000000558793545e-001,
             7.2222223877906799e-001, 2.5000000558793545e-001,
             1.5277778208255768e+000, 2.2777777314186096e+000,
             1.6666667163372040e-001, 0., 0., 1.4166666865348816e+000,
             1.9166666567325592e+000, 1.6666667163372040e-001, 0., 0.,
             6.3333335518836975e-001, 1.2333333492279053e+000,
             1.8000000119209290e+000, 2.7333332896232605e+000,
             2.8333333134651184e+000, 2.7333333492279053e+000,
             2.2999999523162842e+000, 9.0000003576278687e-001,
             9.3333336710929871e-001, 8.3333337306976318e-001,
             8.0000002682209015e-001, 8.3333335816860199e-001,
             8.3333335816860199e-001, 1.1000000238418579e+000,
             1.5666667222976685e+000, 1.8333333730697632e+000,
             2.0666667222976685e+000, 2.2000000476837158e+000,
             2.2333333492279053e+000, 2.2666666507720947e+000,
             2.1666666865348816e+000, 1.9333333373069763e+000,
             1.8666666746139526e+000, 1.7333333492279053e+000,
             1.5000000000000000e+000, 1.2333333492279053e+000,
             9.0000002086162567e-001, 8.3333335816860199e-001,
             8.3333335816860199e-001, 8.6666670441627502e-001,
             8.6666670441627502e-001, 8.6666670441627502e-001,
             8.0000002682209015e-001, 7.6666669547557831e-001,
             7.3333334922790527e-001, 7.3333334922790527e-001,
             7.3333334922790527e-001, 7.3333334922790527e-001,
             7.3333334922790527e-001, 7.3333334922790527e-001,
             7.0000001788139343e-001, 5.6666667759418488e-001,
             1.9047619774937630e-001, 4.2857144027948380e-001,
             1.7857143059372902e+000, 2.0952381044626236e+000,
             2.5952380895614624e+000, 2.8571428060531616e+000,
             2.8571428060531616e+000, 2.8571428656578064e+000,
             2.8095237612724304e+000, 2.0952381491661072e+000,
             1.9523809552192688e+000, 1.4285714626312256e+000,
             1.2619047611951828e+000, 7.6190479099750519e-001,
             7.3809526860713959e-001, 8.5714289546012878e-001,
             9.2857146263122559e-001, 9.2857146263122559e-001,
             1.0000000298023224e+000, 1.0000000298023224e+000,
             1.0476190745830536e+000, 1.1190476417541504e+000,
             1.0952381193637848e+000, 1.0952381193637848e+000,
             9.7619050741195679e-001, 9.0476194024085999e-001,
             7.1428573131561279e-001, 5.0000001490116119e-001,
             4.2857144773006439e-001, 3.3333333581686020e-001 ]
      - !!opencv-matrix
         rows: 1
         cols: 107
         dt: d
         data: [ 1.5277777612209320e+000, 2.5000000596046448e+000,
             2.9166666865348816e+000, 3., 2.4722222685813904e+000,
             2.5000000000000000e+000, 3., 3., 3.,
             2.8888888955116272e+000, 3.3333334326744080e-001,
             1.7777777910232544e+000, 2.8611111044883728e+000, 3.,
             2.7777777910232544e+000, 3.8888889551162720e-001,
             9.7222223877906799e-001, 2.8333333134651184e+000, 3.,
             2.6666666865348816e+000, 2.5000000745058060e-001,
             2.1666666567325592e+000, 2.8611111044883728e+000, 3.,
             2.6666666865348816e+000, 6.3888891041278839e-001,
             2.6388888359069824e+000, 3., 3., 2.5000000000000000e+000,
             6.1111111938953400e-001, 2.4166666865348816e+000,
             2.9166666865348816e+000, 3., 1.5277777612209320e+000,
             1.8000000119209290e+000, 2.2333333492279053e+000,
             2.4333333373069763e+000, 2.5666666626930237e+000,
             2.9333333373069763e+000, 2.9333333373069763e+000,
             2.9333333373069763e+000, 2.9333333373069763e+000, 3.,
             2.9333333373069763e+000, 2.7333332896232605e+000,
             2.7333333492279053e+000, 2.3666666746139526e+000,
             2.3666666746139526e+000, 2., 2.0666666626930237e+000,
             2.0666666626930237e+000, 2.0333333611488342e+000,
             2.0333333611488342e+000, 1.9000000357627869e+000,
             1.9666666984558105e+000, 2.0333333611488342e+000,
             1.9333333373069763e+000, 1.9666666984558105e+000,
             2.0666666626930237e+000, 2.1999999880790710e+000,
             2.1999999880790710e+000, 2.1333333253860474e+000,
             2.2666666507720947e+000, 2.2666666507720947e+000,
             2.2666666507720947e+000, 2.2999999523162842e+000,
             2.2666666507720947e+000, 2.4333333373069763e+000,
             2.4333333373069763e+000, 2.4333333373069763e+000,
             2.3333333730697632e+000, 2.4000000357627869e+000,
             2.1333333253860474e+000, 2.1333333253860474e+000,
             1.8666666746139526e+000, 1.6999999880790710e+000,
             4.7619048506021500e-001, 4.7619048506021500e-001,
             8.0952383577823639e-001, 1.1428571939468384e+000,
             1.1428571939468384e+000, 1.3095238506793976e+000,
             1.7142857313156128e+000, 1.9285714030265808e+000,
             2.2380952239036560e+000, 2.3333333730697632e+000,
             2.4761905074119568e+000, 2.5714285969734192e+000,
             2.5714285969734192e+000, 2.9047619104385376e+000, 3., 3.,
             3., 3., 3., 3., 3., 3., 3., 3., 2.9761904478073120e+000,
             2.8333333134651184e+000, 2.8095238208770752e+000,
             2.7619047164916992e+000, 1.8095237761735916e+000,
             1.8095237761735916e+000 ]
   productsum:
      - !!opencv-matrix
         rows: 107
         cols: 107
         dt: d
         data: [ 2.6234567919631063e-001, 4.3518519808572753e-001,
             3.0864197990776582e-003, 0., 0., 2.6851851920838710e-001,
             4.3518519808572753e-001, 6.1728395981553164e-003,
             1.3888888992369175e-002, 1.3888888992369175e-002,
             2.6234567919631063e-001, 5.8333332091569901e-001,
             1.3580247033157467e-001, 5.2469134369842063e-001,
             1.1728395153710872e-001, 2.5000000000000000e-001,
             4.8611111193895340e-001, 9.7222223877906799e-002,
             3.7037038416774193e-002, 6.1728395981553164e-003,
             2.5000000000000000e-001, 4.4444445520639420e-001,
             6.1728395981553164e-003, 0., 0., 2.5000000000000000e-001,
             4.3981480005162732e-001, 1.8518519208387096e-002,
             1.3888888992369175e-002, 1.6975308791446833e-002,
             4.0740740002581366e-001, 5.5246913844696532e-001,
             2.4537036533432977e-001, 3.7191358247748862e-001,
             5.3240740706247314e-001, 1.3148148286121863e-001,
             1.3888888988229964e-001, 1.4259259339284014e-001,
             1.4259259339284014e-001, 1.4259259339284014e-001,
             1.4259259339284014e-001, 1.4259259339284014e-001,
             1.4259259339284014e-001, 1.4259259339284014e-001,
             1.4259259339284014e-001, 1.3888888988229964e-001,
             1.7592593218993258e-001, 2.7592592622946810e-001,
             3.0925925757597994e-001, 3.4629629408871687e-001,
             3.4814816086932465e-001, 3.3148148029490754e-001,
             3.3703705058605582e-001, 2.3703704164535910e-001,
             2.2037037597210318e-001, 1.6296297168290175e-001,
             1.4259259339284014e-001, 1.4629629855906523e-001,
             1.4259259339284014e-001, 1.3888888988229964e-001,
             1.3888888988229964e-001, 1.3888888988229964e-001,
             1.3888888988229964e-001, 1.4259259339284014e-001,
             1.4259259339284014e-001, 1.3888888988229964e-001,
             1.3888888988229964e-001, 1.3888888988229964e-001,
             1.3888888988229964e-001, 1.3888888988229964e-001,
             1.9259259786318850e-001, 2.5740741058080285e-001,
             3.5185186437986515e-001, 3.8888889923691750e-001,
             6.1111111193895340e-001, 6.1111111193895340e-001,
             3.1111111135946379e-001, 2.9100529681989756e-002,
             4.1005292739817706e-002, 4.1005292739817706e-002,
             5.0529100542897898e-001, 5.0793650835042903e-001,
             5.4761904844688991e-001, 5.8994709187872196e-001,
             6.1111111193895340e-001, 6.1111111193895340e-001,
             6.1111111193895340e-001, 2.5132275536341009e-001,
             2.1957672131124628e-001, 1.3227513560621196e-001,
             7.6719579400208904e-002, 4.2328043461397846e-002,
             3.7037037618497692e-002, 6.3492065206879666e-002,
             8.7301591322535566e-002, 1.0185185502524730e-001,
             1.2830687992314183e-001, 1.4021164111832463e-001,
             1.4021164111832463e-001, 1.4947090725655909e-001,
             1.6402117095927082e-001, 1.4285714362585356e-001,
             1.2301587490808397e-001, 1.1111111371290117e-001,
             8.7301591322535566e-002, 7.5396826402062467e-002,
             4.8941800676325642e-002, 4.3518519808572753e-001,
             1.8202160997891141e+000, 6.3194443663168298e-001, 0., 0.,
             4.8611112890972041e-001, 1.7754630286384518e+000,
             7.0370370353123657e-001, 3.2407408200756271e-002,
             3.2407408200756271e-002, 4.3518519808572753e-001,
             2.0439815010737483e+000, 1.2523147942567316e+000,
             1.7893518686846441e+000, 4.9382716630022094e-001,
             3.3333334326744080e-001, 1.9205247207004348e+000,
             1.3672839680939544e+000, 6.5123459126478345e-001,
             1.5123457232789117e-001, 3.3333334326744080e-001,
             1.8518519009704946e+000, 6.6203703189751617e-001, 0., 0.,
             3.3333334326744080e-001, 1.7106481420773036e+000,
             7.7083333788646602e-001, 3.2407408200756271e-002,
             1.2037037283665053e-001, 1.5092592589833114e+000,
             2.3958333796925011e+000, 1.8364197626525964e+000,
             1.6087962957444013e+000, 2.5231481602898356e+000,
             4.5000001556343516e-001, 5.5925927413282572e-001,
             6.1388890072703362e-001, 6.1388890072703362e-001,
             6.1388890072703362e-001, 6.1388890072703362e-001,
             5.9814816136603000e-001, 5.9814816136603000e-001,
             5.9814816136603000e-001, 5.9814816136603000e-001,
             5.6759260696945368e-001, 6.7592595321712690e-001,
             8.7592594899513099e-001, 9.3703705778828361e-001,
             1.1120370630036902e+000, 1.3555556022458610e+000,
             1.3574074255647481e+000, 1.5796296691453016e+000,
             1.3129629870807680e+000, 1.2740740998475637e+000,
             7.7777781287829129e-001, 6.6944445868333169e-001,
             6.8425928737830244e-001, 5.8981482852940204e-001,
             5.5925927413282572e-001, 5.5925927413282572e-001,
             5.5925927413282572e-001, 5.5925927413282572e-001,
             5.8981482852940204e-001, 5.8981482852940204e-001,
             5.5925927413282572e-001, 5.4259260659692465e-001,
             5.5092594129619776e-001, 5.5925927413282572e-001,
             5.9259260547933756e-001, 7.5648150463347097e-001,
             1.0592592920970034e+000, 1.3685185572063485e+000,
             1.8175926209599886e+000, 2.8055555820465088e+000,
             2.8055555820465088e+000, 1.9916666630241604e+000,
             1.6269841895157855e-001, 1.8452381743266000e-001,
             1.8452381743266000e-001, 8.0357145280059838e-001,
             8.2539685221300241e-001, 1.1527778126654171e+000,
             1.5019841759450854e+000, 1.6884921051207042e+000,
             1.7109788756364237e+000, 2.2089947494801390e+000,
             2.2724867551415056e+000, 2.2043650874069760e+000,
             1.8194444465731818e+000, 1.5145502595043694e+000,
             1.3670634700074087e+000, 5.3968255414021393e-001,
             4.9206351264128623e-001, 4.5965610253353617e-001,
             4.9140213333346239e-001, 5.5621694538880284e-001,
             5.8399472198394875e-001, 6.3029101861532411e-001,
             6.2500003133974413e-001, 6.3955028883363862e-001,
             6.5343917393810536e-001, 5.7804235114307012e-001,
             5.1455027978650492e-001, 4.1865081428771944e-001,
             3.9682541332311105e-001, 2.8505291835104352e-001,
             3.0864197990776582e-003, 6.3194443663168298e-001,
             8.3256172859052469e-001, 0., 0., 4.6296298020967741e-003,
             6.2731482493863611e-001, 8.8580248130048511e-001,
             1.3888888992369175e-002, 1.3888888992369175e-002,
             3.0864197990776582e-003, 6.4737654240502973e-001,
             1.1983024380457254e+000, 9.8070990745507092e-001,
             4.0740740706247303e-001, 0., 6.4120370611824384e-001,
             1.1481481521148922e+000, 4.5370371812195670e-001,
             1.4814815470189957e-001, 0., 6.2962963921880277e-001,
             7.7932098602163202e-001, 0., 0., 0.,
             6.0725308677618506e-001, 7.7854937920921741e-001,
             1.3888888992369175e-002, 1.0956790379857945e-001,
             8.7808642305870666e-001, 1.2044753369898247e+000,
             1.3780864424095198e+000, 9.9459876405811065e-001,
             1.4660493516317215e+000, 2.0925926221189675e-001,
             2.8148148778688020e-001, 3.1759259664212114e-001,
             3.1759259664212114e-001, 3.1759259664212114e-001,
             3.1759259664212114e-001, 3.0370370891221143e-001,
             3.0370370891221143e-001, 3.0370370891221143e-001,
             3.0370370891221143e-001, 3.0277778303457625e-001,
             3.3703704770930387e-001, 4.2962964474465015e-001,
             4.7222223524004225e-001, 5.7314815557113397e-001,
             7.6111113261431462e-001, 7.9629629655154754e-001,
             8.5185185926793872e-001, 7.1851852643131076e-001,
             6.7592593593591865e-001, 4.4444445553753115e-001,
             3.8055556128836332e-001, 3.6759259985000986e-001,
             2.8240741366451538e-001, 2.8148148778688020e-001,
             2.8148148778688020e-001, 2.8148148778688020e-001,
             2.8148148778688020e-001, 2.8240741366451538e-001,
             2.8240741366451538e-001, 2.8148148778688020e-001,
             2.3888889253139492e-001, 2.6018519253918415e-001,
             2.8148148778688020e-001, 3.4074074395552822e-001,
             4.0833333997676768e-001, 5.7222223515725790e-001,
             6.9074074619070247e-001, 1.2842592476625683e+000,
             1.5833333302289248e+000, 1.5833333302289248e+000,
             1.3916666591953901e+000, 1.1243386719888321e-001,
             1.2764550666152324e-001, 1.2764550666152324e-001,
             1.2764550666152324e-001, 1.2830688239188576e-001,
             1.3822751741600098e-001, 1.4880952827395899e-001,
             1.6600529448419965e-001, 1.8584656266978494e-001,
             6.9841270323192317e-001, 1.5119047494132134e+000,
             1.5654761692183830e+000, 1.5707671924903202e+000,
             1.5529100384573065e+000, 1.5152116088472583e+000,
             6.4947092246816118e-001, 3.9153440839675058e-001,
             3.2076720019220983e-001, 3.0621693635645209e-001,
             3.1679894607612691e-001, 3.2870370727130971e-001,
             3.9087302509754429e-001, 3.9219578402363287e-001,
             3.7103175691195900e-001, 4.1402118010988476e-001,
             4.0873017496178077e-001, 3.4259259548018528e-001,
             2.5330688651631428e-001, 2.3809524705367427e-001,
             1.8187831261899895e-001, 0., 0., 0., 0., 0., 0., 0., 0., 0.,
             0., 0., 0., 0., 0., 0., 0., 0., 0., 0., 0., 0., 0., 0., 0.,
             0., 0., 0., 0., 0., 0., 0., 0., 0., 0., 0., 0., 0., 0., 0.,
             0., 0., 0., 0., 0., 0., 0., 0., 0., 0., 0., 0., 0., 0., 0.,
             0., 0., 0., 0., 0., 0., 0., 0., 0., 0., 0., 0., 0., 0., 0.,
             0., 0., 0., 0., 0., 0., 0., 0., 0., 0., 0., 0., 0., 0., 0.,
             0., 0., 0., 0., 0., 0., 0., 0., 0., 0., 0., 0., 0., 0., 0.,
             0., 0., 0., 0., 0., 0., 0., 0., 0., 0., 0., 0., 0., 0., 0.,
             0., 0., 0., 0., 0., 0., 0., 0., 0., 0., 0., 0., 0., 0., 0.,
             0., 0., 0., 0., 0., 0., 0., 0., 0., 0., 0., 0., 0., 0., 0.,
             0., 0., 0., 0., 0., 0., 0., 0., 0., 0., 0., 0., 0., 0., 0.,
             0., 0., 0., 0., 0., 0., 0., 0., 0., 0., 0., 0., 0., 0., 0.,
             0., 0., 0., 0., 0., 0., 0., 0., 0., 0., 0., 0., 0., 0., 0.,
             0., 0., 0., 0., 0., 0., 0., 0., 0., 0., 0., 0., 0., 0., 0.,
             0., 0., 0., 0., 0., 0., 0., 0., 0., 0.,
             2.6851851920838710e-001, 4.8611112890972041e-001,
             4.6296298020967741e-003, 0., 0., 2.7777777943346238e-001,
             4.8611112890972041e-001, 9.2592596041935482e-003,
             1.3888888992369175e-002, 1.3888888992369175e-002,
             2.6851851920838710e-001, 6.3888888061046600e-001,
             1.4814815035572759e-001, 5.5092591281842296e-001,
             1.2037037154314695e-001, 2.5000000000000000e-001,
             5.4166667163372040e-001, 1.2500000372529030e-001,
             5.5555558866924759e-002, 9.2592596041935482e-003,
             2.5000000000000000e-001, 5.0000001490116119e-001,
             9.2592596041935482e-003, 0., 0., 2.5000000000000000e-001,
             4.8611109869347668e-001, 2.7777779433462380e-002,
             1.3888888992369175e-002, 1.8518518794465949e-002,
             4.3055554934673834e-001, 6.0648148741435115e-001,
             2.7777777405248738e-001, 3.9814815159749095e-001,
             5.8333333788646602e-001, 1.3888889120684733e-001,
             1.5000000198682151e-001, 1.5555555737680860e-001,
             1.5555555737680860e-001, 1.5555555737680860e-001,
             1.5555555737680860e-001, 1.5555555737680860e-001,
             1.5555555737680860e-001, 1.5555555737680860e-001,
             1.5555555737680860e-001, 1.5000000198682151e-001,
             1.8888889617390103e-001, 2.8888889021343656e-001,
             3.2222222155994840e-001, 3.6111111077997426e-001,
             3.7222223695781498e-001, 3.5555555638339786e-001,
             3.7222223795122567e-001, 2.7222222901052895e-001,
             2.5555556333727303e-001, 1.7777778837415914e-001,
             1.5555555737680860e-001, 1.6111111525032262e-001,
             1.5555555737680860e-001, 1.5000000198682151e-001,
             1.5000000198682151e-001, 1.5000000198682151e-001,
             1.5000000198682151e-001, 1.5555555737680860e-001,
             1.5555555737680860e-001, 1.5000000198682151e-001,
             1.5000000198682151e-001, 1.5000000198682151e-001,
             1.5000000198682151e-001, 1.5000000198682151e-001,
             2.0555556184715695e-001, 2.7777778291040001e-001,
             3.7777779234780207e-001, 4.1666667908430099e-001,
             6.6666667163372040e-001, 6.6666667163372040e-001,
             3.5000000248352681e-001, 3.1746032573874039e-002,
             4.3650795631701989e-002, 4.3650795631701989e-002,
             5.0793650832086334e-001, 5.1190476279173580e-001,
             5.7142857426688787e-001, 6.3492064083379418e-001,
             6.6666667163372040e-001, 6.6666667163372040e-001,
             6.6666667163372040e-001, 3.0555556206003054e-001,
             2.6984127563616589e-001, 1.6269841813851915e-001,
             9.1269845822973927e-002, 5.1587303686473129e-002,
             4.3650794744728105e-002, 7.1428574089493102e-002,
             9.5238100205149001e-002, 1.1111111525032258e-001,
             1.3888889149067896e-001, 1.5079365268586176e-001,
             1.5079365268586176e-001, 1.5873016748163438e-001,
             1.7460318252680795e-001, 1.5476190653585253e-001,
             1.3095238379069740e-001, 1.1904762259551460e-001,
             9.5238100205149001e-002, 8.3333335284675902e-002,
             5.5555557802556055e-002, 4.3518519808572753e-001,
             1.7754630286384518e+000, 6.2731482493863611e-001, 0., 0.,
             4.8611112890972041e-001, 1.7569445206059360e+000,
             6.8981483451056280e-001, 3.2407408200756271e-002,
             3.2407408200756271e-002, 4.3518519808572753e-001,
             2.0277778067522574e+000, 1.2407407430862936e+000,
             1.7986111425691176e+000, 5.0000001086543011e-001,
             3.3333334326744080e-001, 1.8981481909199998e+000,
             1.3287037439920284e+000, 6.0185188855286054e-001,
             1.4351852717636926e-001, 3.3333334326744080e-001,
             1.8333333929379787e+000, 6.3425927067658416e-001, 0., 0.,
             3.3333334326744080e-001, 1.6898148178502357e+000,
             7.4074076047098192e-001, 3.2407408200756271e-002,
             1.2731481831589786e-001, 1.4930555737680855e+000,
             2.3680556234386234e+000, 1.7986111450526447e+000,
             1.5949074267237275e+000, 2.4884259686977774e+000,
             4.4444446323646458e-001, 5.5000002011656779e-001,
             6.0277779607309245e-001, 6.0277779607309245e-001,
             6.0277779607309245e-001, 6.0277779607309245e-001,
             5.9166668529311828e-001, 5.9166668529311828e-001,
             5.9166668529311828e-001, 5.9166668529311828e-001,
             5.6111113089654197e-001, 6.6944447714421518e-001,
             8.7500003005067528e-001, 9.4166669473052034e-001,
             1.1166666999459269e+000, 1.3583333929379791e+000,
             1.3583333631356558e+000, 1.5527778310908218e+000,
             1.2861111490262882e+000, 1.2416667059063915e+000,
             7.4444449179702410e-001, 6.4722224416004304e-001,
             6.6666670143604323e-001, 5.8055557451314410e-001,
             5.5000002011656779e-001, 5.5000002011656779e-001,
             5.5000002011656779e-001, 5.5000002011656779e-001,
             5.8055557451314410e-001, 5.8055557451314410e-001,
             5.5000002011656779e-001, 5.2777779607309250e-001,
             5.3888890933659361e-001, 5.5000002011656779e-001,
             5.8888890734977206e-001, 7.5277780650390547e-001,
             1.0527778191698927e+000, 1.3555556050605251e+000,
             1.8472222652700214e+000, 2.7500000596046448e+000,
             2.7500000596046448e+000, 1.9361111405822964e+000,
             1.5873016717119359e-001, 1.8253969275466519e-001,
             1.8253969275466519e-001, 8.0158732812260358e-001,
             8.2341272753500760e-001, 1.1507936879874223e+000,
             1.5000000512670906e+000, 1.6865079804427094e+000,
             1.7023809958426726e+000, 2.1944444908036127e+000,
             2.2123016059871699e+000, 2.1468254353791947e+000,
             1.7638889241313178e+000, 1.4623016187595943e+000,
             1.3194444547924726e+000, 5.6547621788368363e-001,
             4.8412701316059614e-001, 4.5634922982444870e-001,
             4.8611113352198476e-001, 5.4761906801944704e-001,
             5.7539684461459295e-001, 6.1904764157675585e-001,
             6.1706353185905405e-001, 6.3492066691082671e-001,
             6.5277780622007375e-001, 5.7539685632264836e-001,
             5.0793652951953927e-001, 4.1269843782933968e-001,
             3.8888890976234114e-001, 2.8373017094083264e-001,
             6.1728395981553164e-003, 7.0370370353123657e-001,
             8.8580248130048511e-001, 0., 0., 9.2592596041935482e-003,
             6.8981483451056280e-001, 9.4753089073447572e-001,
             1.3888888992369175e-002, 1.3888888992369175e-002,
             6.1728395981553164e-003, 7.1296297110341200e-001,
             1.2762345515283533e+000, 1.0401235009532104e+000,
             4.2901235124395209e-001, 0., 7.0833334368136214e-001,
             1.2500000233865443e+000, 5.1851854569934053e-001,
             1.6512346732211713e-001, 0., 6.9444446307089613e-001,
             8.3641976306651844e-001, 0., 0., 0.,
             6.6666667473812891e-001, 8.3796297048253021e-001,
             1.3888888992369175e-002, 1.1265432473594028e-001,
             9.4907409080338712e-001, 1.3086420224381636e+000,
             1.4861111555041540e+000, 1.0679012472729812e+000,
             1.5879629517525984e+000, 2.2407407973099641e-001,
             3.0555556640028964e-001, 3.4629630538876416e-001,
             3.4629630538876416e-001, 3.4629630538876416e-001,
             3.4629630538876416e-001, 3.2962963971550824e-001,
             3.2962963971550824e-001, 3.2962963971550824e-001,
             3.2962963971550824e-001, 3.2777778796023799e-001,
             3.6296297851260068e-001, 4.5740742858637290e-001,
             5.0185187170626966e-001, 6.0370371832891767e-001,
             8.1296299647677883e-001, 8.5185186384176759e-001,
             9.2962965196757397e-001, 7.9629631913094601e-001,
             7.5185187601104930e-001, 4.9259261251599729e-001,
             4.1851853141906087e-001, 4.0370371832891749e-001,
             3.0740741815555989e-001, 3.0555556640028964e-001,
             3.0555556640028964e-001, 3.0555556640028964e-001,
             3.0555556640028964e-001, 3.0740741815555989e-001,
             3.0740741815555989e-001, 3.0555556640028964e-001,
             2.6111111831333905e-001, 2.8333334484034128e-001,
             3.0555556640028964e-001, 3.6666667519344226e-001,
             4.3518519709231679e-001, 6.1481483693200145e-001,
             7.4259260779729608e-001, 1.3555555603984324e+000,
             1.7222222425043583e+000, 1.7222222425043583e+000,
             1.5222222377442651e+000, 1.2169312850311011e-001,
             1.3756614390307320e-001, 1.3756614390307320e-001,
             1.3756614390307320e-001, 1.3888889536379825e-001,
             1.5873016541202867e-001, 1.7989418712794469e-001,
             2.0238095835324321e-001, 2.2619048074360881e-001,
             7.4603175531540611e-001, 1.6455026518987128e+000,
             1.7010582022211218e+000, 1.6970899670271489e+000,
             1.6693121758856313e+000, 1.6243386123841870e+000,
             6.8915347387353931e-001, 4.2063494387363659e-001,
             3.4523810511307113e-001, 3.3068784096687248e-001,
             3.4391535341581975e-001, 3.5582011461100255e-001,
             4.2328043893058492e-001, 4.2195769512740106e-001,
             3.9947091654021932e-001, 4.4444446723967340e-001,
             4.3650795927359970e-001, 3.6904762750343673e-001,
             2.7380953652281620e-001, 2.5793652112285309e-001,
             1.9708995602867288e-001, 1.3888888992369175e-002,
             3.2407408200756271e-002, 1.3888888992369175e-002, 0., 0.,
             1.3888888992369175e-002, 3.2407408200756271e-002,
             1.3888888992369175e-002, 1.5432098995388291e-003,
             1.5432098995388291e-003, 1.3888888992369175e-002,
             4.0123456353206688e-002, 2.9320987366875745e-002,
             4.8611111473292112e-002, 1.4660493890398446e-002,
             1.3888888992369175e-002, 3.4722222480922937e-002,
             1.7746914517318399e-002, 0., 0., 1.3888888992369175e-002,
             3.2407408200756271e-002, 1.3888888992369175e-002, 0., 0.,
             1.3888888992369175e-002, 3.3179011857022100e-002,
             1.4660494304319593e-002, 1.5432098995388291e-003,
             3.8580247488470727e-003, 3.3950617168972519e-002,
             4.7067902505075865e-002, 3.5493827792873356e-002,
             3.7037036761089603e-002, 5.0154320441508360e-002,
             1.2037037237098924e-002, 1.2037037237098924e-002,
             1.2037037237098924e-002, 1.2037037237098924e-002,
             1.2037037237098924e-002, 1.2037037237098924e-002,
             1.2037037237098924e-002, 1.2037037237098924e-002,
             1.2037037237098924e-002, 1.2037037237098924e-002,
             1.2037037237098924e-002, 1.5740741575481720e-002,
             2.4074074474197849e-002, 2.5925926229468099e-002,
             3.3333333250549102e-002, 3.2407408200756271e-002,
             3.1481481495278851e-002, 2.8703704690215770e-002,
             1.5740741161560573e-002, 1.4814815283925448e-002,
             1.2962963528655197e-002, 1.2037037237098924e-002,
             1.2037037237098924e-002, 1.2037037237098924e-002,
             1.2037037237098924e-002, 1.2037037237098924e-002,
             1.2037037237098924e-002, 1.2037037237098924e-002,
             1.2037037237098924e-002, 1.2037037237098924e-002,
             1.2037037237098924e-002, 1.2037037237098924e-002,
             1.2037037237098924e-002, 1.2037037237098924e-002,
             1.2962963114734050e-002, 1.9444445086022222e-002,
             2.4074074474197849e-002, 3.2407408200756271e-002,
             4.6296297193125446e-002, 5.5555555969476700e-002,
             5.5555555969476700e-002, 3.0555555617643726e-002,
             3.3068784448520225e-003, 3.9682541752145417e-003,
             3.9682541752145417e-003, 2.9761905072345621e-002,
             2.9761905072345621e-002, 2.9761905072345621e-002,
             2.9761905072345621e-002, 3.0423280699227853e-002,
             3.0423280699227853e-002, 5.5555555969476700e-002,
             3.5714286335167433e-002, 3.4391534667481821e-002,
             3.1746032159952892e-002, 3.0423280699227853e-002,
             2.9100529341983102e-002, 8.5978840807916027e-003,
             9.9206354380363543e-003, 9.2592596041935482e-003,
             9.9206352310757806e-003, 1.1243386484840245e-002,
             1.2566137738604710e-002, 1.3227513365486943e-002,
             1.4550265447093702e-002, 1.4550265033172555e-002,
             1.3888889406290322e-002, 1.3888889406290322e-002,
             1.1243386484840245e-002, 8.5978839773113158e-003,
             7.9365081434685097e-003, 4.6296298020967741e-003,
             1.3888888992369175e-002, 3.2407408200756271e-002,
             1.3888888992369175e-002, 0., 0., 1.3888888992369175e-002,
             3.2407408200756271e-002, 1.3888888992369175e-002,
             1.5432098995388291e-003, 1.5432098995388291e-003,
             1.3888888992369175e-002, 4.0123456353206688e-002,
             2.9320987366875745e-002, 4.8611111473292112e-002,
             1.4660493890398446e-002, 1.3888888992369175e-002,
             3.4722222480922937e-002, 1.7746914517318399e-002, 0., 0.,
             1.3888888992369175e-002, 3.2407408200756271e-002,
             1.3888888992369175e-002, 0., 0., 1.3888888992369175e-002,
             3.3179011857022100e-002, 1.4660494304319593e-002,
             1.5432098995388291e-003, 3.8580247488470727e-003,
             3.3950617168972519e-002, 4.7067902505075865e-002,
             3.5493827792873356e-002, 3.7037036761089603e-002,
             5.0154320441508360e-002, 1.2037037237098924e-002,
             1.2037037237098924e-002, 1.2037037237098924e-002,
             1.2037037237098924e-002, 1.2037037237098924e-002,
             1.2037037237098924e-002, 1.2037037237098924e-002,
             1.2037037237098924e-002, 1.2037037237098924e-002,
             1.2037037237098924e-002, 1.2037037237098924e-002,
             1.5740741575481720e-002, 2.4074074474197849e-002,
             2.5925926229468099e-002, 3.3333333250549102e-002,
             3.2407408200756271e-002, 3.1481481495278851e-002,
             2.8703704690215770e-002, 1.5740741161560573e-002,
             1.4814815283925448e-002, 1.2962963528655197e-002,
             1.2037037237098924e-002, 1.2037037237098924e-002,
             1.2037037237098924e-002, 1.2037037237098924e-002,
             1.2037037237098924e-002, 1.2037037237098924e-002,
             1.2037037237098924e-002, 1.2037037237098924e-002,
             1.2037037237098924e-002, 1.2037037237098924e-002,
             1.2037037237098924e-002, 1.2037037237098924e-002,
             1.2037037237098924e-002, 1.2962963114734050e-002,
             1.9444445086022222e-002, 2.4074074474197849e-002,
             3.2407408200756271e-002, 4.6296297193125446e-002,
             5.5555555969476700e-002, 5.5555555969476700e-002,
             3.0555555617643726e-002, 3.3068784448520225e-003,
             3.9682541752145417e-003, 3.9682541752145417e-003,
             2.9761905072345621e-002, 2.9761905072345621e-002,
             2.9761905072345621e-002, 2.9761905072345621e-002,
             3.0423280699227853e-002, 3.0423280699227853e-002,
             5.5555555969476700e-002, 3.5714286335167433e-002,
             3.4391534667481821e-002, 3.1746032159952892e-002,
             3.0423280699227853e-002, 2.9100529341983102e-002,
             8.5978840807916027e-003, 9.9206354380363543e-003,
             9.2592596041935482e-003, 9.9206352310757806e-003,
             1.1243386484840245e-002, 1.2566137738604710e-002,
             1.3227513365486943e-002, 1.4550265447093702e-002,
             1.4550265033172555e-002, 1.3888889406290322e-002,
             1.3888889406290322e-002, 1.1243386484840245e-002,
             8.5978839773113158e-003, 7.9365081434685097e-003,
             4.6296298020967741e-003, 2.6234567919631063e-001,
             4.3518519808572753e-001, 3.0864197990776582e-003, 0., 0.,
             2.6851851920838710e-001, 4.3518519808572753e-001,
             6.1728395981553164e-003, 1.3888888992369175e-002,
             1.3888888992369175e-002, 2.6234567919631063e-001,
             5.8333332091569901e-001, 1.3580247033157467e-001,
             5.2469134369842063e-001, 1.1728395153710872e-001,
             2.5000000000000000e-001, 4.8611111193895340e-001,
             9.7222223877906799e-002, 3.7037038416774193e-002,
             6.1728395981553164e-003, 2.5000000000000000e-001,
             4.4444445520639420e-001, 6.1728395981553164e-003, 0., 0.,
             2.5000000000000000e-001, 4.3981480005162732e-001,
             1.8518519208387096e-002, 1.3888888992369175e-002,
             1.6975308791446833e-002, 4.0740740002581366e-001,
             5.5246913844696532e-001, 2.4537036533432977e-001,
             3.7191358247748862e-001, 5.3240740706247314e-001,
             1.3148148286121863e-001, 1.3888888988229964e-001,
             1.4259259339284014e-001, 1.4259259339284014e-001,
             1.4259259339284014e-001, 1.4259259339284014e-001,
             1.4259259339284014e-001, 1.4259259339284014e-001,
             1.4259259339284014e-001, 1.4259259339284014e-001,
             1.3888888988229964e-001, 1.7592593218993258e-001,
             2.7592592622946810e-001, 3.0925925757597994e-001,
             3.4629629408871687e-001, 3.4814816086932465e-001,
             3.3148148029490754e-001, 3.3703705058605582e-001,
             2.3703704164535910e-001, 2.2037037597210318e-001,
             1.6296297168290175e-001, 1.4259259339284014e-001,
             1.4629629855906523e-001, 1.4259259339284014e-001,
             1.3888888988229964e-001, 1.3888888988229964e-001,
             1.3888888988229964e-001, 1.3888888988229964e-001,
             1.4259259339284014e-001, 1.4259259339284014e-001,
             1.3888888988229964e-001, 1.3888888988229964e-001,
             1.3888888988229964e-001, 1.3888888988229964e-001,
             1.3888888988229964e-001, 1.9259259786318850e-001,
             2.5740741058080285e-001, 3.5185186437986515e-001,
             3.8888889923691750e-001, 6.1111111193895340e-001,
             6.1111111193895340e-001, 3.1111111135946379e-001,
             2.9100529681989756e-002, 4.1005292739817706e-002,
             4.1005292739817706e-002, 5.0529100542897898e-001,
             5.0793650835042903e-001, 5.4761904844688991e-001,
             5.8994709187872196e-001, 6.1111111193895340e-001,
             6.1111111193895340e-001, 6.1111111193895340e-001,
             2.5132275536341009e-001, 2.1957672131124628e-001,
             1.3227513560621196e-001, 7.6719579400208904e-002,
             4.2328043461397846e-002, 3.7037037618497692e-002,
             6.3492065206879666e-002, 8.7301591322535566e-002,
             1.0185185502524730e-001, 1.2830687992314183e-001,
             1.4021164111832463e-001, 1.4021164111832463e-001,
             1.4947090725655909e-001, 1.6402117095927082e-001,
             1.4285714362585356e-001, 1.2301587490808397e-001,
             1.1111111371290117e-001, 8.7301591322535566e-002,
             7.5396826402062467e-002, 4.8941800676325642e-002,
             5.8333332091569901e-001, 2.0439815010737483e+000,
             6.4737654240502973e-001, 0., 0., 6.3888888061046600e-001,
             2.0277778067522574e+000, 7.1296297110341200e-001,
             4.0123456353206688e-002, 4.0123456353206688e-002,
             5.8333332091569901e-001, 2.3834876061221708e+000,
             1.3441357763461124e+000, 2.1188271198375732e+000,
             5.7484567381533580e-001, 4.7222220897674561e-001,
             2.1990740569653333e+000, 1.4166666794982223e+000,
             6.3888891455200003e-001, 1.5200617831246355e-001,
             4.7222220897674561e-001, 2.1111111202173758e+000,
             6.5277777984738350e-001, 0., 0., 4.7222220897674561e-001,
             1.9606480882675568e+000, 7.6774692222659979e-001,
             4.0123456353206688e-002, 1.3966049425257943e-001,
             1.7461419368599671e+000, 2.7175925881774337e+000,
             1.9722222098045883e+000, 1.8302468841458541e+000,
             2.8310184865086168e+000, 5.2314815271507809e-001,
             6.3611111433969603e-001, 6.9259259256499783e-001,
             6.9259259256499783e-001, 6.9259259256499783e-001,
             6.9259259256499783e-001, 6.8148148178502366e-001,
             6.8148148178502366e-001, 6.8148148178502366e-001,
             6.8148148178502366e-001, 6.4814815043851182e-001,
             7.7777779209944908e-001, 1.0407407390298666e+000,
             1.1277777686715127e+000, 1.3240740664027357e+000,
             1.5759259480017196e+000, 1.5675925772499157e+000,
             1.7694444580210575e+000, 1.4472222247057491e+000,
             1.3916666737861103e+000, 8.4814817883350191e-001,
             7.3796296597079003e-001, 7.6018520143848889e-001,
             6.6944444568620787e-001, 6.3611111433969603e-001,
             6.3611111433969603e-001, 6.3611111433969603e-001,
             6.3611111433969603e-001, 6.6944444568620787e-001,
             6.6944444568620787e-001, 6.3611111433969603e-001,
             6.1203703945157706e-001, 6.2407407824088024e-001,
             6.3611111433969603e-001, 6.7685185221058353e-001,
             8.7129630394003987e-001, 1.2138888988229963e+000,
             1.5722222349709929e+000, 2.1009259168748500e+000,
             3.1388888657093048e+000, 3.1388888657093048e+000,
             2.1518518287826467e+000, 1.7791005742376442e-001,
             2.0899471438553907e-001, 2.0899471438553907e-001,
             1.0859788137552127e+000, 1.1097883398708686e+000,
             1.4669311980780944e+000, 1.8478835861262664e+000,
             2.0502645264443737e+000, 2.0661375418443368e+000,
             2.5595237874677257e+000, 2.3981481205534045e+000,
             2.3154761837351892e+000, 1.8769841297041800e+000,
             1.5383597953176054e+000, 1.3736772372155750e+000,
             6.0714286976745191e-001, 5.2976192362488250e-001,
             5.1455027694818822e-001, 5.5224868692654772e-001,
             6.2896825804833378e-001, 6.6335978975923604e-001,
             7.0833333759080785e-001, 7.1097886073526206e-001,
             7.3743387729560217e-001, 7.4537037908242487e-001,
             6.5476191966306585e-001, 5.7936508687479149e-001,
             4.6891535926984718e-001, 4.3783069878974290e-001,
             3.1746032272302904e-001, 1.3580247033157467e-001,
             1.2523147942567316e+000, 1.1983024380457254e+000, 0., 0.,
             1.4814815035572759e-001, 1.2407407430862936e+000,
             1.2762345515283533e+000, 2.9320987366875745e-002,
             2.9320987366875745e-002, 1.3580247033157467e-001,
             1.3441357763461124e+000, 1.8279320108301857e+000,
             1.7361111131807156e+000, 6.5200615720248511e-001,
             1.1111111193895340e-001, 1.2939814650626094e+000,
             1.7407407124561289e+000, 6.7592593475624296e-001,
             2.0910494231883364e-001, 1.1111111193895340e-001,
             1.2592592573276269e+000, 1.1373456493939882e+000, 0., 0.,
             1.1111111193895340e-001, 1.2052468862154599e+000,
             1.1620370086144518e+000, 2.9320987366875745e-002,
             1.7438271512955789e-001, 1.4938271301856010e+000,
             2.1219135818566057e+000, 2.1844135615744698e+000,
             1.6728394640448654e+000, 2.4783949682742001e+000,
             3.8981481383520133e-001, 4.9907407459837394e-001,
             5.5370369970246580e-001, 5.5370369970246580e-001,
             5.5370369970246580e-001, 5.5370369970246580e-001,
             5.3425925707927435e-001, 5.3425925707927435e-001,
             5.3425925707927435e-001, 5.3425925707927435e-001,
             5.2685185005819335e-001, 6.0462963777007839e-001,
             7.8796296961329548e-001, 8.5833333457509631e-001,
             1.0472222117086250e+000, 1.3212963031949814e+000,
             1.3611110827989048e+000, 1.4592592467312455e+000,
             1.1925925818858318e+000, 1.1296296239451120e+000,
             7.4074074813613144e-001, 6.3981481172420329e-001,
             6.2777777943346202e-001, 5.0648148161945494e-001,
             4.9907407459837394e-001, 4.9907407459837394e-001,
             4.9907407459837394e-001, 4.9907407459837394e-001,
             5.0648148161945494e-001, 5.0648148161945494e-001,
             4.9907407459837394e-001, 4.4351851746991811e-001,
             4.7129629913855453e-001, 4.9907407459837394e-001,
             5.8240740097783217e-001, 7.2314814663043703e-001,
             1.0000000008278418e+000, 1.2370370261647081e+000,
             2.1120369784809929e+000, 2.6944443881511688e+000,
             2.6944443881511688e+000, 2.2037036444853855e+000,
             1.8187831035721536e-001, 2.0701058438570080e-001,
             2.0701058438570080e-001, 4.1335979156274943e-001,
             4.1865079740564959e-001, 4.9801587759857124e-001,
             5.8267196446223535e-001, 6.4484127276828351e-001,
             6.7261904794427130e-001, 1.5079364921483727e+000,
             2.4371692417238759e+000, 2.4841269046541248e+000,
             2.4034390957661405e+000, 2.3154761189269646e+000,
             2.2361110165005651e+000, 9.3584656831685131e-001,
             6.1441800185533368e-001, 5.1785714078753697e-001,
             5.0859788263206740e-001, 5.3835978526523487e-001,
             5.6349205846587802e-001, 6.5079365061625571e-001,
             6.5674604694285033e-001, 6.3359788878175283e-001,
             6.8783069742971570e-001, 6.6666667736948426e-001,
             5.6216930659123188e-001, 4.2460318045720191e-001,
             3.9947090560087417e-001, 2.9629629861228346e-001,
             5.2469134369842063e-001, 1.7893518686846441e+000,
             9.8070990745507092e-001, 0., 0., 5.5092591281842296e-001,
             1.7986111425691176e+000, 1.0401235009532104e+000,
             4.8611111473292112e-002, 4.8611111473292112e-002,
             5.2469134369842063e-001, 2.1188271198375732e+000,
             1.7361111131807156e+000, 2.3194444576899231e+000,
             7.3225309443372621e-001, 4.7222220897674561e-001,
             1.9259259206829249e+000, 1.5771605388525831e+000,
             5.6481484268550552e-001, 1.6512346701167635e-001,
             4.7222220897674561e-001, 1.8379629839349674e+000,
             9.2901237328525310e-001, 0., 0., 4.7222220897674561e-001,
             1.7669752685376166e+000, 9.8533953648106554e-001,
             4.8611111473292112e-002, 1.8441358635799943e-001,
             1.8742283885309732e+000, 2.6882716487219316e+000,
             2.2160494289832364e+000, 1.9969135855818969e+000,
             2.9328703543654182e+000, 5.4444445288843579e-001,
             6.4259260374086891e-001, 6.9166667544179505e-001,
             6.9166667544179505e-001, 6.9166667544179505e-001,
             6.9166667544179505e-001, 6.8055556466182088e-001,
             6.8055556466182088e-001, 6.8055556466182088e-001,
             6.8055556466182088e-001, 6.6481482530081726e-001,
             7.9722225045164441e-001, 1.1111111292408578e+000,
             1.2185185298047689e+000, 1.4583333404527772e+000,
             1.6833333839972813e+000, 1.6851851896003440e+000,
             1.7611111475361714e+000, 1.3574074259786695e+000,
             1.2814815041367655e+000, 8.5000003733568708e-001,
             7.4722223430871981e-001, 7.5185186992640851e-001,
             6.5833334310187253e-001, 6.4259260374086891e-001,
             6.4259260374086891e-001, 6.4259260374086891e-001,
             6.4259260374086891e-001, 6.5833334310187253e-001,
             6.5833334310187253e-001, 6.4259260374086891e-001,
             5.9814815565391832e-001, 6.2037038218092055e-001,
             6.4259260374086891e-001, 7.1388889799515409e-001,
             9.3148150413676545e-001, 1.2648148405331154e+000,
             1.6212963280302501e+000, 2.4379629908888418e+000,
             3.2222222387790680e+000, 3.2222222387790680e+000,
             2.2814814962722636e+000, 1.9642858057918544e-001,
             2.3478837001319763e-001, 2.3478837001319763e-001,
             1.1117724693828712e+000, 1.1230158563998958e+000,
             1.2916666458227806e+000, 1.4715608240218547e+000,
             1.5806877997521529e+000, 1.5965608151521160e+000,
             2.3809523778775383e+000, 2.4649471165957273e+000,
             2.4417989637564723e+000, 2.1990741240205587e+000,
             2.0112434352240545e+000, 1.8895502919380460e+000,
             8.2804237390873370e-001, 6.1441802556710323e-001,
             5.7010583989519281e-001, 5.8796298026880889e-001,
             6.5211641425808908e-001, 6.9378307844122888e-001,
             7.6058202824264631e-001, 7.8306882554497692e-001,
             7.8968256794744063e-001, 8.0687833457160307e-001,
             7.5396828654976167e-001, 6.4219578229403362e-001,
             4.9537039232790159e-001, 4.5701059937555977e-001,
             3.2738096468032363e-001, 1.1728395153710872e-001,
             4.9382716630022094e-001, 4.0740740706247303e-001, 0., 0.,
             1.2037037154314695e-001, 5.0000001086543011e-001,
             4.2901235124395209e-001, 1.4660493890398446e-002,
             1.4660493890398446e-002, 1.1728395153710872e-001,
             5.7484567381533580e-001, 6.5200615720248511e-001,
             7.3225309443372621e-001, 2.5848765289525932e-001,
             1.1111111193895340e-001, 5.2700617624285773e-001,
             5.7870370901569179e-001, 1.9753087417762971e-001,
             6.4814818264157706e-002, 1.1111111193895340e-001,
             5.0462963942576344e-001, 3.7808641979907764e-001, 0., 0.,
             1.1111111193895340e-001, 4.9305554996762013e-001,
             3.8425925960419355e-001, 1.4660493890398446e-002,
             6.7129630112537614e-002, 6.0108024635018753e-001,
             8.2793211544875378e-001, 7.7623457729494505e-001,
             6.5354938148578379e-001, 9.4367282521439555e-001,
             1.6481481710517848e-001, 1.9814815201141217e-001,
             2.1481481780884443e-001, 2.1481481780884443e-001,
             2.1481481780884443e-001, 2.1481481780884443e-001,
             2.1018518823440430e-001, 2.1018518823440430e-001,
             2.1018518823440430e-001, 2.1018518823440430e-001,
             2.0833333647913405e-001, 2.4537037907651177e-001,
             3.4074074809473970e-001, 3.7592593107234545e-001,
             4.5370370450395126e-001, 5.3518519916192253e-001,
             5.4259259045400010e-001, 5.5370371323768763e-001,
             4.2777778419355572e-001, 4.0000000823703097e-001,
             2.7222223372923005e-001, 2.3888889306949251e-001,
             2.3611111607816493e-001, 2.0000000376668242e-001,
             1.9814815201141217e-001, 1.9814815201141217e-001,
             1.9814815201141217e-001, 1.9814815201141217e-001,
             2.0000000376668242e-001, 2.0000000376668242e-001,
             1.9814815201141217e-001, 1.7777778079940215e-001,
             1.8796296754369030e-001, 1.9814815201141217e-001,
             2.2870370541457780e-001, 2.9351852396848027e-001,
             3.9814815503303658e-001, 5.0092593351448034e-001,
             8.2777777202427405e-001, 1.0277777798473835e+000,
             1.0277777798473835e+000, 7.8055555518302655e-001,
             6.6798944538705565e-002, 7.9365082144264201e-002,
             7.9365082144264201e-002, 2.8571428932131282e-001,
             2.8703704078203784e-001, 3.0687831083026829e-001,
             3.2804233254618431e-001, 3.4589947433895851e-001,
             3.5251323087387298e-001, 6.5343915542991704e-001,
             8.3531746040615751e-001, 8.4589946354744305e-001,
             8.1216931389398361e-001, 7.8240740475634085e-001,
             7.5264549065164466e-001, 3.3068784007989843e-001,
             2.1891535353408281e-001, 1.9378307252806964e-001,
             1.9312169703423349e-001, 2.0833333658557091e-001,
             2.2089947336328725e-001, 2.4933862973930970e-001,
             2.5727514486030606e-001, 2.5330688654588013e-001,
             2.6587302429926768e-001, 2.5661376552291643e-001,
             2.1494709258830108e-001, 1.6137566720997848e-001,
             1.4880952877657755e-001, 1.0846561194451712e-001,
             2.5000000000000000e-001, 3.3333334326744080e-001, 0., 0.,
             0., 2.5000000000000000e-001, 3.3333334326744080e-001, 0.,
             1.3888888992369175e-002, 1.3888888992369175e-002,
             2.5000000000000000e-001, 4.7222220897674561e-001,
             1.1111111193895340e-001, 4.7222220897674561e-001,
             1.1111111193895340e-001, 2.5000000000000000e-001,
             3.7500000000000000e-001, 4.1666667908430099e-002, 0., 0.,
             2.5000000000000000e-001, 3.3333334326744080e-001, 0., 0.,
             0., 2.5000000000000000e-001, 3.4722220897674561e-001, 0.,
             1.3888888992369175e-002, 1.3888888992369175e-002,
             3.6111110448837280e-001, 4.4444444775581360e-001,
             1.8055555224418640e-001, 3.1944444775581360e-001,
             4.3055555224418640e-001, 1.1666666716337204e-001,
             1.1666666716337204e-001, 1.1666666716337204e-001,
             1.1666666716337204e-001, 1.1666666716337204e-001,
             1.1666666716337204e-001, 1.1666666716337204e-001,
             1.1666666716337204e-001, 1.1666666716337204e-001,
             1.1666666716337204e-001, 1.1666666716337204e-001,
             1.5000000596046448e-001, 2.5000000000000000e-001,
             2.8333333134651184e-001, 3.1666666269302368e-001,
             3.0000001192092896e-001, 2.8333333134651184e-001,
             2.6666668057441711e-001, 1.6666667163372040e-001,
             1.5000000596046448e-001, 1.3333334028720856e-001,
             1.1666666716337204e-001, 1.1666666716337204e-001,
             1.1666666716337204e-001, 1.1666666716337204e-001,
             1.1666666716337204e-001, 1.1666666716337204e-001,
             1.1666666716337204e-001, 1.1666666716337204e-001,
             1.1666666716337204e-001, 1.1666666716337204e-001,
             1.1666666716337204e-001, 1.1666666716337204e-001,
             1.1666666716337204e-001, 1.1666666716337204e-001,
             1.6666667163372040e-001, 2.1666666865348816e-001,
             3.0000001192092896e-001, 3.3333334326744080e-001,
             5.0000000000000000e-001, 5.0000000000000000e-001,
             2.3333333432674408e-001, 2.3809524253010750e-002,
             3.5714287310838699e-002, 3.5714287310838699e-002,
             5.0000000000000000e-001, 5.0000000000000000e-001,
             5.0000000000000000e-001, 5.0000000000000000e-001,
             5.0000000000000000e-001, 5.0000000000000000e-001,
             5.0000000000000000e-001, 1.4285714924335480e-001,
             1.1904761940240860e-001, 7.1428574621677399e-002,
             4.7619048506021500e-002, 2.3809524253010750e-002,
             2.3809524253010750e-002, 4.7619048506021500e-002,
             7.1428574621677399e-002, 8.3333335816860199e-002,
             1.0714285820722580e-001, 1.1904761940240860e-001,
             1.1904761940240860e-001, 1.3095238804817200e-001,
             1.4285714924335480e-001, 1.1904761940240860e-001,
             1.0714285820722580e-001, 9.5238097012042999e-002,
             7.1428574621677399e-002, 5.9523809701204300e-002,
             3.5714287310838699e-002, 4.8611111193895340e-001,
             1.9205247207004348e+000, 6.4120370611824384e-001, 0., 0.,
             5.4166667163372040e-001, 1.8981481909199998e+000,
             7.0833334368136214e-001, 3.4722222480922937e-002,
             3.4722222480922937e-002, 4.8611111193895340e-001,
             2.1990740569653333e+000, 1.2939814650626094e+000,
             1.9259259206829249e+000, 5.2700617624285773e-001,
             3.7500000000000000e-001, 2.0540123475186620e+000,
             1.3989197694822959e+000, 6.4506175083878592e-001,
             1.5200617831246355e-001, 3.7500000000000000e-001,
             1.9814815043851182e+000, 6.5277777984738350e-001, 0., 0.,
             3.7500000000000000e-001, 1.8263888524638281e+000,
             7.6851852707288870e-001, 3.4722222480922937e-002,
             1.3194444687623119e-001, 1.6018518372266382e+000,
             2.5416666865348816e+000, 1.8996913583926212e+000,
             1.7013888772990970e+000, 2.6597222164273262e+000,
             4.7777778833276696e-001, 5.9074074995738490e-001,
             6.4722222818268671e-001, 6.4722222818268671e-001,
             6.4722222818268671e-001, 6.4722222818268671e-001,
             6.3518519208387092e-001, 6.3518519208387092e-001,
             6.3518519208387092e-001, 6.3518519208387092e-001,
             6.0185186073735908e-001, 7.1851853907660201e-001,
             9.4074075368267529e-001, 1.0129629722623914e+000,
             1.1962963095693677e+000, 1.4527778145339756e+000,
             1.4509259306170321e+000, 1.6648148385462935e+000,
             1.3814814922986205e+000, 1.3342592722287883e+000,
             8.0000003261698627e-001, 6.9444445264008303e-001,
             7.1574076278894028e-001, 6.2407408130389674e-001,
             5.9074074995738490e-001, 5.9074074995738490e-001,
             5.9074074995738490e-001, 5.9074074995738490e-001,
             6.2407408130389674e-001, 6.2407408130389674e-001,
             5.9074074995738490e-001, 5.6851852591390961e-001,
             5.7962963917741073e-001, 5.9074074995738490e-001,
             6.2962963719058918e-001, 8.0462964538622783e-001,
             1.1268518743139726e+000, 1.4537037289252988e+000,
             1.9546296453034433e+000, 2.9444444477558136e+000,
             2.9444444477558136e+000, 2.0611111000180244e+000,
             1.6865079925351201e-001, 1.9444445154023549e-001,
             1.9444445154023549e-001, 8.9087302057397744e-001,
             9.1468254668963334e-001, 1.2718254048968591e+000,
             1.6527777929450311e+000, 1.8551587332631387e+000,
             1.8723544991185899e+000, 2.3664021199697225e+000,
             2.3445766949385565e+000, 2.2698412696638748e+000,
             1.8492063544690609e+000, 1.5191799029215147e+000,
             1.3630952285898346e+000, 5.8531748102830061e-001,
             5.0992065641496875e-001, 4.8478837602983704e-001,
             5.1851853251299529e-001, 5.8664022141663485e-001,
             6.1640212440459186e-001, 6.6137567182224277e-001,
             6.5873018811856010e-001, 6.7989420072821094e-001,
             6.9576721240288375e-001, 6.1044975693421399e-001,
             5.4100530373829381e-001, 4.4047620880698402e-001,
             4.1468255372629281e-001, 3.0224868444302100e-001,
             9.7222223877906799e-002, 1.3672839680939544e+000,
             1.1481481521148922e+000, 0., 0., 1.2500000372529030e-001,
             1.3287037439920284e+000, 1.2500000233865443e+000,
             1.7746914517318399e-002, 1.7746914517318399e-002,
             9.7222223877906799e-002, 1.4166666794982223e+000,
             1.7407407124561289e+000, 1.5771605388525831e+000,
             5.7870370901569179e-001, 4.1666667908430099e-002,
             1.3989197694822959e+000, 1.8649691531411672e+000,
             8.7654324446195453e-001, 2.5154321983364625e-001,
             4.1666667908430099e-002, 1.3703704007245876e+000,
             1.1111111212521791e+000, 0., 0., 4.1666667908430099e-002,
             1.2662037098435341e+000, 1.1589506273100412e+000,
             1.7746914517318399e-002, 1.4737654721686316e-001,
             1.4675926010089890e+000, 2.1743827681114651e+000,
             2.1983025140002561e+000, 1.6195987745613585e+000,
             2.5131172710040830e+000, 3.5833334616488888e-001,
             4.9907409007902503e-001, 5.6944445603423655e-001,
             5.6944445603423655e-001, 5.6944445603423655e-001,
             5.6944445603423655e-001, 5.4351853121210036e-001,
             5.4351853121210036e-001, 5.4351853121210036e-001,
             5.4351853121210036e-001, 5.2685186553884444e-001,
             5.8611113271779525e-001, 7.1388891711831093e-001,
             7.7500002342793683e-001, 9.0833336172832357e-001,
             1.2592593033556581e+000, 1.3101851986238251e+000,
             1.5259259529687745e+000, 1.3611111296547789e+000,
             1.3027778010401465e+000, 8.0000003195471225e-001,
             6.7500001755025674e-001, 6.6574076585195707e-001,
             5.1574075575228095e-001, 4.9907409007902503e-001,
             4.9907409007902503e-001, 4.9907409007902503e-001,
             4.9907409007902503e-001, 5.1574075575228095e-001,
             5.1574075575228095e-001, 4.9907409007902503e-001,
             4.4351853295056920e-001, 4.7129631461920563e-001,
             4.9907409007902503e-001, 5.7314815929642438e-001,
             6.7222224076588977e-001, 9.7314818090310817e-001,
             1.1907407671765045e+000, 1.9518518503065470e+000,
             2.7500000223517418e+000, 2.7500000223517418e+000,
             2.3518518529556411e+000, 1.8253969151290170e-001,
             2.0436508693392325e-001, 2.0436508693392325e-001,
             2.8174604135491554e-001, 2.9365080441274349e-001,
             4.7222223351635639e-001, 6.6269842754044239e-001,
             7.7116403017173374e-001, 8.0820106563192828e-001,
             1.4060846928250852e+000, 2.5806878223699865e+000,
             2.6190476192250145e+000, 2.4523809717169831e+000,
             2.2870370419942350e+000, 2.1785714071214439e+000,
             9.3121695421419293e-001, 6.0978838930487966e-001,
             5.1719578022442814e-001, 5.1124340015902103e-001,
             5.4563493293429188e-001, 5.6084657292911622e-001,
             6.5079367024794432e-001, 6.3558204083767533e-001,
             6.1772488987950402e-001, 6.7857145370235539e-001,
             6.3425928807605525e-001, 5.5291006487434513e-001,
             4.2592594486774604e-001, 4.0410054913628363e-001,
             3.1150794576203061e-001, 3.7037038416774193e-002,
             6.5123459126478345e-001, 4.5370371812195670e-001, 0., 0.,
             5.5555558866924759e-002, 6.0185188855286054e-001,
             5.1851854569934053e-001, 0., 0., 3.7037038416774193e-002,
             6.3888891455200003e-001, 6.7592593475624296e-001,
             5.6481484268550552e-001, 1.9753087417762971e-001, 0.,
             6.4506175083878592e-001, 8.7654324446195453e-001,
             5.3086424021073420e-001, 1.4197532027775883e-001, 0.,
             6.2962966053574210e-001, 4.6296298186536189e-001, 0., 0.,
             0., 5.6481483275139777e-001, 4.9074075757353386e-001, 0.,
             3.7037039037655928e-002, 6.2962965225731882e-001,
             9.5370374978692496e-001, 9.3827165120545786e-001,
             6.5740743417430814e-001, 1.0925926246024940e+000,
             1.3333334194289326e-001, 2.1481482828104959e-001,
             2.5555556813875846e-001, 2.5555556813875846e-001,
             2.5555556813875846e-001, 2.5555556813875846e-001,
             2.3703704984099794e-001, 2.3703704984099794e-001,
             2.3703704984099794e-001, 2.3703704984099794e-001,
             2.2592593906102376e-001, 2.3703704984099794e-001,
             2.5925927636800017e-001, 2.8148149792794852e-001,
             2.9259261367497658e-001, 4.8888892365826564e-001,
             5.1851854280189258e-001, 6.9629633382514733e-001,
             6.9629633382514733e-001, 6.7407411226519898e-001,
             4.0000002847777516e-001, 3.2222224209043748e-001,
             3.1481483953970502e-001, 2.2592593906102376e-001,
             2.1481482828104959e-001, 2.1481482828104959e-001,
             2.1481482828104959e-001, 2.1481482828104959e-001,
             2.2592593906102376e-001, 2.2592593906102376e-001,
             2.1481482828104959e-001, 1.9259260423757429e-001,
             2.0370371750107541e-001, 2.1481482828104959e-001,
             2.3703704984099794e-001, 2.4814816062097211e-001,
             3.9259261996657813e-001, 4.7407409968199588e-001,
             6.9259261201929156e-001, 1.2222222685813904e+000,
             1.2222222685813904e+000, 1.1222222616275150e+000,
             7.9365085573896654e-002, 8.7301593273878209e-002,
             8.7301593273878209e-002, 8.7301593273878209e-002,
             9.5238102215623233e-002, 2.1428572516592737e-001,
             3.4126985829973999e-001, 4.0476191989959243e-001,
             4.3121694603925032e-001, 4.8677250727143884e-001,
             1.1693121905206993e+000, 1.1825397201473749e+000,
             1.0714286123476331e+000, 9.6296299032117894e-001,
             8.9682541078045164e-001, 3.8095240235801753e-001,
             2.5396827170773184e-001, 2.1957673290103852e-001,
             2.1957673290103852e-001, 2.4074075367084902e-001,
             2.4074075367084902e-001, 2.8306880017752389e-001,
             2.6190477940771340e-001, 2.5661377403786600e-001,
             2.8042329713781067e-001, 2.4867726633788445e-001,
             2.3280424597086746e-001, 1.8253969673126491e-001,
             1.7460318903128336e-001, 1.4021164856890533e-001,
             6.1728395981553164e-003, 1.5123457232789117e-001,
             1.4814815470189957e-001, 0., 0., 9.2592596041935482e-003,
             1.4351852717636926e-001, 1.6512346732211713e-001, 0., 0.,
             6.1728395981553164e-003, 1.5200617831246355e-001,
             2.0910494231883364e-001, 1.6512346701167635e-001,
             6.4814818264157706e-002, 0., 1.5200617831246355e-001,
             2.5154321983364625e-001, 1.4197532027775883e-001,
             4.1666670391957053e-002, 0., 1.4814815573670259e-001,
             1.4197531531070484e-001, 0., 0., 0.,
             1.3503086858969415e-001, 1.4429012840084815e-001, 0.,
             1.3117284870442066e-002, 1.8132716857678732e-001,
             2.5462964346149475e-001, 2.6774692853889737e-001,
             1.8827161488387700e-001, 3.0169753970601287e-001,
             3.5185187365169901e-002, 5.7407411243076745e-002,
             6.8518522147227257e-002, 6.8518522147227257e-002,
             6.8518522147227257e-002, 6.8518522147227257e-002,
             6.3888892572787126e-002, 6.3888892572787126e-002,
             6.3888892572787126e-002, 6.3888892572787126e-002,
             6.2037040817516875e-002, 6.3888892572787126e-002,
             7.3148153791273207e-002, 8.2407412940153468e-002,
             8.4259265523266014e-002, 1.3981482625283603e-001,
             1.4907408126250465e-001, 1.8796297337997858e-001,
             1.8796297337997858e-001, 1.7870371423109832e-001,
             1.0740741546507249e-001, 8.7037042514593599e-002,
             8.4259265523266014e-002, 5.9259262998346995e-002,
             5.7407411243076745e-002, 5.7407411243076745e-002,
             5.7407411243076745e-002, 5.7407411243076745e-002,
             5.9259262998346995e-002, 5.9259262998346995e-002,
             5.7407411243076745e-002, 4.8148151059393574e-002,
             5.2777781668636614e-002, 5.7407411243076745e-002,
             6.6666670391957006e-002, 6.8518522147227257e-002,
             1.0833334115644311e-001, 1.2777778514557425e-001,
             2.1296296924076685e-001, 3.3333334699273109e-001,
             3.3333334699273109e-001, 3.1666667953961425e-001,
             2.2486774388838740e-002, 2.5793652656295976e-002,
             2.5793652656295976e-002, 2.5793652656295976e-002,
             2.7116404117021015e-002, 4.6957674165251428e-002,
             6.8121695881167454e-002, 7.8703705911283173e-002,
             8.5317462446197645e-002, 1.0185185585308965e-001,
             3.1547619860678422e-001, 3.2473545957100436e-001,
             3.0820107151552167e-001, 2.8902117406367922e-001,
             2.7380952927919572e-001, 1.2896826292669031e-001,
             7.4074079908391266e-002, 6.4153443036413738e-002,
             6.2169316022720966e-002, 6.6798945543942667e-002,
             6.6798945543942667e-002, 8.0026460683377432e-002,
             7.5396831162155731e-002, 7.3412704148462959e-002,
             8.1349211937141896e-002, 7.4074079908391266e-002,
             6.7460321303870974e-002, 5.0925929966584793e-002,
             4.7619051699127557e-002, 3.9682542461724563e-002,
             2.5000000000000000e-001, 3.3333334326744080e-001, 0., 0.,
             0., 2.5000000000000000e-001, 3.3333334326744080e-001, 0.,
             1.3888888992369175e-002, 1.3888888992369175e-002,
             2.5000000000000000e-001, 4.7222220897674561e-001,
             1.1111111193895340e-001, 4.7222220897674561e-001,
             1.1111111193895340e-001, 2.5000000000000000e-001,
             3.7500000000000000e-001, 4.1666667908430099e-002, 0., 0.,
             2.5000000000000000e-001, 3.3333334326744080e-001, 0., 0.,
             0., 2.5000000000000000e-001, 3.4722220897674561e-001, 0.,
             1.3888888992369175e-002, 1.3888888992369175e-002,
             3.6111110448837280e-001, 4.4444444775581360e-001,
             1.8055555224418640e-001, 3.1944444775581360e-001,
             4.3055555224418640e-001, 1.1666666716337204e-001,
             1.1666666716337204e-001, 1.1666666716337204e-001,
             1.1666666716337204e-001, 1.1666666716337204e-001,
             1.1666666716337204e-001, 1.1666666716337204e-001,
             1.1666666716337204e-001, 1.1666666716337204e-001,
             1.1666666716337204e-001, 1.1666666716337204e-001,
             1.5000000596046448e-001, 2.5000000000000000e-001,
             2.8333333134651184e-001, 3.1666666269302368e-001,
             3.0000001192092896e-001, 2.8333333134651184e-001,
             2.6666668057441711e-001, 1.6666667163372040e-001,
             1.5000000596046448e-001, 1.3333334028720856e-001,
             1.1666666716337204e-001, 1.1666666716337204e-001,
             1.1666666716337204e-001, 1.1666666716337204e-001,
             1.1666666716337204e-001, 1.1666666716337204e-001,
             1.1666666716337204e-001, 1.1666666716337204e-001,
             1.1666666716337204e-001, 1.1666666716337204e-001,
             1.1666666716337204e-001, 1.1666666716337204e-001,
             1.1666666716337204e-001, 1.1666666716337204e-001,
             1.6666667163372040e-001, 2.1666666865348816e-001,
             3.0000001192092896e-001, 3.3333334326744080e-001,
             5.0000000000000000e-001, 5.0000000000000000e-001,
             2.3333333432674408e-001, 2.3809524253010750e-002,
             3.5714287310838699e-002, 3.5714287310838699e-002,
             5.0000000000000000e-001, 5.0000000000000000e-001,
             5.0000000000000000e-001, 5.0000000000000000e-001,
             5.0000000000000000e-001, 5.0000000000000000e-001,
             5.0000000000000000e-001, 1.4285714924335480e-001,
             1.1904761940240860e-001, 7.1428574621677399e-002,
             4.7619048506021500e-002, 2.3809524253010750e-002,
             2.3809524253010750e-002, 4.7619048506021500e-002,
             7.1428574621677399e-002, 8.3333335816860199e-002,
             1.0714285820722580e-001, 1.1904761940240860e-001,
             1.1904761940240860e-001, 1.3095238804817200e-001,
             1.4285714924335480e-001, 1.1904761940240860e-001,
             1.0714285820722580e-001, 9.5238097012042999e-002,
             7.1428574621677399e-002, 5.9523809701204300e-002,
             3.5714287310838699e-002, 4.4444445520639420e-001,
             1.8518519009704946e+000, 6.2962963921880277e-001, 0., 0.,
             5.0000001490116119e-001, 1.8333333929379787e+000,
             6.9444446307089613e-001, 3.2407408200756271e-002,
             3.2407408200756271e-002, 4.4444445520639420e-001,
             2.1111111202173758e+000, 1.2592592573276269e+000,
             1.8379629839349674e+000, 5.0462963942576344e-001,
             3.3333334326744080e-001, 1.9814815043851182e+000,
             1.3703704007245876e+000, 6.2962966053574210e-001,
             1.4814815573670259e-001, 3.3333334326744080e-001,
             1.9166667064030971e+000, 6.3888889923691750e-001, 0., 0.,
             3.3333334326744080e-001, 1.7592592440821502e+000,
             7.5462964646242270e-001, 3.2407408200756271e-002,
             1.2962963259606453e-001, 1.5277777868840428e+000,
             2.4490741215370324e+000, 1.8472222429182796e+000,
             1.6342592680895773e+000, 2.5648148410298202e+000,
             4.5555557227796983e-001, 5.6666668305794410e-001,
             6.2222223596440429e-001, 6.2222223596440429e-001,
             6.2222223596440429e-001, 6.2222223596440429e-001,
             6.1111112518443012e-001, 6.1111112518443012e-001,
             6.1111112518443012e-001, 6.1111112518443012e-001,
             5.7777779383791827e-001, 6.8888891703552702e-001,
             8.9444446994198712e-001, 9.6111113462183217e-001,
             1.1388889180289374e+000, 1.3944444957706672e+000,
             1.3944444659683439e+000, 1.6055555956231231e+000,
             1.3388889135585895e+000, 1.2944444704386928e+000,
             7.6666670988003460e-001, 6.6666668405135487e-001,
             6.8888891951905373e-001, 6.0000001440445594e-001,
             5.6666668305794410e-001, 5.6666668305794410e-001,
             5.6666668305794410e-001, 5.6666668305794410e-001,
             6.0000001440445594e-001, 6.0000001440445594e-001,
             5.6666668305794410e-001, 5.4444445901446881e-001,
             5.5555557227796992e-001, 5.6666668305794410e-001,
             6.0555557029114837e-001, 7.7222224639521730e-001,
             1.0833333681027097e+000, 1.3944444848431488e+000,
             1.8888889220025806e+000, 2.8333333730697632e+000,
             2.8333333730697632e+000, 1.9944444590144688e+000,
             1.6269842026725656e-001, 1.8650794585072816e-001,
             1.8650794585072816e-001, 8.0555558121866655e-001,
             8.2936510733432245e-001, 1.1865079655415482e+000,
             1.5674603535897202e+000, 1.7698412939078279e+000,
             1.7857143093077910e+000, 2.2777778042687311e+000,
             2.2936507905759509e+000, 2.2222222432730687e+000,
             1.8095238336494992e+000, 1.4841270115640426e+000,
             1.3333333407839134e+000, 5.7539685046862066e-001,
             4.9603177275922583e-001, 4.6825398942307839e-001,
             5.0000001951342554e-001, 5.6349208040369891e-001,
             5.9126985699884482e-001, 6.3492065396100772e-001,
             6.3095241785049483e-001, 6.5079367929507859e-001,
             6.7063494499713672e-001, 5.8730161592127805e-001,
             5.1984128911816896e-001, 4.2460319742796937e-001,
             4.0079366936097083e-001, 2.9365080352576967e-001,
             6.1728395981553164e-003, 6.6203703189751617e-001,
             7.7932098602163202e-001, 0., 0., 9.2592596041935482e-003,
             6.3425927067658416e-001, 8.3641976306651844e-001,
             1.3888888992369175e-002, 1.3888888992369175e-002,
             6.1728395981553164e-003, 6.5277777984738350e-001,
             1.1373456493939882e+000, 9.2901237328525310e-001,
             3.7808641979907764e-001, 0., 6.5277777984738350e-001,
             1.1111111212521791e+000, 4.6296298186536189e-001,
             1.4197531531070484e-001, 0., 6.3888889923691750e-001,
             7.5308641979907764e-001, 0., 0., 0.,
             6.1574074329325446e-001, 7.5925925960419360e-001,
             1.3888888992369175e-002, 9.8765433777445621e-002,
             8.4259259552453403e-001, 1.1790123751478983e+000,
             1.3379629885915805e+000, 9.5679011960502391e-001,
             1.4259258976068210e+000, 2.0740741082915554e-001,
             2.7777778448330032e-001, 3.1296296758508241e-001,
             3.1296296758508241e-001, 3.1296296758508241e-001,
             3.1296296758508241e-001, 2.9629630191182649e-001,
             2.9629630191182649e-001, 2.9629630191182649e-001,
             2.9629630191182649e-001, 2.9444445015655624e-001,
             3.2962964070891893e-001, 4.1296297652577912e-001,
             4.4629630787229096e-001, 5.4814815449493903e-001,
             7.2407409235559128e-001, 7.5740740880094193e-001,
             8.3518519692674831e-001, 7.0185186409012035e-001,
             6.6851853274360851e-001, 4.4814816045540351e-001,
             3.7962963772868669e-001, 3.6481482463854331e-001,
             2.7962963623857057e-001, 2.7777778448330032e-001,
             2.7777778448330032e-001, 2.7777778448330032e-001,
             2.7777778448330032e-001, 2.7962963623857057e-001,
             2.7962963623857057e-001, 2.7777778448330032e-001,
             2.4444444941149818e-001, 2.6111111881004440e-001,
             2.7777778448330032e-001, 3.2777778150306808e-001,
             3.9629630340194261e-001, 5.5370371721133038e-001,
             6.7592593218993258e-001, 1.1944444347172976e+000,
             1.5555555559694767e+000, 1.5555555559694767e+000,
             1.3555555512093835e+000, 1.0978836464700560e-001,
             1.2169312584218840e-001, 1.2169312584218840e-001,
             1.2169312584218840e-001, 1.2301587730291344e-001,
             1.4285714735114385e-001, 1.6402116906705988e-001,
             1.8650794029235840e-001, 2.1031746268272400e-001,
             7.2222222760319710e-001, 1.4947089821829525e+000,
             1.5383597748580748e+000, 1.5304232804922673e+000,
             1.5026454893507497e+000, 1.4616401850211400e+000,
             5.7804234620558204e-001, 3.7698414265399888e-001,
             3.0555556058174088e-001, 2.9497355064032255e-001,
             3.0820106308926981e-001, 3.2010582428445261e-001,
             3.7962963771094721e-001, 3.7830689390776334e-001,
             3.5582011532058161e-001, 3.9285715761047507e-001,
             3.8888890384918168e-001, 3.2936508297210648e-001,
             2.4603175460582688e-001, 2.3412699341064408e-001,
             1.7328042831646387e-001, 0., 0., 0., 0., 0., 0., 0., 0., 0.,
             0., 0., 0., 0., 0., 0., 0., 0., 0., 0., 0., 0., 0., 0., 0.,
             0., 0., 0., 0., 0., 0., 0., 0., 0., 0., 0., 0., 0., 0., 0.,
             0., 0., 0., 0., 0., 0., 0., 0., 0., 0., 0., 0., 0., 0., 0.,
             0., 0., 0., 0., 0., 0., 0., 0., 0., 0., 0., 0., 0., 0., 0.,
             0., 0., 0., 0., 0., 0., 0., 0., 0., 0., 0., 0., 0., 0., 0.,
             0., 0., 0., 0., 0., 0., 0., 0., 0., 0., 0., 0., 0., 0., 0.,
             0., 0., 0., 0., 0., 0., 0., 0., 0., 0., 0., 0., 0., 0., 0.,
             0., 0., 0., 0., 0., 0., 0., 0., 0., 0., 0., 0., 0., 0., 0.,
             0., 0., 0., 0., 0., 0., 0., 0., 0., 0., 0., 0., 0., 0., 0.,
             0., 0., 0., 0., 0., 0., 0., 0., 0., 0., 0., 0., 0., 0., 0.,
             0., 0., 0., 0., 0., 0., 0., 0., 0., 0., 0., 0., 0., 0., 0.,
             0., 0., 0., 0., 0., 0., 0., 0., 0., 0., 0., 0., 0., 0., 0.,
             0., 0., 0., 0., 0., 0., 0., 0., 0., 0., 0., 0., 0., 0., 0.,
             0., 0., 0., 0., 0., 0., 0., 0., 0., 0.,
             2.5000000000000000e-001, 3.3333334326744080e-001, 0., 0.,
             0., 2.5000000000000000e-001, 3.3333334326744080e-001, 0.,
             1.3888888992369175e-002, 1.3888888992369175e-002,
             2.5000000000000000e-001, 4.7222220897674561e-001,
             1.1111111193895340e-001, 4.7222220897674561e-001,
             1.1111111193895340e-001, 2.5000000000000000e-001,
             3.7500000000000000e-001, 4.1666667908430099e-002, 0., 0.,
             2.5000000000000000e-001, 3.3333334326744080e-001, 0., 0.,
             0., 2.5000000000000000e-001, 3.4722220897674561e-001, 0.,
             1.3888888992369175e-002, 1.3888888992369175e-002,
             3.6111110448837280e-001, 4.4444444775581360e-001,
             1.8055555224418640e-001, 3.1944444775581360e-001,
             4.3055555224418640e-001, 1.1666666716337204e-001,
             1.1666666716337204e-001, 1.1666666716337204e-001,
             1.1666666716337204e-001, 1.1666666716337204e-001,
             1.1666666716337204e-001, 1.1666666716337204e-001,
             1.1666666716337204e-001, 1.1666666716337204e-001,
             1.1666666716337204e-001, 1.1666666716337204e-001,
             1.5000000596046448e-001, 2.5000000000000000e-001,
             2.8333333134651184e-001, 3.1666666269302368e-001,
             3.0000001192092896e-001, 2.8333333134651184e-001,
             2.6666668057441711e-001, 1.6666667163372040e-001,
             1.5000000596046448e-001, 1.3333334028720856e-001,
             1.1666666716337204e-001, 1.1666666716337204e-001,
             1.1666666716337204e-001, 1.1666666716337204e-001,
             1.1666666716337204e-001, 1.1666666716337204e-001,
             1.1666666716337204e-001, 1.1666666716337204e-001,
             1.1666666716337204e-001, 1.1666666716337204e-001,
             1.1666666716337204e-001, 1.1666666716337204e-001,
             1.1666666716337204e-001, 1.1666666716337204e-001,
             1.6666667163372040e-001, 2.1666666865348816e-001,
             3.0000001192092896e-001, 3.3333334326744080e-001,
             5.0000000000000000e-001, 5.0000000000000000e-001,
             2.3333333432674408e-001, 2.3809524253010750e-002,
             3.5714287310838699e-002, 3.5714287310838699e-002,
             5.0000000000000000e-001, 5.0000000000000000e-001,
             5.0000000000000000e-001, 5.0000000000000000e-001,
             5.0000000000000000e-001, 5.0000000000000000e-001,
             5.0000000000000000e-001, 1.4285714924335480e-001,
             1.1904761940240860e-001, 7.1428574621677399e-002,
             4.7619048506021500e-002, 2.3809524253010750e-002,
             2.3809524253010750e-002, 4.7619048506021500e-002,
             7.1428574621677399e-002, 8.3333335816860199e-002,
             1.0714285820722580e-001, 1.1904761940240860e-001,
             1.1904761940240860e-001, 1.3095238804817200e-001,
             1.4285714924335480e-001, 1.1904761940240860e-001,
             1.0714285820722580e-001, 9.5238097012042999e-002,
             7.1428574621677399e-002, 5.9523809701204300e-002,
             3.5714287310838699e-002, 4.3981480005162732e-001,
             1.7106481420773036e+000, 6.0725308677618506e-001, 0., 0.,
             4.8611109869347668e-001, 1.6898148178502357e+000,
             6.6666667473812891e-001, 3.3179011857022100e-002,
             3.3179011857022100e-002, 4.3981480005162732e-001,
             1.9606480882675568e+000, 1.2052468862154599e+000,
             1.7669752685376166e+000, 4.9305554996762013e-001,
             3.4722220897674561e-001, 1.8263888524638281e+000,
             1.2662037098435341e+000, 5.6481483275139777e-001,
             1.3503086858969415e-001, 3.4722220897674561e-001,
             1.7592592440821502e+000, 6.1574074329325446e-001, 0., 0.,
             3.4722220897674561e-001, 1.6311727741986157e+000,
             7.1373457470793777e-001, 3.3179011857022100e-002,
             1.2345679004872101e-001, 1.4606481081357714e+000,
             2.2901234354501891e+000, 1.7353394897079770e+000,
             1.5547839134563635e+000, 2.4089505693610800e+000,
             4.3703703779589231e-001, 5.3518518397101644e-001,
             5.8425925467853190e-001, 5.8425925467853190e-001,
             5.8425925467853190e-001, 5.8425925467853190e-001,
             5.7314814389855773e-001, 5.7314814389855773e-001,
             5.7314814389855773e-001, 5.7314814389855773e-001,
             5.4537036843873832e-001, 6.5277778481443693e-001,
             8.6203703063505666e-001, 9.2870369134125896e-001,
             1.1027777650290065e+000, 1.3240740811383276e+000,
             1.3222222006983229e+000, 1.4990740715353574e+000,
             1.2268518426903974e+000, 1.1833333278695743e+000,
             7.2222224192486806e-001, 6.2777777645323019e-001,
             6.4444445355070945e-001, 5.6296295943083585e-001,
             5.3518518397101644e-001, 5.3518518397101644e-001,
             5.3518518397101644e-001, 5.3518518397101644e-001,
             5.6296295943083585e-001, 5.6296295943083585e-001,
             5.3518518397101644e-001, 5.1481481275900642e-001,
             5.2499999950329457e-001, 5.3518518397101644e-001,
             5.7222221857971611e-001, 7.3611111218730585e-001,
             1.0240740751778636e+000, 1.3222222204009686e+000,
             1.7972222030162808e+000, 2.6666666269302368e+000,
             2.6666666269302368e+000, 1.8629629307874929e+000,
             1.5410053235769428e-001, 1.7791005662548787e-001,
             1.7791005662548787e-001, 8.2275129965058080e-001,
             8.4259257094057460e-001, 1.1402116123508050e+000,
             1.4576719281554378e+000, 1.6283068348353029e+000,
             1.6441798502352660e+000, 2.1349205931145994e+000,
             2.1137565709847621e+000, 2.0509259048947897e+000,
             1.6944444384721535e+000, 1.4153439176007705e+000,
             1.2797618937486455e+000, 5.3835979944203416e-001,
             4.6759260718824036e-001, 4.4179894944662745e-001,
             4.7089947578768232e-001, 5.3174603150950528e-001,
             5.6018518262281614e-001, 6.0251322729641155e-001,
             6.0317462032276437e-001, 6.1970900208073276e-001,
             6.3293651225311409e-001, 5.6150794721075448e-001,
             4.9470899817804792e-001, 4.0013228526348765e-001,
             3.7632275840868701e-001, 2.7182539898369984e-001,
             1.8518519208387096e-002, 7.7083333788646602e-001,
             7.7854937920921741e-001, 0., 0., 2.7777779433462380e-002,
             7.4074076047098192e-001, 8.3796297048253021e-001,
             1.4660494304319593e-002, 1.4660494304319593e-002,
             1.8518519208387096e-002, 7.6774692222659979e-001,
             1.1620370086144518e+000, 9.8533953648106554e-001,
             3.8425925960419355e-001, 0., 7.6851852707288870e-001,
             1.1589506273100412e+000, 4.9074075757353386e-001,
             1.4429012840084815e-001, 0., 7.5462964646242270e-001,
             7.5925925960419360e-001, 0., 0., 0.,
             7.1373457470793777e-001, 7.7932099078172556e-001,
             1.4660494304319593e-002, 1.0262345894021382e-001,
             8.8503086589920654e-001, 1.2878086751349915e+000,
             1.4035494095289414e+000, 1.0100308601043100e+000,
             1.5270061501658256e+000, 2.2500000616742510e-001,
             3.0092593425953829e-001, 3.3888889468378491e-001,
             3.3888889468378491e-001, 3.3888889468378491e-001,
             3.3888889468378491e-001, 3.2222222901052899e-001,
             3.2222222901052899e-001, 3.2222222901052899e-001,
             3.2222222901052899e-001, 3.1666667362054191e-001,
             3.5740742084604737e-001, 4.4166668256123853e-001,
             4.7314816128324577e-001, 5.8425927106980913e-001,
             7.7314816840268907e-001, 8.0555555936363010e-001,
             9.0370371667323290e-001, 7.6296297292466519e-001,
             7.3148149420265796e-001, 4.7592593980608155e-001,
             4.0462963851513689e-001, 3.9351853071539500e-001,
             3.0648148964952537e-001, 3.0092593425953829e-001,
             3.0092593425953829e-001, 3.0092593425953829e-001,
             3.0092593425953829e-001, 3.0648148964952537e-001,
             3.0648148964952537e-001, 3.0092593425953829e-001,
             2.6944445201920142e-001, 2.8518519489853467e-001,
             3.0092593425953829e-001, 3.5000000496705375e-001,
             4.2592593616357566e-001, 5.9629631312908948e-001,
             7.3240741794859909e-001, 1.2509259196895144e+000,
             1.6666666716337204e+000, 1.6666666716337204e+000,
             1.4231481405871884e+000, 1.1507937025337939e-001,
             1.2632275551123912e-001, 1.2632275551123912e-001,
             1.2632275551123912e-001, 1.3029100998211163e-001,
             1.8981482145726369e-001, 2.5330688802417001e-001,
             2.9761905595660210e-001, 3.2142857834696770e-001,
             8.5714287825283542e-001, 1.6058200956888928e+000,
             1.6395502569025791e+000, 1.5912698435168418e+000,
             1.5317460212206084e+000, 1.4808200816155745e+000,
             5.8002646825222104e-001, 3.9285715988704140e-001,
             3.2010582594013726e-001, 3.1283069453226831e-001,
             3.2870370957744188e-001, 3.4126984670994776e-001,
             4.0013228378519794e-001, 3.9682541373703217e-001,
             3.7632276139483234e-001, 4.1534393075755038e-001,
             4.0476192108222420e-001, 3.4457672426782593e-001,
             2.6190477183886940e-001, 2.5066138658100967e-001,
             1.8518519004383094e-001, 1.3888888992369175e-002,
             3.2407408200756271e-002, 1.3888888992369175e-002, 0., 0.,
             1.3888888992369175e-002, 3.2407408200756271e-002,
             1.3888888992369175e-002, 1.5432098995388291e-003,
             1.5432098995388291e-003, 1.3888888992369175e-002,
             4.0123456353206688e-002, 2.9320987366875745e-002,
             4.8611111473292112e-002, 1.4660493890398446e-002,
             1.3888888992369175e-002, 3.4722222480922937e-002,
             1.7746914517318399e-002, 0., 0., 1.3888888992369175e-002,
             3.2407408200756271e-002, 1.3888888992369175e-002, 0., 0.,
             1.3888888992369175e-002, 3.3179011857022100e-002,
             1.4660494304319593e-002, 1.5432098995388291e-003,
             3.8580247488470727e-003, 3.3950617168972519e-002,
             4.7067902505075865e-002, 3.5493827792873356e-002,
             3.7037036761089603e-002, 5.0154320441508360e-002,
             1.2037037237098924e-002, 1.2037037237098924e-002,
             1.2037037237098924e-002, 1.2037037237098924e-002,
             1.2037037237098924e-002, 1.2037037237098924e-002,
             1.2037037237098924e-002, 1.2037037237098924e-002,
             1.2037037237098924e-002, 1.2037037237098924e-002,
             1.2037037237098924e-002, 1.5740741575481720e-002,
             2.4074074474197849e-002, 2.5925926229468099e-002,
             3.3333333250549102e-002, 3.2407408200756271e-002,
             3.1481481495278851e-002, 2.8703704690215770e-002,
             1.5740741161560573e-002, 1.4814815283925448e-002,
             1.2962963528655197e-002, 1.2037037237098924e-002,
             1.2037037237098924e-002, 1.2037037237098924e-002,
             1.2037037237098924e-002, 1.2037037237098924e-002,
             1.2037037237098924e-002, 1.2037037237098924e-002,
             1.2037037237098924e-002, 1.2037037237098924e-002,
             1.2037037237098924e-002, 1.2037037237098924e-002,
             1.2037037237098924e-002, 1.2037037237098924e-002,
             1.2962963114734050e-002, 1.9444445086022222e-002,
             2.4074074474197849e-002, 3.2407408200756271e-002,
             4.6296297193125446e-002, 5.5555555969476700e-002,
             5.5555555969476700e-002, 3.0555555617643726e-002,
             3.3068784448520225e-003, 3.9682541752145417e-003,
             3.9682541752145417e-003, 2.9761905072345621e-002,
             2.9761905072345621e-002, 2.9761905072345621e-002,
             2.9761905072345621e-002, 3.0423280699227853e-002,
             3.0423280699227853e-002, 5.5555555969476700e-002,
             3.5714286335167433e-002, 3.4391534667481821e-002,
             3.1746032159952892e-002, 3.0423280699227853e-002,
             2.9100529341983102e-002, 8.5978840807916027e-003,
             9.9206354380363543e-003, 9.2592596041935482e-003,
             9.9206352310757806e-003, 1.1243386484840245e-002,
             1.2566137738604710e-002, 1.3227513365486943e-002,
             1.4550265447093702e-002, 1.4550265033172555e-002,
             1.3888889406290322e-002, 1.3888889406290322e-002,
             1.1243386484840245e-002, 8.5978839773113158e-003,
             7.9365081434685097e-003, 4.6296298020967741e-003,
             1.6975308791446833e-002, 1.2037037283665053e-001,
             1.0956790379857945e-001, 0., 0., 1.8518518794465949e-002,
             1.2731481831589786e-001, 1.1265432473594028e-001,
             3.8580247488470727e-003, 3.8580247488470727e-003,
             1.6975308791446833e-002, 1.3966049425257943e-001,
             1.7438271512955789e-001, 1.8441358635799943e-001,
             6.7129630112537614e-002, 1.3888888992369175e-002,
             1.3194444687623119e-001, 1.4737654721686316e-001,
             3.7037039037655928e-002, 1.3117284870442066e-002,
             1.3888888992369175e-002, 1.2962963259606453e-001,
             9.8765433777445621e-002, 0., 0., 1.3888888992369175e-002,
             1.2345679004872101e-001, 1.0262345894021382e-001,
             3.8580247488470727e-003, 2.0833333954215057e-002,
             1.4043210090977359e-001, 2.0601852536546417e-001,
             2.0216049901267263e-001, 1.6358024790239190e-001,
             2.3533950605786136e-001, 4.0740741906618638e-002,
             4.8148149672757712e-002, 5.1851853245386381e-002,
             5.1851853245386381e-002, 5.1851853245386381e-002,
             5.1851853245386381e-002, 5.1851853245386381e-002,
             5.1851853245386381e-002, 5.1851853245386381e-002,
             5.1851853245386381e-002, 5.0925927367751256e-002,
             6.1111114091343371e-002, 8.3333336520526186e-002,
             9.0740743665783524e-002, 1.1574074277585306e-001,
             1.3611111576772406e-001, 1.3796296427371324e-001,
             1.3518518746865016e-001, 1.0000000163498851e-001,
             9.3518520367366298e-002, 5.9259262460249484e-002,
             5.4629630940379925e-002, 5.5555557231936198e-002,
             4.9074075550392837e-002, 4.8148149672757712e-002,
             4.8148149672757712e-002, 4.8148149672757712e-002,
             4.8148149672757712e-002, 4.9074075550392837e-002,
             4.9074075550392837e-002, 4.8148149672757712e-002,
             4.2592593661888889e-002, 4.5370371977764168e-002,
             4.8148149672757712e-002, 5.7407408573285301e-002,
             7.5925928195593545e-002, 1.0092592879577922e-001,
             1.2592592838185807e-001, 2.2407407577804939e-001,
             2.5000000372529030e-001, 2.5000000372529030e-001,
             1.8611111320141288e-001, 1.6534392460786487e-002,
             1.9179895116144395e-002, 1.9179895116144395e-002,
             4.4973546013275474e-002, 4.5634921743637993e-002,
             5.5555556767753200e-002, 6.6137567625711213e-002,
             7.4074075148298002e-002, 7.4074075148298002e-002,
             1.7857143070016590e-001, 2.2156084993627495e-001,
             2.2420635050724416e-001, 2.1362434217716178e-001,
             2.0436508319384994e-001, 1.9841269950663279e-001,
             8.9285719459728657e-002, 5.7539686442367663e-002,
             4.8941800558062465e-002, 4.8280424886831541e-002,
