%YAML:1.0
my_nb: !!opencv-ml-bayesian
   var_count: 107
   var_all: 107
   cls_labels: !!opencv-matrix
      rows: 1
      cols: 6
      dt: i
      data: [ 2, 3, 6, 10, 19, 25 ]
   count:
      - !!opencv-matrix
         rows: 1
         cols: 107
         dt: i
         data: [ 2, 2, 2, 2, 2, 2, 2, 2, 2, 2, 2, 2, 2, 2, 2, 2, 2, 2, 2,
             2, 2, 2, 2, 2, 2, 2, 2, 2, 2, 2, 2, 2, 2, 2, 2, 2, 2, 2, 2,
             2, 2, 2, 2, 2, 2, 2, 2, 2, 2, 2, 2, 2, 2, 2, 2, 2, 2, 2, 2,
             2, 2, 2, 2, 2, 2, 2, 2, 2, 2, 2, 2, 2, 2, 2, 2, 2, 2, 2, 2,
             2, 2, 2, 2, 2, 2, 2, 2, 2, 2, 2, 2, 2, 2, 2, 2, 2, 2, 2, 2,
             2, 2, 2, 2, 2, 2, 2, 2 ]
      - !!opencv-matrix
         rows: 1
         cols: 107
         dt: i
         data: [ 1, 1, 1, 1, 1, 1, 1, 1, 1, 1, 1, 1, 1, 1, 1, 1, 1, 1, 1,
             1, 1, 1, 1, 1, 1, 1, 1, 1, 1, 1, 1, 1, 1, 1, 1, 1, 1, 1, 1,
             1, 1, 1, 1, 1, 1, 1, 1, 1, 1, 1, 1, 1, 1, 1, 1, 1, 1, 1, 1,
             1, 1, 1, 1, 1, 1, 1, 1, 1, 1, 1, 1, 1, 1, 1, 1, 1, 1, 1, 1,
             1, 1, 1, 1, 1, 1, 1, 1, 1, 1, 1, 1, 1, 1, 1, 1, 1, 1, 1, 1,
             1, 1, 1, 1, 1, 1, 1, 1 ]
      - !!opencv-matrix
         rows: 1
         cols: 107
         dt: i
         data: [ 2, 2, 2, 2, 2, 2, 2, 2, 2, 2, 2, 2, 2, 2, 2, 2, 2, 2, 2,
             2, 2, 2, 2, 2, 2, 2, 2, 2, 2, 2, 2, 2, 2, 2, 2, 2, 2, 2, 2,
             2, 2, 2, 2, 2, 2, 2, 2, 2, 2, 2, 2, 2, 2, 2, 2, 2, 2, 2, 2,
             2, 2, 2, 2, 2, 2, 2, 2, 2, 2, 2, 2, 2, 2, 2, 2, 2, 2, 2, 2,
             2, 2, 2, 2, 2, 2, 2, 2, 2, 2, 2, 2, 2, 2, 2, 2, 2, 2, 2, 2,
             2, 2, 2, 2, 2, 2, 2, 2 ]
      - !!opencv-matrix
         rows: 1
         cols: 107
         dt: i
         data: [ 11, 11, 11, 11, 11, 11, 11, 11, 11, 11, 11, 11, 11, 11,
             11, 11, 11, 11, 11, 11, 11, 11, 11, 11, 11, 11, 11, 11, 11,
             11, 11, 11, 11, 11, 11, 11, 11, 11, 11, 11, 11, 11, 11, 11,
             11, 11, 11, 11, 11, 11, 11, 11, 11, 11, 11, 11, 11, 11, 11,
             11, 11, 11, 11, 11, 11, 11, 11, 11, 11, 11, 11, 11, 11, 11,
             11, 11, 11, 11, 11, 11, 11, 11, 11, 11, 11, 11, 11, 11, 11,
             11, 11, 11, 11, 11, 11, 11, 11, 11, 11, 11, 11, 11, 11, 11,
             11, 11, 11 ]
      - !!opencv-matrix
         rows: 1
         cols: 107
         dt: i
         data: [ 3, 3, 3, 3, 3, 3, 3, 3, 3, 3, 3, 3, 3, 3, 3, 3, 3, 3, 3,
             3, 3, 3, 3, 3, 3, 3, 3, 3, 3, 3, 3, 3, 3, 3, 3, 3, 3, 3, 3,
             3, 3, 3, 3, 3, 3, 3, 3, 3, 3, 3, 3, 3, 3, 3, 3, 3, 3, 3, 3,
             3, 3, 3, 3, 3, 3, 3, 3, 3, 3, 3, 3, 3, 3, 3, 3, 3, 3, 3, 3,
             3, 3, 3, 3, 3, 3, 3, 3, 3, 3, 3, 3, 3, 3, 3, 3, 3, 3, 3, 3,
             3, 3, 3, 3, 3, 3, 3, 3 ]
      - !!opencv-matrix
         rows: 1
         cols: 107
         dt: i
         data: [ 2, 2, 2, 2, 2, 2, 2, 2, 2, 2, 2, 2, 2, 2, 2, 2, 2, 2, 2,
             2, 2, 2, 2, 2, 2, 2, 2, 2, 2, 2, 2, 2, 2, 2, 2, 2, 2, 2, 2,
             2, 2, 2, 2, 2, 2, 2, 2, 2, 2, 2, 2, 2, 2, 2, 2, 2, 2, 2, 2,
             2, 2, 2, 2, 2, 2, 2, 2, 2, 2, 2, 2, 2, 2, 2, 2, 2, 2, 2, 2,
             2, 2, 2, 2, 2, 2, 2, 2, 2, 2, 2, 2, 2, 2, 2, 2, 2, 2, 2, 2,
             2, 2, 2, 2, 2, 2, 2, 2 ]
   sum:
      - !!opencv-matrix
         rows: 1
         cols: 107
         dt: d
         data: [ 3.8888889551162720e-001, 1.4722222089767456e+000,
             1.7500000000000000e+000, 1.7222222089767456e+000,
             1.1666666865348816e+000, 1.3888888955116272e+000,
             1.3888888955116272e+000, 1.6666666790843010e-001,
             3.3333333581686020e-001, 1.7222222089767456e+000,
             1.9166666269302368e+000, 5.5555556714534760e-001, 0., 0.,
             6.6666668653488159e-001, 2., 5.0000001490116119e-001, 0.,
             0., 0., 1.9444444179534912e+000, 6.1111110448837280e-001,
             0., 0., 2.7777777984738350e-002, 1.3055555820465088e+000,
             1.4444444775581360e+000, 2.2222222387790680e-001,
             3.0555555969476700e-001, 1.3611111044883728e+000,
             3.0555555969476700e-001, 1.3055555820465088e+000,
             1.8055555820465088e+000, 1.6666666865348816e+000,
             6.9444444775581360e-001, 6.6666668653488159e-001,
             1.2000000476837158e+000, 1.4333333373069763e+000,
             1.5333333015441895e+000, 1.6333333253860474e+000,
             1.3333333134651184e+000, 1.2333333492279053e+000,
             1.1333333253860474e+000, 1., 9.3333333730697632e-001,
             9.0000000596046448e-001, 8.0000001192092896e-001,
             7.6666668057441711e-001, 7.3333334922790527e-001,
             7.3333334922790527e-001, 5.3333336114883423e-001,
             5.0000001490116119e-001, 5.0000001490116119e-001,
             5.0000001490116119e-001, 5.0000001490116119e-001,
             5.0000001490116119e-001, 5.0000001490116119e-001,
             5.0000001490116119e-001, 5.0000001490116119e-001,
             5.0000001490116119e-001, 5.0000001490116119e-001,
             5.0000001490116119e-001, 5.3333336114883423e-001,
             5.3333336114883423e-001, 5.3333334624767303e-001,
             7.3333334922790527e-001, 7.3333334922790527e-001,
             8.3333334326744080e-001, 1.0000000298023224e+000,
             1.1000000238418579e+000, 1.1666666865348816e+000,
             1.4666666984558105e+000, 1.5666666626930237e+000,
             1.4000000357627869e+000, 1.1666666865348816e+000,
             8.3333334326744080e-001, 5.0000001490116119e-001,
             7.3809525370597839e-001, 1.0714285969734192e+000,
             1.3333333730697632e+000, 1.5000000000000000e+000,
             1.5952380895614624e+000, 1.6904761791229248e+000,
             1.7380952239036560e+000, 1.4285714030265808e+000,
             9.5238095521926880e-001, 7.8571429848670959e-001,
             6.9047620892524719e-001, 6.4285716414451599e-001,
             6.6666668653488159e-001, 6.1904764175415039e-001,
             5.7142859697341919e-001, 5.2380955219268799e-001,
             5.0000001490116119e-001, 5.0000001490116119e-001,
             5.2380953729152679e-001, 5.2380953729152679e-001,
             5.7142859697341919e-001, 5.4761907458305359e-001,
             5.9523811936378479e-001, 6.9047620892524719e-001,
             8.0952382087707520e-001, 8.5714286565780640e-001,
             1.0476191043853760e+000, 1.0238095521926880e+000,
             8.3333334326744080e-001, 2.6190476864576340e-001 ]
      - !!opencv-matrix
         rows: 1
         cols: 107
         dt: d
         data: [ 3.6111110448837280e-001, 2.7777777984738350e-002,
             2.7777777984738350e-002, 8.3333331346511841e-001,
             1.9444444775581360e-001, 4.1666665673255920e-001,
             5.5555555969476700e-002, 0., 3.6111110448837280e-001,
             3.6111110448837280e-001, 6.6666668653488159e-001, 0., 0.,
             2.5000000000000000e-001, 8.6111110448837280e-001,
             3.3333334326744080e-001, 2.7777777984738350e-002, 0.,
             1.3888889551162720e-001, 6.6666668653488159e-001,
             5.2777779102325439e-001, 8.3333335816860199e-002, 0.,
             4.4444444775581360e-001, 6.9444441795349121e-001,
             8.3333331346511841e-001, 1.6666667163372040e-001,
             1.1111111193895340e-001, 7.7777779102325439e-001,
             5.8333331346511841e-001, 9.1666668653488159e-001,
             6.3888889551162720e-001, 8.6111110448837280e-001,
             8.8888889551162720e-001, 1.9444444775581360e-001,
             1.6666667163372040e-001, 2.0000000298023224e-001,
             3.0000001192092896e-001, 3.6666667461395264e-001,
             3.3333334326744080e-001, 3.6666667461395264e-001,
             3.6666667461395264e-001, 2.3333333432674408e-001,
             6.6666670143604279e-002, 1.0000000149011612e-001,
             3.3333334326744080e-001, 3.3333334326744080e-001,
             3.3333334326744080e-001, 3.6666667461395264e-001,
             3.3333334326744080e-001, 3.6666667461395264e-001,
             3.6666667461395264e-001, 3.6666667461395264e-001,
             3.6666667461395264e-001, 3.3333334326744080e-001,
             3.6666667461395264e-001, 3.0000001192092896e-001,
             3.3333335071802139e-002, 0., 3.3333335071802139e-002,
             3.3333334326744080e-001, 4.0000000596046448e-001,
             4.0000000596046448e-001, 4.6666666865348816e-001,
             4.6666666865348816e-001, 4.3333333730697632e-001,
             5.0000000000000000e-001, 5.0000000000000000e-001,
             4.6666666865348816e-001, 5.0000000000000000e-001,
             5.6666666269302368e-001, 6.0000002384185791e-001,
             6.0000002384185791e-001, 6.6666668653488159e-001,
             8.3333331346511841e-001, 8.0000001192092896e-001,
             6.9999998807907104e-001, 7.1428574621677399e-002,
             4.5238095521926880e-001, 7.3809522390365601e-001,
             7.3809522390365601e-001, 7.3809522390365601e-001,
             7.3809522390365601e-001, 4.2857143282890320e-001,
             1.1904761940240860e-001, 9.5238097012042999e-002,
             7.1428574621677399e-002, 7.1428574621677399e-002,
             7.1428574621677399e-002, 1.1904761940240860e-001,
             9.5238097012042999e-002, 1.1904761940240860e-001,
             1.4285714924335480e-001, 1.6666667163372040e-001,
             2.1428571641445160e-001, 2.3809523880481720e-001,
             3.8095238804817200e-001, 4.5238095521926880e-001,
             5.9523808956146240e-001, 6.6666668653488159e-001,
             8.3333331346511841e-001, 7.8571426868438721e-001,
             6.9047617912292480e-001, 5.7142859697341919e-001,
             4.7619047760963440e-001, 3.8095238804817200e-001,
             1.4285714924335480e-001 ]
      - !!opencv-matrix
         rows: 1
         cols: 107
         dt: d
         data: [ 3.6111111938953400e-001, 1.5277777910232544e+000,
             1.4722222089767456e+000, 1.6666666269302368e+000,
             1.5277777910232544e+000, 1.1944444179534912e+000,
             1.1666666269302368e+000, 5.5555555969476700e-002,
             2.5000000186264515e-001, 1.3333333730697632e+000,
             1.6944444179534912e+000, 5.0000001490116119e-001, 0., 0.,
             2.7777777984738350e-002, 1.8333333134651184e+000,
             2.2222222387790680e-001, 0., 3.8888889551162720e-001,
             1.7777777314186096e+000, 1.6666666865348816e+000,
             3.0555555596947670e-001, 0., 1.6666667349636555e-001,
             1.5000000000000000e+000, 1.0277777910232544e+000,
             1.4166666865348816e+000, 1.3888888992369175e-001,
             4.1666667908430099e-001, 1.6666666269302368e+000,
             2.2222222387790680e-001, 1.4444444179534912e+000,
             1.6944444179534912e+000, 1.6944444775581360e+000,
             1.1388888955116272e+000, 8.3333334326744080e-001,
             1.3333333730697632e+000, 1.5333333015441895e+000,
             1.4666666984558105e+000, 1.5000000000000000e+000,
             1.2000000476837158e+000, 1.1000000238418579e+000,
             9.6666666865348816e-001, 8.6666670441627502e-001,
             7.6666668057441711e-001, 6.0000002384185791e-001,
             5.0000001490116119e-001, 4.3333335220813751e-001,
             4.0000000596046448e-001, 4.3333333730697632e-001,
             4.3333333730697632e-001, 4.6666666865348816e-001,
             5.0000001490116119e-001, 7.0000001788139343e-001,
             9.6666666865348816e-001, 9.3333333730697632e-001,
             9.0000000596046448e-001, 9.0000000596046448e-001,
             6.6666667163372040e-001, 6.3333334028720856e-001,
             6.6666668653488159e-001, 7.3333334922790527e-001,
             8.0000001192092896e-001, 7.6666668057441711e-001,
             7.6666668057441711e-001, 8.0000001192092896e-001,
             8.3333334326744080e-001, 8.3333334326744080e-001,
             9.3333336710929871e-001, 1.0333333611488342e+000,
             1.1666666865348816e+000, 1.3666666746139526e+000,
             1.6000000238418579e+000, 1.4666666984558105e+000,
             1.3999999761581421e+000, 1.1000000238418579e+000,
             5.0000001490116119e-001, 4.0476192533969879e-001,
             7.6190477609634399e-001, 1.1428571343421936e+000,
             1.3571428656578064e+000, 1.5476190447807312e+000,
             1.6428571343421936e+000, 1.5000000000000000e+000,
             1.1666666865348816e+000, 8.8095238804817200e-001,
             7.8571429848670959e-001, 6.6666668653488159e-001,
             6.4285716414451599e-001, 5.4761905968189240e-001,
             4.5238097012042999e-001, 4.7619049251079559e-001,
             4.5238097012042999e-001, 4.7619049251079559e-001,
             4.7619049251079559e-001, 4.7619049251079559e-001,
             5.2380953729152679e-001, 5.0000001490116119e-001,
             5.4761905968189240e-001, 7.6190477609634399e-001,
             1.1190476119518280e+000, 1.4047619104385376e+000,
             1.4285714030265808e+000, 1.5238095521926880e+000,
             1.5476190447807312e+000, 1.3095238208770752e+000,
             4.7619049251079559e-001 ]
      - !!opencv-matrix
         rows: 1
         cols: 107
         dt: d
         data: [ 9.6944444179534912e+000, 9.3333334326744080e+000,
             3.5000000447034836e+000, 9.8055555224418640e+000,
             4.0833333432674408e+000, 6.7777778208255768e+000,
             6.9722222387790680e+000, 5.1388889402151108e+000,
             8.2500000000000000e+000, 1.3611111138015985e+000,
             5.7222222983837128e+000, 8.8611111044883728e+000,
             8.2777778208255768e+000, 1.3611111566424370e+000,
             2.7777777984738350e-002, 5.6111111938953400e+000,
             1.0861111104488373e+001, 7.6944444477558136e+000,
             3.3333333767950535e-001, 0., 5.3888889700174332e+000,
             9.8055554628372192e+000, 1.0444444358348846e+001,
             5.3055555373430252e+000, 2.7777778171002865e-001,
             5.8888890743255615e+000, 7.2222223281860352e+000,
             4.6388889700174332e+000, 1.0277777850627899e+001,
             2.8333333265036345e+000, 7.7222222983837128e+000,
             8.3055554628372192e+000, 1.5277778171002865e+000,
             9.5000000000000000e+000, 9.2222222685813904e+000,
             4.9000000432133675e+000, 7.1666665971279144e+000,
             8.0666665434837341e+000, 8.2333332300186157e+000,
             7.9666665792465210e+000, 7.3666667342185974e+000,
             6.8333334028720856e+000, 6.0333334803581238e+000,
             5.4000000655651093e+000, 5.2666667699813843e+000,
             5.3333334028720856e+000, 5.3333334028720856e+000,
             5.0333333909511566e+000, 4.9000000357627869e+000,
             4.8000000715255737e+000, 5.0333333909511566e+000,
             4.7000000774860382e+000, 4.6333333849906921e+000,
             4.5333333909511566e+000, 4.5333333909511566e+000,
             4.6333333849906921e+000, 4.9333333820104599e+000,
             5.3000000715255737e+000, 5.4666667580604553e+000,
             5.7000001072883606e+000, 6.0666667819023132e+000,
             6.4333334565162659e+000, 6.4333333969116211e+000,
             6.3666667640209198e+000, 6.4666667580604553e+000,
             6.4666667580604553e+000, 6.1000001728534698e+000,
             5.9333334565162659e+000, 5.9333333969116211e+000,
             6.1666666865348816e+000, 6.4333332777023315e+000,
             6.6333333849906921e+000, 7.2333334684371948e+000,
             7.8666666746139526e+000, 8.1666666269302368e+000,
             7.7333333194255829e+000, 5.9000001251697540e+000,
             1.2857143171131611e+000, 2.6190477162599564e+000,
             5.6904762387275696e+000, 9.1428571343421936e+000,
             1.0523809492588043e+001, 1.0857142806053162e+001,
             1.0880952358245850e+001, 1.0857142806053162e+001,
             1.0238095164299011e+001, 8.5000000000000000e+000,
             6.9047619700431824e+000, 5.2142858654260635e+000,
             5.0000000447034836e+000, 5.0714286565780640e+000,
             5.5000000596046448e+000, 5.6904762983322144e+000,
             6.8333333730697632e+000, 7.2380952835083008e+000,
             7.0952381789684296e+000, 7.3809524178504944e+000,
             6.8571429848670959e+000, 6.3095240294933319e+000,
             5.7380953431129456e+000, 5.0476190745830536e+000,
             4.2857143580913544e+000, 3.6666667610406876e+000,
             2.7619048058986664e+000, 2.0952381566166878e+000,
             1.6190476641058922e+000, 8.3333336189389229e-001 ]
      - !!opencv-matrix
         rows: 1
         cols: 107
         dt: d
         data: [ 2.6944444179534912e+000, 3., 3.,
             2.9444444179534912e+000, 2.2777777910232544e+000,
             2.1111111044883728e+000, 1.5555555522441864e+000, 3.,
             1.2777778208255768e+000, 2.2500000000000000e+000,
             1.3888888992369175e-001, 1.1666666865348816e+000, 3.,
             5.0000001490116119e-001, 1.6666666790843010e-001, 0.,
             1.1666666865348816e+000, 3., 5.0000001490116119e-001, 0.,
             0., 1.1666666865348816e+000, 3., 3.3333334326744080e-001,
             0., 0., 1.2777777910232544e+000, 3.,
             1.6666667163372040e-001, 0., 0., 1.6944444179534912e+000,
             3., 6.3888889551162720e-001, 0., 2.3999999761581421e+000,
             2.7333332896232605e+000, 2.8666666150093079e+000,
             2.8999999761581421e+000, 2.8999999761581421e+000,
             2.8999999761581421e+000, 2.8999999761581421e+000,
             2.4333333373069763e+000, 1.8999999761581421e+000,
             1.8999999761581421e+000, 1.6333333849906921e+000,
             1.4666666984558105e+000, 1.2000000178813934e+000,
             1.0333333611488342e+000, 9.3333336710929871e-001,
             9.3333336710929871e-001, 9.3333336710929871e-001,
             9.3333336710929871e-001, 9.3333336710929871e-001,
             9.3333336710929871e-001, 9.3333336710929871e-001,
             9.3333336710929871e-001, 9.3333336710929871e-001,
             9.3333336710929871e-001, 9.0000003576278687e-001,
             9.0000003576278687e-001, 9.0000003576278687e-001,
             9.0000003576278687e-001, 9.0000003576278687e-001,
             9.0000003576278687e-001, 8.6666670441627502e-001,
             8.6666670441627502e-001, 8.6666670441627502e-001,
             8.6666670441627502e-001, 9.0000003576278687e-001,
             9.6666669845581055e-001, 9.3333336710929871e-001,
             1.0000000298023224e+000, 1.0666666924953461e+000,
             1.1333333551883698e+000, 1.1333333551883698e+000,
             1.1333333551883698e+000, 5.4761905223131180e-001,
             8.3333337306976318e-001, 8.5714289546012878e-001,
             8.0952385067939758e-001, 6.1904762685298920e-001,
             5.7142858207225800e-001, 5.2380953729152679e-001,
             5.9523810446262360e-001, 7.3809526860713959e-001,
             1.5952380895614624e+000, 3., 3., 3., 3., 3., 3., 3., 3.,
             2.3571428656578064e+000, 8.8095241785049438e-001,
             6.4285714924335480e-001, 5.2380953729152679e-001,
             5.2380953729152679e-001, 5.2380953729152679e-001,
             5.4761905968189240e-001, 5.9523810446262360e-001,
             7.8571431338787079e-001, 8.0952385067939758e-001,
             8.0952385067939758e-001, 4.7619048506021500e-001 ]
      - !!opencv-matrix
         rows: 1
         cols: 107
         dt: d
         data: [ 6.1111113429069519e-001, 1.6666666269302368e+000,
             1.6944444179534912e+000, 1.9722222089767456e+000,
             1.7222222685813904e+000, 1., 1.0833333730697632e+000,
             1.1111111044883728e+000, 2., 1.3055555820465088e+000,
             1.3888888992369175e-001, 2.2222223132848740e-001,
             1.5833333134651184e+000, 1.8888888359069824e+000,
             3.3333333581686020e-001, 0., 1.0555555224418640e+000, 2.,
             9.1666665673255920e-001, 0., 5.2777779102325439e-001,
             1.9166666269302368e+000, 1.6111111044883728e+000,
             1.1111111193895340e-001, 5.5555555969476700e-002,
             1.5000000000000000e+000, 1.9444444179534912e+000,
             4.1666667163372040e-001, 2.2222222387790680e-001,
             1.5000000000000000e+000, 1.9166666865348816e+000, 2.,
             1.6666666865348816e+000, 1.8333333134651184e+000,
             1.5000000000000000e+000, 7.3333334922790527e-001,
             1.6333333253860474e+000, 1.6999999880790710e+000,
             1.6999999880790710e+000, 1.6999999880790710e+000,
             1.7333332896232605e+000, 1.7333333492279053e+000,
             1.6666666269302368e+000, 1.1333333253860474e+000, 1.,
             1.1666666865348816e+000, 1.1000000238418579e+000,
             9.6666669845581055e-001, 8.0000001192092896e-001,
             7.6666668057441711e-001, 8.0000001192092896e-001,
             8.3333334326744080e-001, 8.3333334326744080e-001,
             7.0000001788139343e-001, 8.0000001192092896e-001,
             8.6666667461395264e-001, 8.6666667461395264e-001,
             8.0000001192092896e-001, 7.3333334922790527e-001,
             8.3333334326744080e-001, 8.3333334326744080e-001,
             8.6666667461395264e-001, 8.3333334326744080e-001,
             8.0000001192092896e-001, 9.0000000596046448e-001,
             1.1000000238418579e+000, 1.1000000238418579e+000, 1.,
             1.0666666626930237e+000, 1.2000000476837158e+000,
             1.2333333492279053e+000, 1.5999999642372131e+000,
             1.5999999642372131e+000, 1.9333332777023315e+000,
             1.8999999761581421e+000, 1.8999999761581421e+000,
             1.7666666507720947e+000, 2.3809524625539780e-001,
             4.5238095521926880e-001, 6.6666668653488159e-001,
             1.0000000298023224e+000, 1.2142857313156128e+000,
             1.3095238208770752e+000, 1.3333333730697632e+000,
             1.4285714030265808e+000, 1.3809523582458496e+000,
             1.4047619104385376e+000, 1.4523809552192688e+000,
             1.4761904478073120e+000, 1.4047619104385376e+000,
             1.4761905074119568e+000, 1.4285714030265808e+000,
             1.4285714030265808e+000, 1.4285714626312256e+000,
             1.4761905074119568e+000, 1.3571428656578064e+000,
             1.3333333134651184e+000, 1.3095238208770752e+000,
             1.2857142686843872e+000, 1.2142857313156128e+000,
             1.1666666865348816e+000, 1.0476190447807312e+000,
             1.0714285969734192e+000, 1.1666666865348816e+000,
             1.0238095521926880e+000, 8.5714286565780640e-001,
             3.3333333581686020e-001 ]
   productsum:
      - !!opencv-matrix
         rows: 107
         cols: 107
         dt: d
         data: [ 7.5617286526126648e-002, 2.8626543439832730e-001,
             3.4027778357267380e-001, 3.3487654633728070e-001,
             2.2685185957837994e-001, 2.7006173428194025e-001,
             2.7006173428194025e-001, 3.2407408200756271e-002,
             6.4814816401512543e-002, 3.3487654633728070e-001,
             3.7268518380544791e-001, 1.0802469545124493e-001, 0., 0.,
             1.2962963570047314e-001, 3.8888889551162720e-001,
             9.7222226775354859e-002, 0., 0., 0.,
             3.7808642104084100e-001, 1.1882716122968695e-001, 0., 0.,
             5.4012347001260452e-003, 2.5385803416555319e-001,
             2.8086420875272644e-001, 4.3209877601008362e-002,
             5.9413582063567505e-002, 2.6466049704654715e-001,
             5.9413582063567505e-002, 2.5385803416555319e-001,
             3.5108025804345999e-001, 3.2407408345628674e-001,
             1.3503086714097012e-001, 1.2962963570047314e-001,
             2.3333334657881011e-001, 2.7870370922265231e-001,
             2.9814814704435832e-001, 3.1759259645585658e-001,
             2.5925925981115405e-001, 2.3981482198944803e-001,
             2.2037037257794978e-001, 1.9444444775581360e-001,
             1.8148148534474551e-001, 1.7500000413921146e-001,
             1.5555556052260933e-001, 1.4907407931707528e-001,
             1.4259259811154124e-001, 1.4259259811154124e-001,
             1.0370371087833696e-001, 9.7222226775354859e-002,
             9.7222226775354859e-002, 9.7222226775354859e-002,
             9.7222226775354859e-002, 9.7222226775354859e-002,
             9.7222226775354859e-002, 9.7222226775354859e-002,
             9.7222226775354859e-002, 9.7222226775354859e-002,
             9.7222226775354859e-002, 9.7222226775354859e-002,
             1.0370371087833696e-001, 1.0370371087833696e-001,
             1.0370370798088890e-001, 1.4259259811154124e-001,
             1.4259259811154124e-001, 1.6203704172814337e-001,
             1.9444445355070972e-001, 2.1388889716731185e-001,
             2.2685185957837994e-001, 2.8518519622308247e-001,
             3.0462963404478849e-001, 2.7222223381201438e-001,
             2.2685185957837994e-001, 1.6203704172814337e-001,
             9.7222226775354859e-002, 1.4351852399804610e-001,
             2.0833334184828267e-001, 2.5925927140094629e-001,
             2.9166667163372040e-001, 3.1018518936381767e-001,
             3.2870370709391494e-001, 3.3796296595896358e-001,
             2.7777777754125133e-001, 1.8518518889076496e-001,
             1.5277778286309474e-001, 1.3425926513299746e-001,
             1.2500000626794883e-001, 1.2962963570047314e-001,
             1.2037037683542451e-001, 1.1111111797037587e-001,
             1.0185185910532724e-001, 9.7222226775354859e-002,
             9.7222226775354859e-002, 1.0185185620787918e-001,
             1.0185185620787918e-001, 1.1111111797037587e-001,
             1.0648148853785155e-001, 1.1574074740290019e-001,
             1.3425926513299746e-001, 1.5740741229561905e-001,
             1.6666667116066769e-001, 2.0370371821065447e-001,
             1.9907408298323404e-001, 1.6203704172814337e-001,
             5.0925928103939588e-002, 2.8626543439832730e-001,
             1.0871913418357764e+000, 1.2893518413658498e+000,
             1.2700617094466722e+000, 8.6111111773384863e-001,
             1.0246913534255668e+000, 1.0270061704479616e+000,
             1.2037036905962006e-001, 2.5000000186264515e-001,
             1.2677468924242774e+000, 1.4120369961968180e+000,
             4.1358025431816969e-001, 0., 0., 4.8611111938953400e-001,
             1.4722222089767456e+000, 3.7500001117587090e-001, 0., 0.,
             0., 1.4313271281159956e+000, 4.5447530165130701e-001, 0.,
             0., 2.1604938800504181e-002, 9.5987655296001861e-001,
             1.0702160683311064e+000, 1.6358024666062843e-001,
             2.2839506451086500e-001, 1.0054012215063892e+000,
             2.2145061654809073e-001, 9.5987655296001861e-001,
             1.3302469222265998e+000, 1.2291666699780350e+000,
             5.1003086217391669e-001, 4.9351852988755240e-001,
             8.8888891836007389e-001, 1.0564814767351862e+000,
             1.1287036701484965e+000, 1.2009259099209757e+000,
             9.8425923696270701e-001, 9.0925926212911179e-001,
             8.3425924590340372e-001, 7.3611110448837280e-001,
             6.8981481271761425e-001, 6.6666666683223497e-001,
             5.9166667130258332e-001, 5.6296296754369024e-001,
             5.3981482165831096e-001, 5.3981482165831096e-001,
             3.9259260953576458e-001, 3.6944445330235709e-001,
             3.6944445330235709e-001, 3.6944445330235709e-001,
             3.6944445330235709e-001, 3.6944445330235709e-001,
             3.6944445330235709e-001, 3.6944445330235709e-001,
             3.6944445330235709e-001, 3.6944445330235709e-001,
             3.6944445330235709e-001, 3.6944445330235709e-001,
             3.9259260953576458e-001, 3.9259260953576458e-001,
             3.9537037812449327e-001, 5.4259260059506786e-001,
             5.4259260059506786e-001, 6.1759259612471951e-001,
             7.3888890660471418e-001, 8.1111112071408087e-001,
             8.6018519390512438e-001, 1.0851852011901357e+000,
             1.1518518367299322e+000, 1.0277777936723496e+000,
             8.5740741248483943e-001, 6.1481481718796260e-001,
             3.6388889418707926e-001, 5.4431217632911810e-001,
             7.8968255056275183e-001, 9.8148150190159100e-001,
             1.1031745915848106e+000, 1.1732804068812612e+000,
             1.2433862221777119e+000, 1.2804232576379064e+000,
             1.0654761680061853e+000, 7.0105819684014747e-001,
             5.8333333960128186e-001, 5.1124339649286199e-001,
             4.7619048884463666e-001, 4.9074075095079550e-001,
             4.5370371549060096e-001, 4.2063493565434484e-001,
             3.8558202800611951e-001, 3.6904762773996325e-001,
             3.6904762773996325e-001, 3.8756614547006052e-001,
             3.8756614547006052e-001, 4.2063493565434484e-001,
             4.0410054573621679e-001, 4.4113758119641133e-001,
             5.1124339649286199e-001, 5.9788360170744070e-001,
             6.3492063716763525e-001, 7.7116405601223903e-001,
             7.5462964539805455e-001, 6.1243386381359954e-001,
             1.8783068867824060e-001, 3.4027778357267380e-001,
             1.2893518413658498e+000, 1.5316358028370658e+000,
             1.5077160385287840e+000, 1.0216049555643103e+000,
             1.2160493884189627e+000, 1.2168209940930943e+000,
             1.4506172910792592e-001, 2.9320987946365351e-001,
             1.5069444328546524e+000, 1.6774691014010230e+000,
             4.8765433197956032e-001, 0., 0., 5.8179014019760089e-001,
             1.7500000000000000e+000, 4.3981482902610747e-001, 0., 0.,
             0., 1.7013888657093048e+000, 5.3626542694774670e-001, 0.,
             0., 2.4691358392621265e-002, 1.1419753314536294e+000,
             1.2662037340579211e+000, 1.9444444589316845e-001,
             2.6851852272671684e-001, 1.1921296241106809e+000,
             2.6620370673912541e-001, 1.1419753314536294e+000,
             1.5802469371277610e+000, 1.4591049555643103e+000,
             6.0725308936319244e-001, 5.8425927703027369e-001,
             1.0518518943477559e+000, 1.2546296337136518e+000,
             1.3416666388511658e+000, 1.4287036969705866e+000,
             1.1675925755942309e+000, 1.0796296433166219e+000,
             9.9166665971279144e-001, 8.7500000000000000e-001,
             8.1759259645585658e-001, 7.8888889468378487e-001,
             7.0092593674306514e-001, 6.7037038234648882e-001,
             6.4166668057441711e-001, 6.4166668057441711e-001,
             4.6666669100522995e-001, 4.3796297640160287e-001,
             4.3796297640160287e-001, 4.3796297640160287e-001,
             4.3796297640160287e-001, 4.3796297640160287e-001,
             4.3796297640160287e-001, 4.3796297640160287e-001,
             4.3796297640160287e-001, 4.3796297640160287e-001,
             4.3796297640160287e-001, 4.3796297640160287e-001,
             4.6666669100522995e-001, 4.6666669100522995e-001,
             4.6759260448592688e-001, 6.4259260688666942e-001,
             6.4259260688666942e-001, 7.3055556482738915e-001,
             8.7592595280320573e-001, 9.6296298360383048e-001,
             1.0212963142880689e+000, 1.2851852137733388e+000,
             1.3703703662863482e+000, 1.2240741049801862e+000,
             1.0203703871479739e+000, 7.2962963851513685e-001,
             4.3611112336317692e-001, 6.4616403496139263e-001,
             9.3783070990648199e-001, 1.1666667014360428e+000,
             1.3121693116174171e+000, 1.3955026399836967e+000,
             1.4788359683499763e+000, 1.5211640084704392e+000,
             1.2546296092095197e+000, 8.3333333581686020e-001,
             6.8915345101917858e-001, 6.0515874671557590e-001,
             5.6349208253243610e-001, 5.8333335071802139e-001,
             5.4100531059755852e-001, 5.0000002235174179e-001,
             4.5833335816860199e-001, 4.3783070121413825e-001,
             4.3783070121413825e-001, 4.5899472127436969e-001,
             4.5899472127436969e-001, 5.0000002235174179e-001,
             4.7949737822883343e-001, 5.2182541834929630e-001,
             6.0515874671557590e-001, 7.0899471920476387e-001,
             7.5132275932522674e-001, 9.1666671633720398e-001,
             8.9616404655118487e-001, 7.2883598739034916e-001,
             2.2751323261825496e-001, 3.3487654633728070e-001,
             1.2700617094466722e+000, 1.5077160385287840e+000,
             1.4845678798946338e+000, 1.0061728487044199e+000,
             1.1975308605182313e+000, 1.1990740718664945e+000,
             1.4197530786012424e-001, 2.9012345821585184e-001,
             1.4830246685463706e+000, 1.6512345217260318e+000,
             4.8148148948395697e-001, 0., 0., 5.7098766572681470e-001,
             1.7222222089767456e+000, 4.3518519705092462e-001, 0., 0.,
             0., 1.6743826803601820e+000, 5.2932097919193311e-001, 0.,
             0., 2.4691358392621265e-002, 1.1234568035528980e+000,
             1.2484568118313213e+000, 1.9135802464536678e-001,
             2.6543210147891516e-001, 1.1743827018840811e+000,
             2.6080246950373231e-001, 1.1234568035528980e+000,
             1.5555555671453476e+000, 1.4367284009486063e+000,
             5.9722222056653784e-001, 5.7592593939216030e-001,
             1.0370370716960338e+000, 1.2351851803285108e+000,
             1.3203703328415202e+000, 1.4055555383364364e+000,
             1.1499999748335945e+000, 1.0629629680403951e+000,
             9.7592591157665964e-001, 8.6111110448837280e-001,
             8.0555555356873398e-001, 7.7777777810891457e-001,
             6.9074074648044714e-001, 6.5925926577161853e-001,
             6.3148149031179912e-001, 6.3148149031179912e-001,
             4.5925927967936886e-001, 4.3148149180191542e-001,
             4.3148149180191542e-001, 4.3148149180191542e-001,
             4.3148149180191542e-001, 4.3148149180191542e-001,
             4.3148149180191542e-001, 4.3148149180191542e-001,
             4.3148149180191542e-001, 4.3148149180191542e-001,
             4.3148149180191542e-001, 4.3148149180191542e-001,
             4.5925927967936886e-001, 4.5925927967936886e-001,
             4.6111111988623943e-001, 6.3333334293630372e-001,
             6.3333334293630372e-001, 7.2037037456477115e-001,
             8.6296298360383084e-001, 9.4814816095210830e-001,
             1.0055555661519371e+000, 1.2666666858726074e+000,
             1.3481481331366076e+000, 1.2037037244549502e+000,
             1.0037037118717471e+000, 7.1851852194026655e-001,
             4.2777778572506353e-001, 6.3624339507370387e-001,
             9.2328043762968903e-001, 1.1481481735353114e+000,
             1.2910052799673934e+000, 1.3730158564590269e+000,
             1.4550264329506604e+000, 1.4973544730711232e+000,
             1.2394179618232464e+000, 8.2010581624255607e-001,
             6.7989418706881288e-001, 5.9656085870253328e-001,
             5.5555557045671655e-001, 5.7407408676765570e-001,
             5.3174604664719283e-001, 4.9206351027602224e-001,
             4.5105822203020551e-001, 4.3121694142698619e-001,
             4.3121694142698619e-001, 4.5238096148721763e-001,
             4.5238096148721763e-001, 4.9206351027602224e-001,
             4.7222224209043695e-001, 5.1455028221089982e-001,
             5.9656085870253328e-001, 6.9841270337975203e-001,
             7.4074074350021490e-001, 9.0211644406041103e-001,
             8.8227515103955767e-001, 7.1693121969069118e-001,
             2.2222222470574904e-001, 2.2685185957837994e-001,
             8.6111111773384863e-001, 1.0216049555643103e+000,
             1.0061728487044199e+000, 6.8209878677203406e-001,
             8.1172841088271497e-001, 8.1327162057529279e-001,
             9.5679015634052567e-002, 1.9753086714097012e-001,
             1.0046296390118421e+000, 1.1188271562626326e+000,
             3.2716050449712775e-001, 0., 0., 3.8580248937194739e-001,
             1.1666666865348816e+000, 2.9629630733419354e-001, 0., 0.,
             0., 1.1342592631225230e+000, 3.5956790141853290e-001, 0.,
             0., 1.6975308584486259e-002, 7.6080249765037067e-001,
             8.4722225368022919e-001, 1.2962963280302509e-001,
             1.8055555969476700e-001, 7.9629630402282459e-001,
             1.7592593268663803e-001, 7.6080249765037067e-001,
             1.0540123789766689e+000, 9.7376545840575446e-001,
             4.0432099740446326e-001, 3.9074075773910266e-001,
             7.0370374101179678e-001, 8.3703705381464033e-001,
             8.9444444113307497e-001, 9.5185186487656992e-001,
             7.7962963007114539e-001, 7.2037039045934392e-001,
             6.6111111773384934e-001, 5.8333334326744080e-001,
             5.4629630667191975e-001, 5.2777778837415923e-001,
             4.6851853220551121e-001, 4.4629631263238423e-001,
             4.2777779433462371e-001, 4.2777779433462371e-001,
             3.1111113263501089e-001, 2.9259260605882709e-001,
             2.9259260605882709e-001, 2.9259260605882709e-001,
             2.9259260605882709e-001, 2.9259260605882709e-001,
             2.9259260605882709e-001, 2.9259260605882709e-001,
             2.9259260605882709e-001, 2.9259260605882709e-001,
             2.9259260605882709e-001, 2.9259260605882709e-001,
             3.1111113263501089e-001, 3.1111113263501089e-001,
             3.1296297499427084e-001, 4.2962964497230693e-001,
             4.2962964497230693e-001, 4.8888890114095496e-001,
             5.8518521211765417e-001, 6.4259261599293538e-001,
             6.8148150488182324e-001, 8.5925928994461387e-001,
             9.1296297598768206e-001, 8.1481485079835991e-001,
             6.7962965258845642e-001, 4.8703705050327173e-001,
             2.8888890395561884e-001, 4.3121694722188231e-001,
             6.2566139994475023e-001, 7.7777781420283887e-001,
             8.7433863884557539e-001, 9.2989419203586721e-001,
             9.8544974522615902e-001, 1.0145502722767930e+000,
             8.4259258581217011e-001, 5.5555556667229489e-001,
             4.6164022472800426e-001, 4.0476192108222442e-001,
             3.7698414448707851e-001, 3.8888890710141943e-001,
             3.5978838005078551e-001, 3.3333335391112762e-001,
             3.0555557731598171e-001, 2.9232805596772948e-001,
             2.9232805596772948e-001, 3.0687831949304645e-001,
             3.0687831949304645e-001, 3.3333335391112762e-001,
             3.2010584084129867e-001, 3.4920636789193260e-001,
             4.0476192108222442e-001, 4.7354498734234518e-001,
             5.0264551439297911e-001, 6.1111115463196342e-001,
             5.9788362500528791e-001, 4.8544974995668611e-001,
             1.4947090796613827e-001, 2.7006173428194025e-001,
             1.0246913534255668e+000, 1.2160493884189627e+000,
             1.1975308605182313e+000, 8.1172841088271497e-001,
             9.6604939007464807e-001, 9.6759259976722589e-001,
             1.1419753318675507e-001, 2.3456790224637514e-001,
             1.1959876508256535e+000, 1.3317901021168552e+000,
             3.8888889716731168e-001, 0., 0., 4.5987656123844189e-001,
             1.3888888955116272e+000, 3.5185186123406442e-001, 0., 0.,
             0., 1.3503086300175866e+000, 4.2746913120334540e-001, 0.,
             0., 2.0061728176603344e-002, 9.0586422034251868e-001,
             1.0077160749538443e+000, 1.5432098953996176e-001,
             2.1450617541501549e-001, 9.4753086217391669e-001,
             2.0987654840688652e-001, 9.0586422034251868e-001,
             1.2546296539130033e+000, 1.1589506347606218e+000,
             4.8148148700042981e-001, 4.6481482960559717e-001,
             8.3703707169603447e-001, 9.9629630402282388e-001,
             1.0648147978164531e+000, 1.1333333346578804e+000,
             9.2777776718139648e-001, 8.5740742109440049e-001,
             7.8703703527097346e-001, 6.9444444775581360e-001,
             6.5000000463591689e-001, 6.2777778307596854e-001,
             5.5740741712075703e-001, 5.3148149428544222e-001,
             5.0925927272549387e-001, 5.0925927272549387e-001,
             3.7037039145275408e-001, 3.4814815995869797e-001,
             3.4814815995869797e-001, 3.4814815995869797e-001,
             3.4814815995869797e-001, 3.4814815995869797e-001,
             3.4814815995869797e-001, 3.4814815995869797e-001,
             3.4814815995869797e-001, 3.4814815995869797e-001,
             3.4814815995869797e-001, 3.4814815995869797e-001,
             3.7037039145275408e-001, 3.7037039145275408e-001,
             3.7222223215632955e-001, 5.1111112336317710e-001,
             5.1111112336317710e-001, 5.8148148931838861e-001,
             6.9629631991739593e-001, 7.6481483357924063e-001,
             8.1111112899250415e-001, 1.0222222467263542e+000,
             1.0870370392446169e+000, 9.7037040105572459e-001,
             8.0925927669913733e-001, 5.7962963868070538e-001,
             3.4444445785548972e-001, 5.1322752607877931e-001,
             7.4470901473489448e-001, 9.2592595793582788e-001,
             1.0410052955781346e+000, 1.1071428580889631e+000,
             1.1732804205997915e+000, 1.2076719523106938e+000,
             1.0013227322429579e+000, 6.6137566650039936e-001,
             5.4894180824516958e-001, 4.8148149527885309e-001,
             4.4841271402343885e-001, 4.6296297896791394e-001,
             4.2857144725701168e-001, 3.9682541645708547e-001,
             3.6375663520167123e-001, 3.4788360986760036e-001,
             3.4788360986760036e-001, 3.6507937572305149e-001,
             3.6507937572305149e-001, 3.9682541645708547e-001,
             3.8095240105712236e-001, 4.1534393276802462e-001,
             4.8148149527885309e-001, 5.6349207318964467e-001,
             5.9788360490054693e-001, 7.2751327040334246e-001,
             7.1164023513516383e-001, 5.7804233813411976e-001,
             1.7857143608114079e-001, 2.7006173428194025e-001,
             1.0270061704479616e+000, 1.2168209940930943e+000,
             1.1990740718664945e+000, 8.1327162057529279e-001,
             9.6759259976722589e-001, 9.7067902080806689e-001,
             1.1265432256285424e-001, 2.3765432349417681e-001,
             1.1959876508256535e+000, 1.3325617077909868e+000,
             3.9197531862207402e-001, 0., 0., 4.5679014019760089e-001,
             1.3888888955116272e+000, 3.5648149320924727e-001, 0., 0.,
             0., 1.3503086300175866e+000, 4.3055555224418640e-001, 0.,
             0., 2.0833333488553762e-002, 9.0509261466838709e-001,
             1.0123457073429485e+000, 1.5432098953996176e-001,
             2.1682099140260691e-001, 9.4984567754062610e-001,
             2.0756173241929510e-001, 9.0509261466838709e-001,
             1.2554012595871349e+000, 1.1604938444531996e+000,
             4.8070988215414090e-001, 4.6666668223010177e-001,
             8.4074077694504368e-001, 9.9722223116291886e-001,
             1.0648147978164531e+000, 1.1324074091734708e+000,
             9.2962961980590109e-001, 8.5833334657881011e-001,
             7.8703703527097346e-001, 6.9444444775581360e-001,
             6.5185185726042150e-001, 6.3055556201272545e-001,
             5.5925926974526163e-001, 5.3055556797318992e-001,
             5.0925927272549387e-001, 5.0925927272549387e-001,
             3.7037039145275408e-001, 3.4907408668487161e-001,
             3.4907408668487161e-001, 3.4907408668487161e-001,
             3.4907408668487161e-001, 3.4907408668487161e-001,
             3.4907408668487161e-001, 3.4907408668487161e-001,
             3.4907408668487161e-001, 3.4907408668487161e-001,
             3.4907408668487161e-001, 3.4907408668487161e-001,
             3.7037039145275408e-001, 3.7037039145275408e-001,
             3.7407408519475549e-001, 5.1296297598768170e-001,
             5.1296297598768170e-001, 5.8425926825514551e-001,
             6.9814817336974322e-001, 7.6574075906365024e-001,
             8.1203705613259913e-001, 1.0259259519753634e+000,
             1.0861111121045219e+000, 9.6851854843121998e-001,
             8.0833334955904235e-001, 5.8055556499295768e-001,
             3.4166667850481147e-001, 5.1388890201610238e-001,
             7.4537038984437487e-001, 9.2592595793582788e-001,
             1.0403439188129688e+000, 1.1064814813237973e+000,
             1.1726190438346258e+000, 1.2083333274201742e+000,
             1.0105819953654809e+000, 6.6137566650039936e-001,
             5.5224868793178494e-001, 4.8346562309082231e-001,
             4.5039684183540807e-001, 4.6296297896791394e-001,
             4.2724869538236554e-001, 3.9682541645708547e-001,
             3.6375663520167123e-001, 3.4854498621884478e-001,
             3.4854498621884478e-001, 3.6640212801161898e-001,
             3.6640212801161898e-001, 3.9682541645708547e-001,
             3.8161377699444543e-001, 4.1732806057999383e-001,
             4.8346562309082231e-001, 5.6481482506429082e-001,
             6.0052910864983922e-001, 7.2751327040334246e-001,
             7.1230161190032959e-001, 5.7738096219679669e-001,
             1.7526455618756476e-001, 3.2407408200756271e-002,
             1.2037036905962006e-001, 1.4506172910792592e-001,
             1.4197530786012424e-001, 9.5679015634052567e-002,
             1.1419753318675507e-001, 1.1265432256285424e-001,
             1.5432098995388291e-002, 2.4691358392621265e-002,
             1.4351851848402508e-001, 1.5895061478892591e-001,
             4.3209877601008362e-002, 0., 0., 5.8641977217278374e-002,
             1.6666666790843010e-001, 3.7037038416774193e-002, 0., 0.,
             0., 1.6203703603672759e-001, 4.7839506161341694e-002, 0.,
             0., 1.5432098995388291e-003, 1.0956790462642174e-001,
             1.1574074381065591e-001, 1.8518518794465949e-002,
             2.3148148596562723e-002, 1.1111111193895340e-001,
             2.7777778398659497e-002, 1.0956790462642174e-001,
             1.4969136097962843e-001, 1.3734568261116009e-001,
             5.8641975561593784e-002, 5.3703705869891039e-002,
             9.6296301208160573e-002, 1.1851851896003440e-001,
             1.2777777608070107e-001, 1.3703703651273691e-001,
             1.0925925852799856e-001, 1.0185185481828674e-001,
             9.4444444485836554e-002, 8.3333333954215050e-002,
             7.5925926933134047e-002, 7.2222223422593546e-002,
             6.4814816401512543e-002, 6.4814816401512543e-002,
             6.1111112890972041e-002, 6.1111112890972041e-002,
             4.4444447093539785e-002, 4.0740741927314694e-002,
             4.0740741927314694e-002, 4.0740741927314694e-002,
             4.0740741927314694e-002, 4.0740741927314694e-002,
             4.0740741927314694e-002, 4.0740741927314694e-002,
             4.0740741927314694e-002, 4.0740741927314694e-002,
             4.0740741927314694e-002, 4.0740741927314694e-002,
             4.4444447093539785e-002, 4.4444447093539785e-002,
             4.2592593682584945e-002, 5.9259261135701791e-002,
             5.9259261135701791e-002, 6.6666668156782793e-002,
             8.1481483854629388e-002, 9.0740744286665231e-002,
             9.6296297896791394e-002, 1.1851852227140358e-001,
             1.3148148290261075e-001, 1.1851852227140358e-001,
             9.8148151307746234e-002, 6.8518519912053044e-002,
             4.4444446265697490e-002, 6.0846562640219148e-002,
             8.8624342280642088e-002, 1.1111111525032258e-001,
             1.2566137738604710e-001, 1.3359788490863389e-001,
             1.4153439243122068e-001, 1.4417989493874961e-001,
             1.0978835902950435e-001, 7.9365080192921655e-002,
             6.2169313893983613e-002, 5.5555557625161289e-002,
             5.1587303863867895e-002, 5.5555557625161289e-002,
             5.2910055117632360e-002, 4.7619050102574501e-002,
             4.3650796341281106e-002, 4.1005292178067587e-002,
             4.1005292178067587e-002, 4.2328043431832052e-002,
             4.2328043431832052e-002, 4.7619050102574501e-002,
             4.4973547595045571e-002, 4.7619050102574501e-002,
             5.5555557625161289e-002, 6.6137567655277008e-002,
             6.8783070162805937e-002, 8.7301592682562212e-002,
             8.4656086863664104e-002, 7.0105821416570402e-002,
             2.5132275891130568e-002, 6.4814816401512543e-002,
             2.5000000186264515e-001, 2.9320987946365351e-001,
             2.9012345821585184e-001, 1.9753086714097012e-001,
             2.3456790224637514e-001, 2.3765432349417681e-001,
             2.4691358392621265e-002, 6.1728395981553164e-002,
             2.8703703696805016e-001, 3.2098765082565350e-001,
             9.8765435226169651e-002, 0., 0., 1.0493827606608841e-001,
             3.3333333581686020e-001, 9.2592596041935482e-002, 0., 0.,
             0., 3.2407407207345518e-001, 1.0802469069115173e-001, 0.,
             0., 6.1728395981553164e-003, 2.1604938800504181e-001,
             2.5000000848538351e-001, 3.7037037588931898e-002,
             5.5555556797318995e-002, 2.3148148099857346e-001,
             4.6296297193125446e-002, 2.1604938800504181e-001,
             3.0246914320705853e-001, 2.8086420109518517e-001,
             1.1419753318675507e-001, 1.1481481876086308e-001,
             2.0740741645848315e-001, 2.4074074474197849e-001,
             2.5555555216140213e-001, 2.7037037282630250e-001,
             2.2592592407707812e-001, 2.0740740983574479e-001,
             1.8888888897167311e-001, 1.6666666790843010e-001,
             1.5925926088734910e-001, 1.5555555737680860e-001,
             1.3703703982410609e-001, 1.2592592929248458e-001,
             1.2222222578194408e-001, 1.2222222578194408e-001,
             8.8888894187079570e-002, 8.5185189020854479e-002,
             8.5185189020854479e-002, 8.5185189020854479e-002,
             8.5185189020854479e-002, 8.5185189020854479e-002,
             8.5185189020854479e-002, 8.5185189020854479e-002,
             8.5185189020854479e-002, 8.5185189020854479e-002,
             8.5185189020854479e-002, 8.5185189020854479e-002,
             8.8888894187079570e-002, 8.8888894187079570e-002,
             9.2592596041935482e-002, 1.2592592929248458e-001,
             1.2592592929248458e-001, 1.4444444684518709e-001,
             1.7037037804170896e-001, 1.8518518877250179e-001,
             1.9629630261549247e-001, 2.5185185858496917e-001,
             2.5925925898331181e-001, 2.2962963752172616e-001,
             1.9259259579358279e-001, 1.4074074333464659e-001,
             7.7777780344088887e-002, 1.2433862778796723e-001,
             1.7989418375744393e-001, 2.2222223050064516e-001,
             2.4867724895319610e-001, 2.6455026399836967e-001,
             2.8042327904354325e-001, 2.9100528907365897e-001,
             2.5661375316441370e-001, 1.5873016038584331e-001,
             1.3756614032561187e-001, 1.1904762277290937e-001,
             1.1111111525032258e-001, 1.1111111525032258e-001,
             1.0052910522020686e-001, 9.5238100205149001e-002,
             8.7301592682562212e-002, 8.4656088519348693e-002,
             8.4656088519348693e-002, 8.9947093534406553e-002,
             8.9947093534406553e-002, 9.5238100205149001e-002,
             9.2592597697620072e-002, 1.0317460772773579e-001,
             1.1904762277290937e-001, 1.3756614032561187e-001,
             1.4814815035572759e-001, 1.7460318536512442e-001,
             1.7195767954622632e-001, 1.3756614032561187e-001,
             3.7037038416774193e-002, 3.3487654633728070e-001,
             1.2677468924242774e+000, 1.5069444328546524e+000,
             1.4830246685463706e+000, 1.0046296390118421e+000,
             1.1959876508256535e+000, 1.1959876508256535e+000,
             1.4351851848402508e-001, 2.8703703696805016e-001,
             1.4830246685463706e+000, 1.6504629160519002e+000,
             4.7839506802919463e-001, 0., 0., 5.7407408676765570e-001,
             1.7222222089767456e+000, 4.3055556507574178e-001, 0., 0.,
             0., 1.6743826803601820e+000, 5.2623455815109210e-001, 0.,
             0., 2.3919753080670847e-002, 1.1242284092270296e+000,
             1.2438271794422171e+000, 1.9135802464536678e-001,
             2.6311728549132374e-001, 1.1720678865173717e+000,
             2.6311728549132374e-001, 1.1242284092270296e+000,
             1.5547839614712160e+000, 1.4351851912560285e+000,
             5.9799382541282675e-001, 5.7407408676765570e-001,
             1.0333333664470246e+000, 1.2342592531884158e+000,
             1.3203703328415202e+000, 1.4064814638208460e+000,
             1.1481481222090899e+000, 1.0620370425559855e+000,
             9.7592591157665964e-001, 8.6111110448837280e-001,
             8.0370370094422938e-001, 7.7499999917215767e-001,
             6.8888889385594254e-001, 6.6018519208387083e-001,
             6.3148149031179912e-001, 6.3148149031179912e-001,
             4.5925927967936886e-001, 4.3055556507574178e-001,
             4.3055556507574178e-001, 4.3055556507574178e-001,
             4.3055556507574178e-001, 4.3055556507574178e-001,
             4.3055556507574178e-001, 4.3055556507574178e-001,
             4.3055556507574178e-001, 4.3055556507574178e-001,
             4.3055556507574178e-001, 4.3055556507574178e-001,
             4.5925927967936886e-001, 4.5925927967936886e-001,
             4.5925926684781349e-001, 6.3148149031179912e-001,
             6.3148149031179912e-001, 7.1759259562801425e-001,
             8.6111113015148355e-001, 9.4722223546769868e-001,
             1.0046296390118421e+000, 1.2629629806235982e+000,
             1.3490740602767026e+000, 1.2055555770794548e+000,
             1.0046296390118421e+000, 7.1759259562801425e-001,
             4.3055556507574178e-001, 6.3558201913638079e-001,
             9.2261906252020864e-001, 1.1481481735353114e+000,
             1.2916666567325592e+000, 1.3736772332241927e+000,
             1.4556878097158261e+000, 1.4966930979616428e+000,
             1.2301586987007234e+000, 8.2010581624255607e-001,
             6.7658730738219752e-001, 5.9457673089056406e-001,
             5.5357144264474734e-001, 5.7407408676765570e-001,
             5.3306879852183897e-001, 4.9206351027602224e-001,
             4.5105822203020551e-001, 4.3055556507574178e-001,
             4.3055556507574178e-001, 4.5105820919865014e-001,
             4.5105820919865014e-001, 4.9206351027602224e-001,
             4.7156086615311388e-001, 5.1256615439893061e-001,
             5.9457673089056406e-001, 6.9708995150510589e-001,
             7.3809523975092262e-001, 9.0211644406041103e-001,
             8.8161377427439191e-001, 7.1759259562801425e-001,
             2.2552910459932507e-001, 3.7268518380544791e-001,
             1.4120369961968180e+000, 1.6774691014010230e+000,
             1.6512345217260318e+000, 1.1188271562626326e+000,
             1.3317901021168552e+000, 1.3325617077909868e+000,
             1.5895061478892591e-001, 3.2098765082565350e-001,
             1.6504629160519002e+000, 1.8371912822311316e+000,
             5.3395061820377521e-001, 0., 0., 6.3734568416336401e-001,
             1.9166666269302368e+000, 4.8148148700042981e-001, 0., 0.,
             0., 1.8634258619061228e+000, 5.8719134018009100e-001, 0.,
             0., 2.7006172672787931e-002, 1.2507716040184462e+000,
             1.3865740784892324e+000, 2.1296296013450178e-001,
             2.9398147996377055e-001, 1.3055555224418640e+000,
             2.9166666397617913e-001, 1.2507716040184462e+000,
             1.7307098664251370e+000, 1.5979938129951918e+000,
             6.6512344621213870e-001, 6.3981482099603681e-001,
             1.1518518744795401e+000, 1.3740740500114583e+000,
             1.4694443835152526e+000, 1.5648147749680064e+000,
             1.2787036585587046e+000, 1.1824073979148153e+000,
             1.0861110809776520e+000, 9.5833331346511841e-001,
             8.9537035602110393e-001, 8.6388887729909669e-001,
             7.6759258850857037e-001, 7.3425925716205853e-001,
             7.0277777844005129e-001, 7.0277777844005129e-001,
             5.1111112717125096e-001, 4.7962963437592521e-001,
             4.7962963437592521e-001, 4.7962963437592521e-001,
             4.7962963437592521e-001, 4.7962963437592521e-001,
             4.7962963437592521e-001, 4.7962963437592521e-001,
             4.7962963437592521e-001, 4.7962963437592521e-001,
             4.7962963437592521e-001, 4.7962963437592521e-001,
             5.1111112717125096e-001, 5.1111112717125096e-001,
             5.1203703941018475e-001, 7.0370370475230359e-001,
             7.0370370475230359e-001, 7.9999999354282991e-001,
             9.5925926875185041e-001, 1.0546296304022817e+000,
             1.1185185149863912e+000, 1.4074074095046072e+000,
             1.5009258903838969e+000, 1.3407407468115835e+000,
             1.1175925878462962e+000, 7.9907406723057761e-001,
             4.7777778133749926e-001, 7.0767195810558903e-001,
             1.0271164050335599e+000, 1.2777777893675690e+000,
             1.4371692818150947e+000, 1.5284391157526187e+000,
             1.6197089496901427e+000, 1.6660052425962277e+000,
             1.3736771977452378e+000, 9.1269839649635642e-001,
             7.5462962694899716e-001, 6.6269841707415011e-001,
             6.1706350010538813e-001, 6.3888889468378451e-001,
             5.9259260177769946e-001, 5.4761906074626054e-001,
             5.0198414377749856e-001, 4.7949735918846059e-001,
             4.7949735918846059e-001, 5.0264550564150312e-001,
             5.0264550564150312e-001, 5.4761906074626054e-001,
             5.2513229023054109e-001, 5.7142858313662614e-001,
             6.6269841707415011e-001, 7.7645502152739354e-001,
             8.2275131443347860e-001, 1.0039682875549971e+000,
             9.8148148889264064e-001, 7.9828041610578993e-001,
             2.4933862480182167e-001, 1.0802469545124493e-001,
             4.1358025431816969e-001, 4.8765433197956032e-001,
             4.8148148948395697e-001, 3.2716050449712775e-001,
             3.8888889716731168e-001, 3.9197531862207402e-001,
             4.3209877601008362e-002, 9.8765435226169651e-002,
             4.7839506802919463e-001, 5.3395061820377521e-001,
             1.6049383451909205e-001, 0., 0., 1.7901235496924262e-001,
             5.5555556714534760e-001, 1.4814815615062371e-001, 0., 0.,
             0., 5.4012346069937855e-001, 1.7592592771958415e-001, 0.,
             0., 9.2592596041935482e-003, 3.6111112518443012e-001,
             4.1049384652280541e-001, 6.1728396809395458e-002,
             8.9506176242857838e-002, 3.8271605467170833e-001,
             8.0246916017782555e-002, 3.6111112518443012e-001,
             5.0308643842552936e-001, 4.6604939628346465e-001,
             1.9135803044026289e-001, 1.8888889832629108e-001,
             3.4074076105047180e-001, 4.0000001109308680e-001,
             4.2592592598111523e-001, 4.5185186073735917e-001,
             3.7407407633684286e-001, 3.4444445437855187e-001,
             3.1481481917478416e-001, 2.7777778357267380e-001,
             2.6296296953051179e-001, 2.5555556250943079e-001,
             2.2592593392840143e-001, 2.1111111938953409e-001,
             2.0370371236845308e-001, 2.0370371236845308e-001,
             1.4814815896528755e-001, 1.4074074863283736e-001,
             1.4074074863283736e-001, 1.4074074863283736e-001,
             1.4074074863283736e-001, 1.4074074863283736e-001,
             1.4074074863283736e-001, 1.4074074863283736e-001,
             1.4074074863283736e-001, 1.4074074863283736e-001,
             1.4074074863283736e-001, 1.4074074863283736e-001,
             1.4814815896528755e-001, 1.4814815896528755e-001,
             1.5185185941281154e-001, 2.0740741612734626e-001,
             2.0740741612734626e-001, 2.3703704470837561e-001,
             2.8148149726567473e-001, 3.0740741877644151e-001,
             3.2592593988886609e-001, 4.1481483225469251e-001,
             4.3333333962493459e-001, 3.8518520317695781e-001,
             3.2222223281860352e-001, 2.3333334094948244e-001,
             1.3333333945936632e-001, 2.0634921498241887e-001,
             2.9894181061043312e-001, 3.7037038913479581e-001,
             4.1534392236086415e-001, 4.4179894779094298e-001,
             4.6825397322102180e-001, 4.8412698862098491e-001,
             4.1534391680249438e-001, 2.6455027085763438e-001,
             2.2486773306730568e-001, 1.9576720495230315e-001,
             1.8253969223726374e-001, 1.8518519456739790e-001,
             1.6931217916743480e-001, 1.5873016913731908e-001,
             1.4550265642227966e-001, 1.4021164809585263e-001,
             1.4021164809585263e-001, 1.4814815579583418e-001,
             1.4814815579583418e-001, 1.5873016913731908e-001,
             1.5343916412226122e-001, 1.6931217952222433e-001,
             1.9576720495230315e-001, 2.2751323539743984e-001,
             2.4338625079740295e-001, 2.9100531284455933e-001,
             2.8571430120676311e-001, 2.3015873772757400e-001,
             6.6137569015303654e-002, 0., 0., 0., 0., 0., 0., 0., 0., 0.,
             0., 0., 0., 0., 0., 0., 0., 0., 0., 0., 0., 0., 0., 0., 0.,
             0., 0., 0., 0., 0., 0., 0., 0., 0., 0., 0., 0., 0., 0., 0.,
             0., 0., 0., 0., 0., 0., 0., 0., 0., 0., 0., 0., 0., 0., 0.,
             0., 0., 0., 0., 0., 0., 0., 0., 0., 0., 0., 0., 0., 0., 0.,
             0., 0., 0., 0., 0., 0., 0., 0., 0., 0., 0., 0., 0., 0., 0.,
             0., 0., 0., 0., 0., 0., 0., 0., 0., 0., 0., 0., 0., 0., 0.,
             0., 0., 0., 0., 0., 0., 0., 0., 0., 0., 0., 0., 0., 0., 0.,
             0., 0., 0., 0., 0., 0., 0., 0., 0., 0., 0., 0., 0., 0., 0.,
             0., 0., 0., 0., 0., 0., 0., 0., 0., 0., 0., 0., 0., 0., 0.,
             0., 0., 0., 0., 0., 0., 0., 0., 0., 0., 0., 0., 0., 0., 0.,
             0., 0., 0., 0., 0., 0., 0., 0., 0., 0., 0., 0., 0., 0., 0.,
             0., 0., 0., 0., 0., 0., 0., 0., 0., 0., 0., 0., 0., 0., 0.,
             0., 0., 0., 0., 0., 0., 0., 0., 0., 0., 0., 0., 0., 0., 0.,
             0., 0., 0., 0., 0., 0., 0., 0., 0., 0.,
             1.2962963570047314e-001, 4.8611111938953400e-001,
             5.8179014019760089e-001, 5.7098766572681470e-001,
             3.8580248937194739e-001, 4.5987656123844189e-001,
             4.5679014019760089e-001, 5.8641977217278374e-002,
             1.0493827606608841e-001, 5.7407408676765570e-001,
             6.3734568416336401e-001, 1.7901235496924262e-001, 0., 0.,
             2.2839507423801209e-001, 6.6666668653488159e-001,
             1.5740741761746246e-001, 0., 0., 0.,
             6.4814815863415021e-001, 1.9753086879665460e-001, 0., 0.,
             7.7160498081350060e-003, 4.3672841750545288e-001,
             4.7222224705749127e-001, 7.4074076833548386e-002,
             9.7222226775354859e-002, 4.4907408676765570e-001,
             1.0648148575866667e-001, 4.3672841750545288e-001,
             6.0030866809833228e-001, 5.5246916100566779e-001,
             2.3302469834869299e-001, 2.1851853220551121e-001,
             3.9259262129112571e-001, 4.7592594005443445e-001,
             5.1111111574702761e-001, 5.4629630799646733e-001,
             4.4074074780499473e-001, 4.0925927868595835e-001,
             3.7777778638733750e-001, 3.3333334326744080e-001,
             3.0740741844530461e-001, 2.9444445603423652e-001,
             2.6296297532540791e-001, 2.5740741943871548e-001,
             2.4444445702764739e-001, 2.4444445702764739e-001,
             1.7777779234780233e-001, 1.6481482414183812e-001,
             1.6481482414183812e-001, 1.6481482414183812e-001,
             1.6481482414183812e-001, 1.6481482414183812e-001,
             1.6481482414183812e-001, 1.6481482414183812e-001,
             1.6481482414183812e-001, 1.6481482414183812e-001,
             1.6481482414183812e-001, 1.6481482414183812e-001,
             1.7777779234780233e-001, 1.7777779234780233e-001,
             1.7407408329071838e-001, 2.4074075376545956e-001,
             2.4074075376545956e-001, 2.7222223447428817e-001,
             3.2962964828367625e-001, 3.6481483556606165e-001,
             3.8703705381464104e-001, 4.8148150753091912e-001,
             5.2407408974788794e-001, 4.7037039575753425e-001,
             3.9074076038819783e-001, 2.7592593773647600e-001,
             1.7222223232189826e-001, 2.4470900740257662e-001,
             3.5582012679211061e-001, 4.4444447093539807e-001,
             5.0132276772191275e-001, 5.3306879852183897e-001,
             5.6481482932176519e-001, 5.7804234239159413e-001,
             4.5767196555616962e-001, 3.1746032786747769e-001,
             2.5529101814227140e-001, 2.2619048967247934e-001,
             2.1031747427251624e-001, 2.2222223546769904e-001,
             2.0899472239787009e-001, 1.9047620466777282e-001,
             1.7460318926780971e-001, 1.6534392460786496e-001,
             1.6534392460786496e-001, 1.7195768114277943e-001,
             1.7195768114277943e-001, 1.9047620466777282e-001,
             1.8121694580272418e-001, 1.9444445887255313e-001,
             2.2619048967247934e-001, 2.6719577933745420e-001,
             2.8042329240728314e-001, 3.4920637853561942e-001,
             3.3994710808077855e-001, 2.7910054053263700e-001,
             9.3915348389634445e-002, 3.8888889551162720e-001,
             1.4722222089767456e+000, 1.7500000000000000e+000,
             1.7222222089767456e+000, 1.1666666865348816e+000,
             1.3888888955116272e+000, 1.3888888955116272e+000,
             1.6666666790843010e-001, 3.3333333581686020e-001,
             1.7222222089767456e+000, 1.9166666269302368e+000,
             5.5555556714534760e-001, 0., 0., 6.6666668653488159e-001,
             2., 5.0000001490116119e-001, 0., 0., 0.,
             1.9444444179534912e+000, 6.1111110448837280e-001, 0., 0.,
             2.7777777984738350e-002, 1.3055555820465088e+000,
             1.4444444775581360e+000, 2.2222222387790680e-001,
             3.0555555969476700e-001, 1.3611111044883728e+000,
             3.0555555969476700e-001, 1.3055555820465088e+000,
             1.8055555820465088e+000, 1.6666666865348816e+000,
             6.9444444775581360e-001, 6.6666668653488159e-001,
             1.2000000476837158e+000, 1.4333333373069763e+000,
             1.5333333015441895e+000, 1.6333333253860474e+000,
             1.3333333134651184e+000, 1.2333333492279053e+000,
             1.1333333253860474e+000, 1., 9.3333333730697632e-001,
             9.0000000596046448e-001, 8.0000001192092896e-001,
             7.6666668057441711e-001, 7.3333334922790527e-001,
             7.3333334922790527e-001, 5.3333336114883423e-001,
             5.0000001490116119e-001, 5.0000001490116119e-001,
             5.0000001490116119e-001, 5.0000001490116119e-001,
             5.0000001490116119e-001, 5.0000001490116119e-001,
             5.0000001490116119e-001, 5.0000001490116119e-001,
             5.0000001490116119e-001, 5.0000001490116119e-001,
             5.0000001490116119e-001, 5.3333336114883423e-001,
             5.3333336114883423e-001, 5.3333334624767303e-001,
             7.3333334922790527e-001, 7.3333334922790527e-001,
             8.3333334326744080e-001, 1.0000000298023224e+000,
             1.1000000238418579e+000, 1.1666666865348816e+000,
             1.4666666984558105e+000, 1.5666666626930237e+000,
             1.4000000357627869e+000, 1.1666666865348816e+000,
             8.3333334326744080e-001, 5.0000001490116119e-001,
             7.3809525370597839e-001, 1.0714285969734192e+000,
             1.3333333730697632e+000, 1.5000000000000000e+000,
             1.5952380895614624e+000, 1.6904761791229248e+000,
             1.7380952239036560e+000, 1.4285714030265808e+000,
             9.5238095521926880e-001, 7.8571429848670959e-001,
             6.9047620892524719e-001, 6.4285716414451599e-001,
             6.6666668653488159e-001, 6.1904764175415039e-001,
             5.7142859697341919e-001, 5.2380955219268799e-001,
             5.0000001490116119e-001, 5.0000001490116119e-001,
             5.2380953729152679e-001, 5.2380953729152679e-001,
             5.7142859697341919e-001, 5.4761907458305359e-001,
             5.9523811936378479e-001, 6.9047620892524719e-001,
             8.0952382087707520e-001, 8.5714286565780640e-001,
             1.0476191043853760e+000, 1.0238095521926880e+000,
             8.3333334326744080e-001, 2.6190476864576340e-001,
             9.7222226775354859e-002, 3.7500001117587090e-001,
             4.3981482902610747e-001, 4.3518519705092462e-001,
             2.9629630733419354e-001, 3.5185186123406442e-001,
             3.5648149320924727e-001, 3.7037038416774193e-002,
             9.2592596041935482e-002, 4.3055556507574178e-001,
             4.8148148700042981e-001, 1.4814815615062371e-001, 0., 0.,
             1.5740741761746246e-001, 5.0000001490116119e-001,
             1.3888889716731190e-001, 0., 0., 0.,
             4.8611111897561265e-001, 1.6203703965853755e-001, 0., 0.,
             9.2592596041935482e-003, 3.2407408925118286e-001,
             3.7500002110997865e-001, 5.5555557625161289e-002,
             8.3333337058623669e-002, 3.4722222925888158e-001,
             6.9444447341892479e-002, 3.2407408925118286e-001,
             4.5370372495165601e-001, 4.2129631105948384e-001,
             1.7129630360890324e-001, 1.7222223199076137e-001,
             3.1111113164160020e-001, 3.6111112518443012e-001,
             3.8333333681027071e-001, 4.0555556830432682e-001,
             3.3888889369037400e-001, 3.1111112170749244e-001,
             2.8333333979050312e-001, 2.5000000745058060e-001,
             2.3888889667060642e-001, 2.3333334128061933e-001,
             2.0555556433068389e-001, 1.8888889816072263e-001,
             1.8333334277073554e-001, 1.8333334277073554e-001,
             1.3333334426085175e-001, 1.2777778638733772e-001,
             1.2777778638733772e-001, 1.2777778638733772e-001,
             1.2777778638733772e-001, 1.2777778638733772e-001,
             1.2777778638733772e-001, 1.2777778638733772e-001,
             1.2777778638733772e-001, 1.2777778638733772e-001,
             1.2777778638733772e-001, 1.2777778638733772e-001,
             1.3333334426085175e-001, 1.3333334426085175e-001,
             1.3888889716731190e-001, 1.8888889816072263e-001,
             1.8888889816072263e-001, 2.1666667511065807e-001,
             2.5555557277467544e-001, 2.7777778936756992e-001,
             2.9444446050458506e-001, 3.7777779632144526e-001,
             3.8888889716731168e-001, 3.4444446398152273e-001,
             2.8888890014754409e-001, 2.1111111972067098e-001,
             1.1666667312383661e-001, 1.8650794585072816e-001,
             2.6984128166758836e-001, 3.3333335320154855e-001,
             3.7301588176734857e-001, 3.9682540486729323e-001,
             4.2063492796723789e-001, 4.3650794336720100e-001,
             3.8492063835026702e-001, 2.3809524590060827e-001,
             2.0634921510068205e-001, 1.7857143815074661e-001,
             1.6666667660077428e-001, 1.6666667660077428e-001,
             1.5079366120081117e-001, 1.4285715350082961e-001,
             1.3095239195085728e-001, 1.2698413561733957e-001,
             1.2698413561733957e-001, 1.3492064331732112e-001,
             1.3492064331732112e-001, 1.4285715350082961e-001,
             1.3888889965083884e-001, 1.5476191505080195e-001,
             1.7857143815074661e-001, 2.0634921510068205e-001,
             2.2222223050064516e-001, 2.6190478390171457e-001,
             2.5793652508466991e-001, 2.0634921510068205e-001,
             5.5555558866924759e-002, 0., 0., 0., 0., 0., 0., 0., 0., 0.,
             0., 0., 0., 0., 0., 0., 0., 0., 0., 0., 0., 0., 0., 0., 0.,
             0., 0., 0., 0., 0., 0., 0., 0., 0., 0., 0., 0., 0., 0., 0.,
             0., 0., 0., 0., 0., 0., 0., 0., 0., 0., 0., 0., 0., 0., 0.,
             0., 0., 0., 0., 0., 0., 0., 0., 0., 0., 0., 0., 0., 0., 0.,
             0., 0., 0., 0., 0., 0., 0., 0., 0., 0., 0., 0., 0., 0., 0.,
             0., 0., 0., 0., 0., 0., 0., 0., 0., 0., 0., 0., 0., 0., 0.,
             0., 0., 0., 0., 0., 0., 0., 0., 0., 0., 0., 0., 0., 0., 0.,
             0., 0., 0., 0., 0., 0., 0., 0., 0., 0., 0., 0., 0., 0., 0.,
             0., 0., 0., 0., 0., 0., 0., 0., 0., 0., 0., 0., 0., 0., 0.,
             0., 0., 0., 0., 0., 0., 0., 0., 0., 0., 0., 0., 0., 0., 0.,
             0., 0., 0., 0., 0., 0., 0., 0., 0., 0., 0., 0., 0., 0., 0.,
             0., 0., 0., 0., 0., 0., 0., 0., 0., 0., 0., 0., 0., 0., 0.,
             0., 0., 0., 0., 0., 0., 0., 0., 0., 0., 0., 0., 0., 0., 0.,
             0., 0., 0., 0., 0., 0., 0., 0., 0., 0., 0., 0., 0., 0., 0.,
             0., 0., 0., 0., 0., 0., 0., 0., 0., 0., 0., 0., 0., 0., 0.,
             0., 0., 0., 0., 0., 0., 0., 0., 0., 0., 0., 0., 0., 0., 0.,
             0., 0., 0., 0., 0., 0., 0., 0., 0., 0., 0., 0., 0., 0., 0.,
             0., 0., 0., 0., 0., 0., 0., 0., 0., 0., 0., 0., 0., 0., 0.,
             0., 0., 0., 0., 0., 0., 0., 0., 0., 0., 0., 0., 0., 0., 0.,
             0., 0., 0., 0., 0., 0., 0., 0., 0., 0., 0., 0., 0., 0., 0.,
             0., 0., 0., 0., 0., 0., 0., 0., 0., 0., 0., 0.,
             3.7808642104084100e-001, 1.4313271281159956e+000,
             1.7013888657093048e+000, 1.6743826803601820e+000,
             1.1342592631225230e+000, 1.3503086300175866e+000,
             1.3503086300175866e+000, 1.6203703603672759e-001,
             3.2407407207345518e-001, 1.6743826803601820e+000,
             1.8634258619061228e+000, 5.4012346069937855e-001, 0., 0.,
             6.4814815863415021e-001, 1.9444444179534912e+000,
             4.8611111897561265e-001, 0., 0., 0.,
             1.8904320472552456e+000, 5.9413578793590460e-001, 0., 0.,
             2.7006172672787931e-002, 1.2692901319191776e+000,
             1.4043210007158322e+000, 2.1604938138230345e-001,
             2.9706790121157223e-001, 1.3233024446684638e+000,
             2.9706790121157223e-001, 1.2692901319191776e+000,
             1.7554012364075504e+000, 1.6203703676108958e+000,
             6.7515431500879330e-001, 6.4814815863415021e-001,
             1.1666666971312623e+000, 1.3935185033965993e+000,
             1.4907406895248982e+000, 1.5879629336021566e+000,
             1.2962962593193410e+000, 1.1990740731910421e+000,
             1.1018518291137838e+000, 9.7222220897674561e-001,
             9.0740739890822653e-001, 8.7499999387396699e-001,
             7.7777777877118837e-001, 7.4537037373692883e-001,
             7.1296296870266929e-001, 7.1296296870266929e-001,
             5.1851853849711205e-001, 4.8611111897561265e-001,
             4.8611111897561265e-001, 4.8611111897561265e-001,
             4.8611111897561265e-001, 4.8611111897561265e-001,
             4.8611111897561265e-001, 4.8611111897561265e-001,
             4.8611111897561265e-001, 4.8611111897561265e-001,
             4.8611111897561265e-001, 4.8611111897561265e-001,
             5.1851853849711205e-001, 5.1851853849711205e-001,
             5.1851852400987219e-001, 7.1296296870266929e-001,
             7.1296296870266929e-001, 8.1018518380544791e-001,
             9.7222223795122531e-001, 1.0694444530540039e+000,
             1.1342592631225230e+000, 1.4259259374053386e+000,
             1.5231481235336375e+000, 1.3611111273368195e+000,
             1.1342592631225230e+000, 8.1018518380544791e-001,
             4.8611111897561265e-001, 7.1759259799327779e-001,
             1.0416666773103529e+000, 1.2962963172683004e+000,
             1.4583333134651184e+000, 1.5509258992772885e+000,
             1.6435184850894586e+000, 1.6898147779955437e+000,
             1.3888888451315111e+000, 9.2592591607066055e-001,
             7.6388889089936285e-001, 6.7129630508719274e-001,
             6.2500001218110768e-001, 6.4814815863415021e-001,
             6.0185186572806515e-001, 5.5555557282198009e-001,
             5.0925927991589504e-001, 4.8611111897561265e-001,
             4.8611111897561265e-001, 5.0925926542865518e-001,
             5.0925926542865518e-001, 5.5555557282198009e-001,
             5.3240742636893756e-001, 5.7870371927502262e-001,
             6.7129630508719274e-001, 7.8703703735240538e-001,
             8.3333333025849043e-001, 1.0185185598317901e+000,
             9.9537038440426784e-001, 8.1018518380544791e-001,
             2.5462963271432759e-001, 1.1882716122968695e-001,
             4.5447530165130701e-001, 5.3626542694774670e-001,
             5.2932097919193311e-001, 3.5956790141853290e-001,
             4.2746913120334540e-001, 4.3055555224418640e-001,
             4.7839506161341694e-002, 1.0802469069115173e-001,
             5.2623455815109210e-001, 5.8719134018009100e-001,
             1.7592592771958415e-001, 0., 0., 1.9753086879665460e-001,
             6.1111110448837280e-001, 1.6203703965853755e-001, 0., 0.,
             0., 5.9413578793590460e-001, 1.9290122978481250e-001, 0.,
             0., 1.0030864088301672e-002, 3.9737654633728070e-001,
             4.5061728983749560e-001, 6.7901234337945038e-002,
             9.7993827275471901e-002, 4.2052468344753180e-001,
             8.8734568292160088e-002, 3.9737654633728070e-001,
             5.5324074350021490e-001, 5.1234567754062610e-001,
             2.1064814787220065e-001, 2.0740741082915548e-001,
             3.7407408378742346e-001, 4.3981481271761425e-001,
             4.6851850372773640e-001, 4.9722221626175767e-001,
             4.1111110018359298e-001, 3.7870370259991404e-001,
             3.4629629011507390e-001, 3.0555555224418640e-001,
             2.8888888657093048e-001, 2.8055555373430252e-001,
             2.4814814870004298e-001, 2.3240740933903936e-001,
             2.2407407650241140e-001, 2.2407407650241140e-001,
             1.6296296969608015e-001, 1.5462963313416189e-001,
             1.5462963313416189e-001, 1.5462963313416189e-001,
             1.5462963313416189e-001, 1.5462963313416189e-001,
             1.5462963313416189e-001, 1.5462963313416189e-001,
             1.5462963313416189e-001, 1.5462963313416189e-001,
             1.5462963313416189e-001, 1.5462963313416189e-001,
             1.6296296969608015e-001, 1.6296296969608015e-001,
             1.6666666923297768e-001, 2.2777777976459923e-001,
             2.2777777976459923e-001, 2.6018518479885877e-001,
             3.0925926626832378e-001, 3.3796296472902654e-001,
             3.5833333697583925e-001, 4.5555555952919846e-001,
             4.7685184401494496e-001, 4.2407408080719122e-001,
             3.5462963040228246e-001, 2.5648148153667094e-001,
             1.4722222495410175e-001, 2.2685185402001018e-001,
             3.2870370614780953e-001, 4.0740741513393530e-001,
             4.5701057554552804e-001, 4.8611110259616197e-001,
             5.1521162964679590e-001, 5.3240739550224703e-001,
             4.5502644028297823e-001, 2.9100528871886944e-001,
             2.4669312220559547e-001, 2.1494709282482738e-001,
             2.0039682929951042e-001, 2.0370370756696765e-001,
             1.8650794171151652e-001, 1.7460318051633372e-001,
             1.6005291699101676e-001, 1.5410053266813506e-001,
             1.5410053266813506e-001, 1.6269841559586062e-001,
             1.6269841559586062e-001, 1.7460318051633372e-001,
             1.6865079991874232e-001, 1.8584656577419345e-001,
             2.1494709282482738e-001, 2.5000000047305271e-001,
             2.6719576632850384e-001, 3.2010583398203352e-001,
             3.1415344593386152e-001, 2.5330687874050994e-001,
             7.3412699979685581e-002, 0., 0., 0., 0., 0., 0., 0., 0., 0.,
             0., 0., 0., 0., 0., 0., 0., 0., 0., 0., 0., 0., 0., 0., 0.,
             0., 0., 0., 0., 0., 0., 0., 0., 0., 0., 0., 0., 0., 0., 0.,
             0., 0., 0., 0., 0., 0., 0., 0., 0., 0., 0., 0., 0., 0., 0.,
             0., 0., 0., 0., 0., 0., 0., 0., 0., 0., 0., 0., 0., 0., 0.,
             0., 0., 0., 0., 0., 0., 0., 0., 0., 0., 0., 0., 0., 0., 0.,
             0., 0., 0., 0., 0., 0., 0., 0., 0., 0., 0., 0., 0., 0., 0.,
             0., 0., 0., 0., 0., 0., 0., 0., 0., 0., 0., 0., 0., 0., 0.,
             0., 0., 0., 0., 0., 0., 0., 0., 0., 0., 0., 0., 0., 0., 0.,
             0., 0., 0., 0., 0., 0., 0., 0., 0., 0., 0., 0., 0., 0., 0.,
             0., 0., 0., 0., 0., 0., 0., 0., 0., 0., 0., 0., 0., 0., 0.,
             0., 0., 0., 0., 0., 0., 0., 0., 0., 0., 0., 0., 0., 0., 0.,
             0., 0., 0., 0., 0., 0., 0., 0., 0., 0., 0., 0., 0., 0., 0.,
             0., 0., 0., 0., 0., 0., 0., 0., 0., 0., 0., 0., 0., 0., 0.,
             0., 0., 0., 0., 0., 0., 0., 0., 0., 0.,
             5.4012347001260452e-003, 2.1604938800504181e-002,
             2.4691358392621265e-002, 2.4691358392621265e-002,
             1.6975308584486259e-002, 2.0061728176603344e-002,
             2.0833333488553762e-002, 1.5432098995388291e-003,
             6.1728395981553164e-003, 2.3919753080670847e-002,
             2.7006172672787931e-002, 9.2592596041935482e-003, 0., 0.,
             7.7160498081350060e-003, 2.7777777984738350e-002,
             9.2592596041935482e-003, 0., 0., 0.,
             2.7006172672787931e-002, 1.0030864088301672e-002, 0., 0.,
             7.7160494976941454e-004, 1.7746913896436678e-002,
             2.2376544112454599e-002, 3.0864197990776582e-003,
             5.4012347001260452e-003, 2.0061728176603344e-002,
             3.0864197990776582e-003, 1.7746913896436678e-002,
             2.5462963704571684e-002, 2.3919753080670847e-002,
             9.2592596041935482e-003, 1.0185185481828674e-002,
             1.8518519208387096e-002, 2.0370370963657347e-002,
             2.1296296013450178e-002, 2.2222222718927598e-002,
             1.9444444258179927e-002, 1.7592592502909676e-002,
             1.5740740747639426e-002, 1.3888888992369175e-002,
             1.3888888992369175e-002, 1.3888888992369175e-002,
             1.2037037237098924e-002, 1.0185185481828674e-002,
             1.0185185481828674e-002, 1.0185185481828674e-002,
             7.4074078489232975e-003, 7.4074078489232975e-003,
             7.4074078489232975e-003, 7.4074078489232975e-003,
             7.4074078489232975e-003, 7.4074078489232975e-003,
             7.4074078489232975e-003, 7.4074078489232975e-003,
             7.4074078489232975e-003, 7.4074078489232975e-003,
             7.4074078489232975e-003, 7.4074078489232975e-003,
             7.4074078489232975e-003, 7.4074078489232975e-003,
             8.3333337265584229e-003, 1.1111111359463799e-002,
             1.1111111359463799e-002, 1.2962963114734050e-002,
             1.4814815697846595e-002, 1.5740740747639426e-002,
             1.6666667453116846e-002, 2.2222222718927598e-002,
             2.1296296013450178e-002, 1.8518519208387096e-002,
             1.5740740747639426e-002, 1.2037037237098924e-002,
             5.5555556797318995e-003, 1.0582010857958013e-002,
             1.5211640246133640e-002, 1.8518519208387096e-002,
             2.0502645261191499e-002, 2.1825396514955964e-002,
             2.3148147768720428e-002, 2.4470899022484893e-002,
             2.4470899022484893e-002, 1.3227513365486943e-002,
             1.2566137738604710e-002, 1.0582010857958013e-002,
             9.9206352310757806e-003, 9.2592596041935482e-003,
             7.9365083504290834e-003, 7.9365083504290834e-003,
             7.2751327235468510e-003, 7.2751327235468510e-003,
             7.2751327235468510e-003, 7.9365083504290834e-003,
             7.9365083504290834e-003, 7.9365083504290834e-003,
             7.9365083504290834e-003, 9.2592596041935482e-003,
             1.0582010857958013e-002, 1.1904762111722478e-002,
             1.3227513365486943e-002, 1.4550265447093702e-002,
             1.4550265447093702e-002, 1.1243386484840245e-002,
             1.9841270876072709e-003, 2.5385803416555319e-001,
             9.5987655296001861e-001, 1.1419753314536294e+000,
             1.1234568035528980e+000, 7.6080249765037067e-001,
             9.0586422034251868e-001, 9.0509261466838709e-001,
             1.0956790462642174e-001, 2.1604938800504181e-001,
             1.1242284092270296e+000, 1.2507716040184462e+000,
             3.6111112518443012e-001, 0., 0., 4.3672841750545288e-001,
             1.3055555820465088e+000, 3.2407408925118286e-001, 0., 0.,
             0., 1.2692901319191776e+000, 3.9737654633728070e-001, 0.,
             0., 1.7746913896436678e-002, 8.5262349174346497e-001,
             9.4058645912158667e-001, 1.4506173241929510e-001,
             1.9830247529862843e-001, 8.8734569244178729e-001,
             2.0061729128621986e-001, 8.5262349174346497e-001,
             1.1782407815809606e+000, 1.0871913931619979e+000,
             4.5370371501754825e-001, 4.3425928067278008e-001,
             7.8148152773027135e-001, 9.3518520615718970e-001,
             1.0009259254844096e+000, 1.0666666828923752e+000,
             8.6944444874922411e-001, 8.0462965656209917e-001,
             7.3981482463854320e-001, 6.5277779102325439e-001,
             6.0833334790335769e-001, 5.8611112634340934e-001,
             5.2129631428806888e-001, 5.0092594535262513e-001,
             4.7870372379267678e-001, 4.7870372379267678e-001,
             3.4814817336974357e-001, 3.2592594187568746e-001,
             3.2592594187568746e-001, 3.2592594187568746e-001,
             3.2592594187568746e-001, 3.2592594187568746e-001,
             3.2592594187568746e-001, 3.2592594187568746e-001,
             3.2592594187568746e-001, 3.2592594187568746e-001,
             3.2592594187568746e-001, 3.2592594187568746e-001,
             3.4814817336974357e-001, 3.4814817336974357e-001,
             3.4722223712338351e-001, 4.7777779748042448e-001,
             4.7777779748042448e-001, 5.4259260953576494e-001,
             6.5185188375137493e-001, 7.1759262294681037e-001,
             7.6111113892661209e-001, 9.5555559496084896e-001,
             1.0231481669125735e+000, 9.1481485708996146e-001,
             7.6203706606670707e-001, 5.4351853584801724e-001,
             3.2777779491411341e-001, 4.8148150131027556e-001,
             6.9907410521671309e-001, 8.7037041397006476e-001,
             9.7949737491746447e-001, 1.0416666846426708e+000,
             1.1038359943678770e+000, 1.1342592732931571e+000,
             9.2791005322542119e-001, 6.2169313616065125e-001,
             5.1124340429823256e-001, 4.4973547051034934e-001,
             4.1865081564774620e-001, 4.3518520698503238e-001,
             4.0476192805975231e-001, 3.7301589725982609e-001,
             3.4193124239722295e-001, 3.2605821706315208e-001,
             3.2605821706315208e-001, 3.4126985652579211e-001,
             3.4126985652579211e-001, 3.7301589725982609e-001,
             3.5714288185986298e-001, 3.8756616078514305e-001,
             4.4973547051034934e-001, 5.2777779563551874e-001,
             5.5820107456079882e-001, 6.8386248479444589e-001,
             6.6798944952626726e-001, 5.4431218697280492e-001,
             1.7261905628182594e-001, 2.8086420875272644e-001,
             1.0702160683311064e+000, 1.2662037340579211e+000,
             1.2484568118313213e+000, 8.4722225368022919e-001,
             1.0077160749538443e+000, 1.0123457073429485e+000,
             1.1574074381065591e-001, 2.5000000848538351e-001,
             1.2438271794422171e+000, 1.3865740784892324e+000,
             4.1049384652280541e-001, 0., 0., 4.7222224705749127e-001,
             1.4444444775581360e+000, 3.7500002110997865e-001, 0., 0.,
             0., 1.4043210007158322e+000, 4.5061728983749560e-001, 0.,
             0., 2.2376544112454599e-002, 9.4058645912158667e-001,
             1.0570988165743564e+000, 1.6049383203556511e-001,
             2.2762346587339310e-001, 9.8996915272724451e-001,
             2.1373457491489845e-001, 9.4058645912158667e-001,
             1.3063272109002249e+000, 1.2083333730697632e+000,
             4.9922841005487228e-001, 4.8703706275533776e-001,
             8.7777783274650645e-001, 1.0379629922133908e+000,
             1.1074074098357443e+000, 1.1768518754729520e+000,
             9.6851852657618309e-001, 8.9351854810008291e-001,
             8.1851853154323706e-001, 7.2222223877906799e-001,
             6.7962964828367589e-001, 6.5833335303597984e-001,
             5.8333335551950682e-001, 5.5092594849842591e-001,
             5.2962965325072986e-001, 5.2962965325072986e-001,
             3.8518521410447626e-001, 3.6388890933659379e-001,
             3.6388890933659379e-001, 3.6388890933659379e-001,
             3.6388890933659379e-001, 3.6388890933659379e-001,
             3.6388890933659379e-001, 3.6388890933659379e-001,
             3.6388890933659379e-001, 3.6388890933659379e-001,
             3.6388890933659379e-001, 3.6388890933659379e-001,
             3.8518521410447626e-001, 3.8518521410447626e-001,
             3.9074076047098227e-001, 5.3518520913742229e-001,
             5.3518520913742229e-001, 6.1018520665389531e-001,
             7.2777781867318758e-001, 7.9722225533591384e-001,
             8.4537040668505270e-001, 1.0703704182748446e+000,
             1.1287037241238131e+000, 1.0055556042326828e+000,
             8.3981484583130595e-001, 6.0462965076720288e-001,
             3.5277779507968177e-001, 5.3505293366612605e-001,
             7.7579368461692155e-001, 9.6296301373729065e-001,
             1.0813492285826847e+000, 1.1501322948428054e+000,
             1.2189153611029262e+000, 1.2572751484377669e+000,
             1.0595238163830736e+000, 6.8783070564900761e-001,
             5.7738097520574705e-001, 5.0462965474084598e-001,
             4.7023812161078560e-001, 4.8148150686864533e-001,
             4.4312171953380464e-001, 4.1269844060852456e-001,
             3.7830690747846418e-001, 3.6309525849563773e-001,
             3.6309525849563773e-001, 3.8227515216305807e-001,
             3.8227515216305807e-001, 4.1269844060852456e-001,
             3.9748680114588453e-001, 4.3584658848072522e-001,
             5.0462965474084598e-001, 5.8862436046360678e-001,
             6.2698414779844747e-001, 7.5661381495692837e-001,
             7.4140215645391550e-001, 5.9986774572146651e-001,
             1.7923281222542453e-001, 4.3209877601008362e-002,
             1.6358024666062843e-001, 1.9444444589316845e-001,
             1.9135802464536678e-001, 1.2962963280302509e-001,
             1.5432098953996176e-001, 1.5432098953996176e-001,
             1.8518518794465949e-002, 3.7037037588931898e-002,
             1.9135802464536678e-001, 2.1296296013450178e-001,
             6.1728396809395458e-002, 0., 0., 7.4074076833548386e-002,
             2.2222222387790680e-001, 5.5555557625161289e-002, 0., 0.,
             0., 2.1604938138230345e-001, 6.7901234337945038e-002, 0.,
             0., 3.0864197990776582e-003, 1.4506173241929510e-001,
             1.6049383203556511e-001, 2.4691358392621265e-002,
             3.3950617996814814e-002, 1.5123456829216009e-001,
             3.3950617996814814e-002, 1.4506173241929510e-001,
             2.0061728838877180e-001, 1.8518518877250179e-001,
             7.7160494769980881e-002, 7.4074076833548386e-002,
             1.3333333962493477e-001, 1.5925926088734910e-001,
             1.7037036810760142e-001, 1.8148148195059211e-001,
             1.4814814704435841e-001, 1.3703703982410609e-001,
             1.2592592598111541e-001, 1.1111111193895340e-001,
             1.0370370491787240e-001, 1.0000000140733190e-001,
             8.8888890875710391e-002, 8.5185187365169890e-002,
             8.1481483854629388e-002, 8.1481483854629388e-002,
             5.9259262791386380e-002, 5.5555557625161289e-002,
             5.5555557625161289e-002, 5.5555557625161289e-002,
             5.5555557625161289e-002, 5.5555557625161289e-002,
             5.5555557625161289e-002, 5.5555557625161289e-002,
             5.5555557625161289e-002, 5.5555557625161289e-002,
             5.5555557625161289e-002, 5.5555557625161289e-002,
             5.9259262791386380e-002, 5.9259262791386380e-002,
             5.9259261135701791e-002, 8.1481483854629388e-002,
             8.1481483854629388e-002, 9.2592594386250893e-002,
             1.1111111525032258e-001, 1.2222222578194408e-001,
             1.2962963280302509e-001, 1.6296296770925878e-001,
             1.7407407492951110e-001, 1.5555556068817777e-001,
             1.2962963280302509e-001, 9.2592594386250893e-002,
             5.5555557625161289e-002, 8.2010584356135174e-002,
             1.1904762277290937e-001, 1.4814815366709677e-001,
             1.6666666790843010e-001, 1.7724867793854582e-001,
             1.8783068796866154e-001, 1.9312169298371940e-001,
             1.5873015707447413e-001, 1.0582010692389554e-001,
             8.7301589371193034e-002, 7.6719579341077315e-002,
             7.1428574326019456e-002, 7.4074076833548386e-002,
             6.8783071818490527e-002, 6.3492066803432667e-002,
             5.8201061788374808e-002, 5.5555557625161289e-002,
             5.5555557625161289e-002, 5.8201060132690219e-002,
             5.8201060132690219e-002, 6.3492066803432667e-002,
             6.0846564295903738e-002, 6.6137569310961597e-002,
             7.6719579341077315e-002, 8.9947091878721963e-002,
             9.5238096893779822e-002, 1.1640212357674962e-001,
             1.1375661775785151e-001, 9.2592594386250893e-002,
             2.9100530066345109e-002, 5.9413582063567505e-002,
             2.2839506451086500e-001, 2.6851852272671684e-001,
             2.6543210147891516e-001, 1.8055555969476700e-001,
             2.1450617541501549e-001, 2.1682099140260691e-001,
             2.3148148596562723e-002, 5.5555556797318995e-002,
             2.6311728549132374e-001, 2.9398147996377055e-001,
             8.9506176242857838e-002, 0., 0., 9.7222226775354859e-002,
             3.0555555969476700e-001, 8.3333337058623669e-002, 0., 0.,
             0., 2.9706790121157223e-001, 9.7993827275471901e-002, 0.,
             0., 5.4012347001260452e-003, 1.9830247529862843e-001,
             2.2762346587339310e-001, 3.3950617996814814e-002,
             5.0154322459373957e-002, 2.1141975416721381e-001,
             4.3209877601008362e-002, 1.9830247529862843e-001,
             2.7700618120991161e-001, 2.5694444961845875e-001,
             1.0493827420344326e-001, 1.0462963396200431e-001,
             1.8888889849185952e-001, 2.2037037514426094e-001,
             2.3425925757597987e-001, 2.4814815159749104e-001,
             2.0648148112274978e-001, 1.8981481851251036e-001,
             1.7314814927953259e-001, 1.5277777984738350e-001,
             1.4537037282630250e-001, 1.4166666931576199e-001,
             1.2500000339415340e-001, 1.1574074449362581e-001,
             1.1203704098308531e-001, 1.1203704098308531e-001,
             8.1481486834861672e-002, 7.7777781668636581e-002,
             7.7777781668636581e-002, 7.7777781668636581e-002,
             7.7777781668636581e-002, 7.7777781668636581e-002,
             7.7777781668636581e-002, 7.7777781668636581e-002,
             7.7777781668636581e-002, 7.7777781668636581e-002,
             7.7777781668636581e-002, 7.7777781668636581e-002,
             8.1481486834861672e-002, 8.1481486834861672e-002,
             8.4259262874170626e-002, 1.1481481867807886e-001,
             1.1481481867807886e-001, 1.3148148459968745e-001,
             1.5555556333727316e-001, 1.6944444908036127e-001,
             1.7962963627996276e-001, 2.2962963735615771e-001,
             2.3796296439788955e-001, 2.1111111955510253e-001,
             1.7685185610144227e-001, 1.2870370690469390e-001,
             7.2222225036886023e-002, 1.1375661763958833e-001,
             1.6468254453133024e-001, 2.0370371253402153e-001,
             2.2817460506681408e-001, 2.4272486894692058e-001,
             2.5727513282702708e-001, 2.6653439169207571e-001,
             2.3214285578283045e-001, 1.4550264790733025e-001,
             1.2500000342963236e-001, 1.0846561262453047e-001,
             1.0119048068447722e-001, 1.0185185626701077e-001,
             9.2592597401962129e-002, 8.7301592386904270e-002,
             8.0026460446851022e-002, 7.7380956283637503e-002,
             7.7380956283637503e-002, 8.2010585716161821e-002,
             8.2010585716161821e-002, 8.7301592386904270e-002,
             8.4656089879375340e-002, 9.3915348744423977e-002,
             1.0846561262453047e-001, 1.2566137901216590e-001,
             1.3492063787721453e-001, 1.6005292089370204e-001,
             1.5740741507480394e-001, 1.2632275459469944e-001,
             3.5052911462213010e-002, 2.6466049704654715e-001,
             1.0054012215063892e+000, 1.1921296241106809e+000,
             1.1743827018840811e+000, 7.9629630402282459e-001,
             9.4753086217391669e-001, 9.4984567754062610e-001,
             1.1111111193895340e-001, 2.3148148099857346e-001,
             1.1720678865173717e+000, 1.3055555224418640e+000,
             3.8271605467170833e-001, 0., 0., 4.4907408676765570e-001,
             1.3611111044883728e+000, 3.4722222925888158e-001, 0., 0.,
             0., 1.3233024446684638e+000, 4.2052468344753180e-001, 0.,
             0., 2.0061728176603344e-002, 8.8734569244178729e-001,
             9.8996915272724451e-001, 1.5123456829216009e-001,
             2.1141975416721381e-001, 9.2978393994731690e-001,
             2.0447531117149342e-001, 8.8734569244178729e-001,
             1.2299382839305899e+000, 1.1365740801449178e+000,
             4.7145061820377521e-001, 4.5648149196748378e-001,
             8.2222224904431229e-001, 9.7685185063768287e-001,
             1.0435184918068074e+000, 1.1101851760237302e+000,
             9.1018516642076008e-001, 8.4074074581817371e-001,
             7.7129628713484166e-001, 6.8055555224418640e-001,
             6.3796296174879430e-001, 6.1666666650109825e-001,
             5.4722222685813904e-001, 5.2037037771057193e-001,
             4.9907408246287588e-001, 4.9907408246287588e-001,
             3.6296298012689299e-001, 3.4166667535901052e-001,
             3.4166667535901052e-001, 3.4166667535901052e-001,
             3.4166667535901052e-001, 3.4166667535901052e-001,
             3.4166667535901052e-001, 3.4166667535901052e-001,
             3.4166667535901052e-001, 3.4166667535901052e-001,
             3.4166667535901052e-001, 3.4166667535901052e-001,
             3.6296298012689299e-001, 3.6296298012689299e-001,
             3.6574074755664210e-001, 5.0185185941281141e-001,
             5.0185185941281141e-001, 5.7129629905577062e-001,
             6.8333335071802104e-001, 7.5000001092751845e-001,
             7.9537038085637235e-001, 1.0037037188256228e+000,
             1.0648148060948763e+000, 9.5000002053048860e-001,
             7.9259260142291055e-001, 5.6851852210583509e-001,
             3.3611112021737632e-001, 5.0330688619109054e-001,
             7.3015874245810153e-001, 9.0740743003509650e-001,
             1.0198412639281109e+000, 1.0846560745642932e+000,
             1.1494708852004756e+000, 1.1838624169113778e+000,
             9.8611108485668453e-001, 6.4814814692609524e-001,
             5.3968254429480389e-001, 4.7288360726581047e-001,
             4.4047620194771930e-001, 4.5370371501754825e-001,
             4.1931218330664599e-001, 3.8888890438136592e-001,
             3.5648149906327475e-001, 3.4126985008044830e-001,
             3.4126985008044830e-001, 3.5846561593589943e-001,
             3.5846561593589943e-001, 3.8888890438136592e-001,
             3.7367726491872588e-001, 4.0806879662962814e-001,
             4.7288360726581047e-001, 5.5291005736463283e-001,
             5.8730158907553509e-001, 7.1296299812654951e-001,
             6.9775133962353664e-001, 5.6613757043446178e-001,
             1.7328042816863487e-001, 5.9413582063567505e-002,
             2.2145061654809073e-001, 2.6620370673912541e-001,
             2.6080246950373231e-001, 1.7592593268663803e-001,
             2.0987654840688652e-001, 2.0756173241929510e-001,
             2.7777778398659497e-002, 4.6296297193125446e-002,
             2.6311728549132374e-001, 2.9166666397617913e-001,
             8.0246916017782555e-002, 0., 0., 1.0648148575866667e-001,
             3.0555555969476700e-001, 6.9444447341892479e-002, 0., 0.,
             0., 2.9706790121157223e-001, 8.8734568292160088e-002, 0.,
             0., 3.0864197990776582e-003, 2.0061729128621986e-001,
